{"learner":{"attributes":{"scikit_learn":"{\"_estimator_type\": \"regressor\"}"},"feature_names":[],"feature_types":[],"gradient_booster":{"model":{"gbtree_model_param":{"num_parallel_tree":"1","num_trees":"400"},"iteration_indptr":[0,1,2,3,4,5,6,7,8,9,10,11,12,13,14,15,16,17,18,19,20,21,22,23,24,25,26,27,28,29,30,31,32,33,34,35,36,37,38,39,40,41,42,43,44,45,46,47,48,49,50,51,52,53,54,55,56,57,58,59,60,61,62,63,64,65,66,67,68,69,70,71,72,73,74,75,76,77,78,79,80,81,82,83,84,85,86,87,88,89,90,91,92,93,94,95,96,97,98,99,100,101,102,103,104,105,106,107,108,109,110,111,112,113,114,115,116,117,118,119,120,121,122,123,124,125,126,127,128,129,130,131,132,133,134,135,136,137,138,139,140,141,142,143,144,145,146,147,148,149,150,151,152,153,154,155,156,157,158,159,160,161,162,163,164,165,166,167,168,169,170,171,172,173,174,175,176,177,178,179,180,181,182,183,184,185,186,187,188,189,190,191,192,193,194,195,196,197,198,199,200,201,202,203,204,205,206,207,208,209,210,211,212,213,214,215,216,217,218,219,220,221,222,223,224,225,226,227,228,229,230,231,232,233,234,235,236,237,238,239,240,241,242,243,244,245,246,247,248,249,250,251,252,253,254,255,256,257,258,259,260,261,262,263,264,265,266,267,268,269,270,271,272,273,274,275,276,277,278,279,280,281,282,283,284,285,286,287,288,289,290,291,292,293,294,295,296,297,298,299,300,301,302,303,304,305,306,307,308,309,310,311,312,313,314,315,316,317,318,319,320,321,322,323,324,325,326,327,328,329,330,331,332,333,334,335,336,337,338,339,340,341,342,343,344,345,346,347,348,349,350,351,352,353,354,355,356,357,358,359,360,361,362,363,364,365,366,367,368,369,370,371,372,373,374,375,376,377,378,379,380,381,382,383,384,385,386,387,388,389,390,391,392,393,394,395,396,397,398,399,400],"tree_info":[0,0,0,0,0,0,0,0,0,0,0,0,0,0,0,0,0,0,0,0,0,0,0,0,0,0,0,0,0,0,0,0,0,0,0,0,0,0,0,0,0,0,0,0,0,0,0,0,0,0,0,0,0,0,0,0,0,0,0,0,0,0,0,0,0,0,0,0,0,0,0,0,0,0,0,0,0,0,0,0,0,0,0,0,0,0,0,0,0,0,0,0,0,0,0,0,0,0,0,0,0,0,0,0,0,0,0,0,0,0,0,0,0,0,0,0,0,0,0,0,0,0,0,0,0,0,0,0,0,0,0,0,0,0,0,0,0,0,0,0,0,0,0,0,0,0,0,0,0,0,0,0,0,0,0,0,0,0,0,0,0,0,0,0,0,0,0,0,0,0,0,0,0,0,0,0,0,0,0,0,0,0,0,0,0,0,0,0,0,0,0,0,0,0,0,0,0,0,0,0,0,0,0,0,0,0,0,0,0,0,0,0,0,0,0,0,0,0,0,0,0,0,0,0,0,0,0,0,0,0,0,0,0,0,0,0,0,0,0,0,0,0,0,0,0,0,0,0,0,0,0,0,0,0,0,0,0,0,0,0,0,0,0,0,0,0,0,0,0,0,0,0,0,0,0,0,0,0,0,0,0,0,0,0,0,0,0,0,0,0,0,0,0,0,0,0,0,0,0,0,0,0,0,0,0,0,0,0,0,0,0,0,0,0,0,0,0,0,0,0,0,0,0,0,0,0,0,0,0,0,0,0,0,0,0,0,0,0,0,0,0,0,0,0,0,0,0,0,0,0,0,0,0,0,0,0,0,0,0,0,0,0,0,0,0,0,0,0,0,0,0,0,0,0,0,0,0,0,0,0,0,0,0,0,0,0,0,0,0,0,0,0,0,0,0,0,0,0,0,0],"trees":[{"base_weights":[6.479496E-3,-5.230055E-1,1.1267059E0,4.8226323E-2,-8.9250463E-1,2.062617E0,-3.0652234E-1,-5.561291E-1,6.522397E-1,-5.438574E-1,-1.2402481E0,1.6455038E0,4.337298E0,-6.029549E-1,1.938796E-1,1.1236326E0,-7.6501846E-1,2.7290192E-1,2.2437806E0,-9.985105E-1,7.797215E-2,-6.5062515E-2,-4.969331E-1,3.0166092E0,1.0683112E0,1.9209613E0,5.7623024E0,-8.837265E-1,1.9055767E0,-5.8731493E-2,1.7843619E-1,-9.61272E-1,1.1794963E0,1.3505815E-1,-9.90609E-3,2.8638222E0,-5.285834E-2,-1.0781407E0,7.7378446E-1,-1.9330125E-1,2.117765E0,1.6268727E-1,-5.8731493E-2,3.6104038E0,1.8265129E0,8.0881256E-1,4.294259E0,2.8936872E0,-4.95547E-2,-3.3036467E-2,3.0779222E-1,-3.7992162E-1,-6.500723E-2,-4.404862E-2,1.2461551E-1,9.104155E-3,-6.168505E-2,-5.6633938E-2,1.8402255E-1,1.6096625E-2,-6.306961E-2,1.6059779E-1,6.710589E-2,-6.5142326E-2,-3.7208755E-2,9.1070294E-2,-4.404862E-2,1.1812369E-1,-2.2989338E-2,-4.404862E-2,1.4410184E-1,-2.9858345E-2,3.8439225E-2,4.4284716E-2,1.8788104E-1,1.4358653E-1,-1.8776795E-2,5.625948E-2,-6.194337E-2,2.4981117E-1,-3.3036467E-2,1.6810183E-1,-3.3036467E-2,-5.2726902E-2,3.0930385E-2],"categories":[],"categories_nodes":[],"categories_segments":[],"categories_sizes":[],"default_left":[0,0,0,0,0,0,0,0,0,0,0,0,0,0,0,0,0,0,0,0,0,0,0,0,0,0,0,0,0,0,0,0,0,0,0,0,0,0,0,0,0,0,0,0,0,0,0,0,0,0,0,0,0,0,0,0,0,0,0,0,0,0,0,0,0,0,0,0,0,0,0,0,0,0,0,0,0,0,0,0,0,0,0,0,0],"id":0,"left_children":[1,3,5,7,9,11,13,15,17,19,21,23,25,27,-1,29,31,33,35,37,39,-1,41,43,45,47,49,51,53,-1,-1,55,57,-1,59,61,-1,63,65,67,69,71,-1,73,75,77,79,81,-1,-1,-1,83,-1,-1,-1,-1,-1,-1,-1,-1,-1,-1,-1,-1,-1,-1,-1,-1,-1,-1,-1,-1,-1,-1,-1,-1,-1,-1,-1,-1,-1,-1,-1,-1,-1],"loss_changes":[6.227963E2,1.5053572E2,4.5267538E2,1.0293862E2,5.1822296E1,1.8641815E2,1.6853928E2,5.0334286E1,8.4513824E1,6.17101E1,9.147644E0,1.3447946E2,9.567279E1,9.042886E1,0E0,9.41033E1,4.9217667E1,7.900091E1,5.828911E1,1.8616425E1,5.1870132E1,0E0,8.237503E0,2.9445862E1,1.00330734E2,3.969213E1,5.209424E1,2.3422508E1,2.3450169E1,0E0,0E0,3.604519E1,7.356051E1,0E0,4.359639E1,7.8735657E0,0E0,8.110764E0,1.2005961E1,5.761563E1,2.7749344E1,5.064548E0,0E0,9.908966E0,4.480922E1,7.654325E1,3.4605194E1,1.8868484E1,0E0,0E0,0E0,3.635443E1,0E0,0E0,0E0,0E0,0E0,0E0,0E0,0E0,0E0,0E0,0E0,0E0,0E0,0E0,0E0,0E0,0E0,0E0,0E0,0E0,0E0,0E0,0E0,0E0,0E0,0E0,0E0,0E0,0E0,0E0,0E0,0E0,0E0],"parents":[2147483647,0,0,1,1,2,2,3,3,4,4,5,5,6,6,7,7,8,8,9,9,10,10,11,11,12,12,13,13,15,15,16,16,17,17,18,18,19,19,20,20,22,22,23,23,24,24,25,25,26,26,27,27,28,28,31,31,32,32,34,34,35,35,37,37,38,38,39,39,40,40,41,41,43,43,44,44,45,45,46,46,47,47,51,51],"right_children":[2,4,6,8,10,12,14,16,18,20,22,24,26,28,-1,30,32,34,36,38,40,-1,42,44,46,48,50,52,54,-1,-1,56,58,-1,60,62,-1,64,66,68,70,72,-1,74,76,78,80,82,-1,-1,-1,84,-1,-1,-1,-1,-1,-1,-1,-1,-1,-1,-1,-1,-1,-1,-1,-1,-1,-1,-1,-1,-1,-1,-1,-1,-1,-1,-1,-1,-1,-1,-1,-1,-1],"split_conditions":[1.057E3,8E2,1.72E2,1.862E2,5E0,5.1E1,1.5E1,1.67E2,8.3E0,9.09E2,2.0836E2,1.571E0,8.58E0,1.75E2,1.938796E-1,1.63E2,7.756E2,1.9E2,1.1332002E1,4.63E2,3.5E0,-6.5062515E-2,2.156E2,1.596E2,4.63E2,4.35E2,1.133125E2,7E0,1.779E2,-5.8731493E-2,1.7843619E-1,7E0,1.855E2,1.3505815E-1,1.52E2,2.2624E2,-5.285834E-2,2.7818E2,1.845E2,1.397E2,1.7E2,2.11E2,-5.8731493E-2,1.069E3,1.134E3,1.101E1,1.5453E1,4.95E0,-4.95547E-2,-3.3036467E-2,3.0779222E-1,1.146E3,-6.500723E-2,-4.404862E-2,1.2461551E-1,9.104155E-3,-6.168505E-2,-5.6633938E-2,1.8402255E-1,1.6096625E-2,-6.306961E-2,1.6059779E-1,6.710589E-2,-6.5142326E-2,-3.7208755E-2,9.1070294E-2,-4.404862E-2,1.1812369E-1,-2.2989338E-2,-4.404862E-2,1.4410184E-1,-2.9858345E-2,3.8439225E-2,4.4284716E-2,1.8788104E-1,1.4358653E-1,-1.8776795E-2,5.625948E-2,-6.194337E-2,2.4981117E-1,-3.3036467E-2,1.6810183E-1,-3.3036467E-2,-5.2726902E-2,3.0930385E-2],"split_indices":[2,2,1,1,7,5,7,1,7,2,1,7,7,6,0,1,2,1,7,0,7,0,1,1,0,0,1,5,1,0,0,5,1,0,4,1,0,0,1,0,1,1,0,2,2,7,4,7,0,0,0,2,0,0,0,0,0,0,0,0,0,0,0,0,0,0,0,0,0,0,0,0,0,0,0,0,0,0,0,0,0,0,0,0,0],"split_type":[0,0,0,0,0,0,0,0,0,0,0,0,0,0,0,0,0,0,0,0,0,0,0,0,0,0,0,0,0,0,0,0,0,0,0,0,0,0,0,0,0,0,0,0,0,0,0,0,0,0,0,0,0,0,0,0,0,0,0,0,0,0,0,0,0,0,0,0,0,0,0,0,0,0,0,0,0,0,0,0,0,0,0,0,0],"sum_hessian":[1.048E3,7.12E2,3.36E2,2.8E2,4.32E2,2.03E2,1.33E2,1.4E2,1.4E2,2.17E2,2.15E2,1.73E2,3E1,1.25E2,8E0,1.5E1,1.25E2,1.14E2,2.6E1,1.25E2,9.2E1,1.98E2,1.7E1,5E1,1.23E2,1.2E1,1.8E1,1.13E2,1.2E1,8E0,7E0,1.14E2,1.1E1,1.1E1,1.03E2,2.2E1,4E0,1.2E2,5E0,8.2E1,1E1,9E0,8E0,3.2E1,1.8E1,1.15E2,8E0,9E0,3E0,1E0,1.7E1,5.2E1,6.1E1,2E0,1E1,2.2E1,9.2E1,6E0,5E0,8.2E1,2.1E1,1.7E1,5E0,7E1,5E1,3E0,2E0,7E0,7.5E1,2E0,8E0,4E0,5E0,2E0,3E1,1.2E1,6E0,1E2,1.5E1,7E0,1E0,8E0,1E0,3.1E1,2.1E1],"tree_param":{"num_deleted":"0","num_feature":"8","num_nodes":"85","size_leaf_vector":"1"}},{"base_weights":[2.8522177E-2,-5.064275E-1,1.0952561E0,-8.2623935E-1,4.1474387E-1,8.5542446E-1,4.599341E0,-8.535917E-1,1.4372915E-1,-6.424685E-1,1.356305E0,-3.308381E-1,1.2685521E0,4.8797107E0,-3.2210555E-2,-4.6393386E-1,-9.5443064E-1,3.483455E-1,-9.939963E-1,1.8538884E0,-6.081905E-2,3.89007E0,-7.006548E-1,1.5512503E0,-5.6887764E-1,3.1517497E-1,3.889962E0,8.3566266E-1,-9.811229E-1,-4.0466467E-1,-1.0564258E0,1.3844371E0,-5.685087E-2,-1.1950413E0,6.503856E-2,8.129837E-1,2.5674388E0,-3.1718295E-2,2.3749352E-1,1.2526487E-1,-6.280537E-2,1.3791187E0,2.2699474E-1,2.2312567E0,-6.368845E-2,2.1420959E-1,-4.0731274E-2,-5.6538887E-2,7.281618E-2,-5.5784453E-2,1.3550352E-1,-5.595049E-2,1.6097147E-2,-2.6640996E-2,-5.5353384E-2,-4.3172274E-2,9.15519E-2,-6.3455336E-2,-2.6351234E-2,5.8367997E-2,-5.240613E-2,9.527801E-2,-4.4197556E-2,1.4619642E-1,-5.0592985E-2,8.4460914E-2,-6.0332574E-2,-3.1718295E-2,1.4072941E-1],"categories":[],"categories_nodes":[],"categories_segments":[],"categories_sizes":[],"default_left":[0,0,0,0,0,0,0,0,0,0,0,0,0,0,0,0,0,0,0,0,0,0,0,0,0,0,0,0,0,0,0,0,0,0,0,0,0,0,0,0,0,0,0,0,0,0,0,0,0,0,0,0,0,0,0,0,0,0,0,0,0,0,0,0,0,0,0,0,0],"id":1,"left_children":[1,3,5,7,9,11,13,15,-1,17,19,21,23,25,-1,27,29,31,33,35,-1,37,39,41,43,-1,45,47,49,51,53,55,-1,57,59,61,63,-1,-1,-1,-1,65,-1,67,-1,-1,-1,-1,-1,-1,-1,-1,-1,-1,-1,-1,-1,-1,-1,-1,-1,-1,-1,-1,-1,-1,-1,-1,-1],"loss_changes":[5.9288837E2,2.042069E2,2.876811E2,5.448398E1,1.7905336E2,1.601851E2,3.548651E1,1.9635773E1,0E0,2.9951645E1,1.23866974E2,1.354074E2,1.2658652E2,5.0726624E0,0E0,7.273855E1,2.2282257E1,3.6970486E1,1.3491291E1,5.7331757E1,0E0,3.0243935E1,1.4382649E2,1.0177139E2,6.797718E1,0E0,3.1310318E1,3.9482048E1,4.1270218E1,3.409841E1,8.452209E0,1.5635691E1,0E0,1.9534225E0,1.47212105E1,6.4721466E1,6.292978E1,0E0,0E0,0E0,0E0,1.6240753E2,0E0,1.3486729E1,0E0,0E0,0E0,0E0,0E0,0E0,0E0,0E0,0E0,0E0,0E0,0E0,0E0,0E0,0E0,0E0,0E0,0E0,0E0,0E0,0E0,0E0,0E0,0E0,0E0],"parents":[2147483647,0,0,1,1,2,2,3,3,4,4,5,5,6,6,7,7,9,9,10,10,11,11,12,12,13,13,15,15,16,16,17,17,18,18,19,19,21,21,22,22,23,23,24,24,26,26,27,27,28,28,29,29,30,30,31,31,33,33,34,34,35,35,36,36,41,41,43,43],"right_children":[2,4,6,8,10,12,14,16,-1,18,20,22,24,26,-1,28,30,32,34,36,-1,38,40,42,44,-1,46,48,50,52,54,56,-1,58,60,62,64,-1,-1,-1,-1,66,-1,68,-1,-1,-1,-1,-1,-1,-1,-1,-1,-1,-1,-1,-1,-1,-1,-1,-1,-1,-1,-1,-1,-1,-1,-1,-1],"split_conditions":[1.057E3,8.76E2,8.75E1,6.75E2,2.5757E2,6E2,1.317E3,7.5325E2,1.4372915E-1,9.32E2,1.034E3,1.1055E3,7.719E2,5.18E2,-3.2210555E-2,7E0,6.71E2,7.4823E2,3.6E1,7.37E2,-6.081905E-2,1.062E3,4.377E2,1.6E1,1.5E0,3.1517497E-1,4.165E2,8.14E0,2.844E2,9.795E2,1.397E2,6.553E2,-5.685087E-2,2.45E2,9.8E2,6.81E2,1.1332464E1,-3.1718295E-2,2.3749352E-1,1.2526487E-1,-6.280537E-2,1.101E1,2.2699474E-1,2.4E2,-6.368845E-2,2.1420959E-1,-4.0731274E-2,-5.6538887E-2,7.281618E-2,-5.5784453E-2,1.3550352E-1,-5.595049E-2,1.6097147E-2,-2.6640996E-2,-5.5353384E-2,-4.3172274E-2,9.15519E-2,-6.3455336E-2,-2.6351234E-2,5.8367997E-2,-5.240613E-2,9.527801E-2,-4.4197556E-2,1.4619642E-1,-5.0592985E-2,8.4460914E-2,-6.0332574E-2,-3.1718295E-2,1.4072941E-1],"split_indices":[2,3,5,0,0,3,2,2,0,3,3,2,3,3,0,5,3,2,5,2,0,2,3,7,7,0,0,7,4,2,0,2,0,0,3,2,7,0,0,0,0,7,0,0,0,0,0,0,0,0,0,0,0,0,0,0,0,0,0,0,0,0,0,0,0,0,0,0,0],"split_type":[0,0,0,0,0,0,0,0,0,0,0,0,0,0,0,0,0,0,0,0,0,0,0,0,0,0,0,0,0,0,0,0,0,0,0,0,0,0,0,0,0,0,0,0,0,0,0,0,0,0,0,0,0,0,0,0,0,0,0,0,0,0,0,0,0,0,0,0,0],"sum_hessian":[1.037E3,6.91E2,3.46E2,5.13E2,1.78E2,3.25E2,2.1E1,5.1E2,3E0,8.4E1,9.4E1,8.4E1,2.41E2,2E1,1E0,1.06E2,4.04E2,2.2E1,6.2E1,7.9E1,1.5E1,6E0,7.8E1,2.09E2,3.2E1,6E0,1.4E1,3E1,7.6E1,6.4E1,3.4E2,1.3E1,9E0,5.2E1,1E1,3.3E1,4.6E1,1E0,5E0,1.1E1,6.7E1,1.99E2,1E1,6E0,2.6E1,1.3E1,1E0,7E0,2.3E1,7.4E1,2E0,3.2E1,3.2E1,3.1E1,3.09E2,2E0,1.1E1,4.6E1,6E0,5E0,5E0,2E1,1.3E1,4.2E1,4E0,1.78E2,2.1E1,1E0,5E0],"tree_param":{"num_deleted":"0","num_feature":"8","num_nodes":"69","size_leaf_vector":"1"}},{"base_weights":[-1.5827628E-2,-4.8238495E-1,9.488948E-1,-7.395955E-1,4.5486903E-1,7.1855956E-1,4.4135795E0,-8.1282026E-1,2.4443324E-1,-3.8214126E-1,1.4672458E0,-3.8209322E-1,1.0870359E0,4.6970687E0,-3.1405292E-2,-2.7197194E-1,-8.864057E-1,2.115764E0,-2.3103797E-1,1.3219969E0,-8.0255604E-1,1.9813728E0,-5.699861E-2,1.6399559E0,-9.858526E-1,1.372794E0,-5.178749E-1,3.0630636E-1,3.4563353E0,-9.8440206E-1,6.5372294E-1,-4.496904E-1,-9.9981785E-1,2.605811E0,-3.2864165E-2,1.2916784E0,-7.9243004E-1,1.8759228E0,-4.7362156E-2,-1.0768981E0,2.385792E-1,8.154534E-1,2.6210716E0,2.1736374E0,-4.523796E-2,1.7437455E-1,-5.948458E-2,1.2392262E0,2.064536E-1,2.1895723E0,-6.1129916E-2,1.9383699E-1,-3.971299E-2,2.1564584E-2,-5.4018166E-2,-2.6676909E-3,1.0761844E-1,-3.6675323E-2,1.17191516E-1,-2.383782E-2,-5.1798787E-2,-3.0026069E-2,1.6201435E-1,1.2771969E-1,-4.626569E-2,-6.060153E-2,3.341883E-2,1.0714674E-1,4.8335712E-2,-5.6681182E-2,4.823884E-2,7.674116E-2,-5.4374363E-2,9.8807685E-2,-5.403432E-2,1.5372823E-1,5.445924E-2,-3.2872822E-2,1.2031038E-1,7.507608E-2,-5.720246E-2,-3.0925337E-2,1.3395423E-1],"categories":[],"categories_nodes":[],"categories_segments":[],"categories_sizes":[],"default_left":[0,0,0,0,0,0,0,0,0,0,0,0,0,0,0,0,0,0,0,0,0,0,0,0,0,0,0,0,0,0,0,0,0,0,0,0,0,0,0,0,0,0,0,0,0,0,0,0,0,0,0,0,0,0,0,0,0,0,0,0,0,0,0,0,0,0,0,0,0,0,0,0,0,0,0,0,0,0,0,0,0,0,0],"id":2,"left_children":[1,3,5,7,9,11,13,15,17,19,21,23,25,27,-1,29,31,33,35,37,39,41,-1,43,45,47,49,-1,51,53,55,57,59,61,-1,63,65,67,-1,69,71,73,75,77,-1,-1,-1,79,-1,81,-1,-1,-1,-1,-1,-1,-1,-1,-1,-1,-1,-1,-1,-1,-1,-1,-1,-1,-1,-1,-1,-1,-1,-1,-1,-1,-1,-1,-1,-1,-1,-1,-1],"loss_changes":[4.694602E2,1.6980974E2,2.6816174E2,3.9973206E1,1.2936089E2,1.3019601E2,3.2964813E1,2.0215393E1,3.5189613E1,6.124235E1,9.474916E1,1.00504074E2,1.1077887E2,1.4287689E1,0E0,4.219158E1,2.1937408E1,1.2584148E1,2.8378473E1,2.3145798E1,1.9679577E1,4.11212E1,0E0,2.7769894E1,6.159508E1,6.998572E1,7.327302E1,0E0,2.6309753E1,5.3566093E0,2.9785252E1,7.703959E1,6.2768555E0,1.6186241E1,0E0,2.7558481E1,1.5521016E1,1.3271713E0,0E0,7.347702E0,2.7452688E1,5.0554302E1,2.2355103E1,1.2116821E1,0E0,0E0,0E0,1.2424176E2,0E0,1.2653748E1,0E0,0E0,0E0,0E0,0E0,0E0,0E0,0E0,0E0,0E0,0E0,0E0,0E0,0E0,0E0,0E0,0E0,0E0,0E0,0E0,0E0,0E0,0E0,0E0,0E0,0E0,0E0,0E0,0E0,0E0,0E0,0E0,0E0],"parents":[2147483647,0,0,1,1,2,2,3,3,4,4,5,5,6,6,7,7,8,8,9,9,10,10,11,11,12,12,13,13,15,15,16,16,17,17,18,18,19,19,20,20,21,21,23,23,24,24,25,25,26,26,28,28,29,29,30,30,31,31,32,32,33,33,35,35,36,36,37,37,39,39,40,40,41,41,42,42,43,43,47,47,49,49],"right_children":[2,4,6,8,10,12,14,16,18,20,22,24,26,28,-1,30,32,34,36,38,40,42,-1,44,46,48,50,-1,52,54,56,58,60,62,-1,64,66,68,-1,70,72,74,76,78,-1,-1,-1,80,-1,82,-1,-1,-1,-1,-1,-1,-1,-1,-1,-1,-1,-1,-1,-1,-1,-1,-1,-1,-1,-1,-1,-1,-1,-1,-1,-1,-1,-1,-1,-1,-1,-1,-1],"split_conditions":[1.057E3,9.059E2,8.75E1,4.792E2,3.007E2,6E2,1.317E3,6.71E2,6.882E2,9.32E2,1.034E3,5.2E2,7.719E2,5.18E2,-3.1405292E-2,9.98E2,7.4823E2,1.043E3,4.94E2,9.7E1,3.6E1,7.37E2,-5.699861E-2,8.89E0,1.103E3,1.6E1,1.5E0,3.0630636E-1,4.081E2,1.397E2,1.004E2,1.1333586E1,1.30625E2,4.86E2,-3.2864165E-2,3.09084E1,8.58E2,7.429E2,-4.7362156E-2,2.75E2,2.07E0,6.81E2,7.87E2,2.318E2,-4.523796E-2,1.7437455E-1,-5.948458E-2,1.101E1,2.064536E-1,2.4E2,-6.1129916E-2,1.9383699E-1,-3.971299E-2,2.1564584E-2,-5.4018166E-2,-2.6676909E-3,1.0761844E-1,-3.6675323E-2,1.17191516E-1,-2.383782E-2,-5.1798787E-2,-3.0026069E-2,1.6201435E-1,1.2771969E-1,-4.626569E-2,-6.060153E-2,3.341883E-2,1.0714674E-1,4.8335712E-2,-5.6681182E-2,4.823884E-2,7.674116E-2,-5.4374363E-2,9.8807685E-2,-5.403432E-2,1.5372823E-1,5.445924E-2,-3.2872822E-2,1.2031038E-1,7.507608E-2,-5.720246E-2,-3.0925337E-2,1.3395423E-1],"split_indices":[2,3,5,0,0,3,2,3,3,3,3,3,3,3,0,2,2,2,0,4,5,2,0,7,2,7,7,0,0,0,4,7,0,0,0,4,3,2,0,0,7,2,2,0,0,0,0,7,0,0,0,0,0,0,0,0,0,0,0,0,0,0,0,0,0,0,0,0,0,0,0,0,0,0,0,0,0,0,0,0,0,0,0],"split_type":[0,0,0,0,0,0,0,0,0,0,0,0,0,0,0,0,0,0,0,0,0,0,0,0,0,0,0,0,0,0,0,0,0,0,0,0,0,0,0,0,0,0,0,0,0,0,0,0,0,0,0,0,0,0,0,0,0,0,0,0,0,0,0,0,0,0,0,0,0,0,0,0,0,0,0,0,0,0,0,0,0,0,0],"sum_hessian":[1.041E3,7.02E2,3.39E2,5.51E2,1.51E2,3.19E2,2E1,5.13E2,3.8E1,8.3E1,6.8E1,8E1,2.39E2,1.9E1,1E0,6.2E1,4.51E2,7E0,3.1E1,1.6E1,6.7E1,5.7E1,1.1E1,1.8E1,6.2E1,2.03E2,3.6E1,7E0,1.2E1,3.5E1,2.7E1,9.4E1,3.57E2,6E0,1E0,8E0,2.3E1,1.3E1,3E0,5.3E1,1.4E1,2.1E1,3.6E1,1.5E1,3E0,2E0,6E1,1.95E2,8E0,7E0,2.9E1,1.1E1,1E0,2E0,3.3E1,1.9E1,8E0,8.6E1,8E0,2.4E1,3.33E2,1E0,5E0,5E0,3E0,1.8E1,5E0,9E0,4E0,5.2E1,1E0,7E0,7E0,1.3E1,8E0,2.7E1,9E0,1E0,1.4E1,1.76E2,1.9E1,1E0,6E0],"tree_param":{"num_deleted":"0","num_feature":"8","num_nodes":"83","size_leaf_vector":"1"}},{"base_weights":[-5.5621546E-3,-9.95108E-2,2.8643103E0,4.3568546E-1,-3.701556E-1,4.4282904E0,1.1754923E-1,1.586869E0,-1.5463364E-1,-6.123909E-1,4.3864152E-1,-4.6226885E-2,2.5202033E-1,1.1084133E-1,-7.339166E-1,3.932298E-1,2.2428958E0,2.931873E-1,-1.019188E0,-6.683317E-1,1.1775304E0,-1.8174691E-1,2.0587637E0,1.387623E-1,-5.6387253E-2,1.3905069E-1,-5.4375845E-1,3.247521E0,5.720111E-1,1.2835135E0,-4.0787423E-1,-5.754183E-2,1.1067199E0,-6.93605E-1,1.3226378E-1,1.7931502E-1,-5.472176E-2,3.9795867E-1,-9.7505575E-1,-5.3265166E-2,2.4978595E0,7.206301E-2,-3.8791183E-2,-4.7481198E-2,1.7804305E-1,2.0495315E-1,9.1084756E-2,-1.959735E-2,8.164098E-2,9.861972E-2,-2.932566E-3,-4.1309197E-2,1.2977007E-1,1.312532E-1,-3.902655E-2,-1.9551046E-2,-4.019608E-2,3.9264534E-2,-5.483976E-2,-5.8005203E-2,4.759934E-3,1.3521963E-1,-4.065792E-2],"categories":[],"categories_nodes":[],"categories_segments":[],"categories_sizes":[],"default_left":[0,0,0,0,0,0,0,0,0,0,0,0,0,0,0,0,0,0,0,0,0,0,0,0,0,0,0,0,0,0,0,0,0,0,0,0,0,0,0,0,0,0,0,0,0,0,0,0,0,0,0,0,0,0,0,0,0,0,0,0,0,0,0],"id":3,"left_children":[1,3,5,7,9,11,13,15,17,19,21,-1,-1,-1,23,25,27,29,31,33,35,37,39,41,-1,-1,43,45,47,49,51,-1,53,55,-1,-1,-1,57,59,-1,61,-1,-1,-1,-1,-1,-1,-1,-1,-1,-1,-1,-1,-1,-1,-1,-1,-1,-1,-1,-1,-1,-1],"loss_changes":[2.806905E2,1.4616814E2,1.4124353E2,2.3061815E2,1.3153448E2,7.346753E1,2.4863981E1,8.916983E1,8.7411064E1,5.2453888E1,1.5616547E2,0E0,0E0,0E0,3.593346E0,9.547987E1,1.2235971E2,1.0397117E2,2.282386E1,4.3791412E1,9.148726E1,5.2355106E1,6.1646835E1,5.8831487E0,0E0,0E0,5.50251E1,4.8383667E1,3.0294655E1,5.7440376E1,1.1269861E2,0E0,1.6376425E1,1.6308899E1,0E0,0E0,0E0,3.907306E1,9.616772E0,0E0,2.818483E1,0E0,0E0,0E0,0E0,0E0,0E0,0E0,0E0,0E0,0E0,0E0,0E0,0E0,0E0,0E0,0E0,0E0,0E0,0E0,0E0,0E0,0E0],"parents":[2147483647,0,0,1,1,2,2,3,3,4,4,5,5,6,6,7,7,8,8,9,9,10,10,14,14,15,15,16,16,17,17,18,18,19,19,20,20,21,21,22,22,23,23,26,26,27,27,28,28,29,29,30,30,32,32,33,33,37,37,38,38,40,40],"right_children":[2,4,6,8,10,12,14,16,18,20,22,-1,-1,-1,24,26,28,30,32,34,36,38,40,42,-1,-1,44,46,48,50,52,-1,54,56,-1,-1,-1,58,60,-1,62,-1,-1,-1,-1,-1,-1,-1,-1,-1,-1,-1,-1,-1,-1,-1,-1,-1,-1,-1,-1,-1,-1],"split_conditions":[8.75E1,1.67E2,6.69E2,6.75E2,8.81E2,1.22E2,3.5E2,1.5E2,8.357E2,1.6E1,1.95904E2,-4.6226885E-2,2.5202033E-1,1.1084133E-1,3.73E2,7.2E-1,1.596E2,3.6E0,1.598E2,6.75E2,6.43E2,8.15E1,9.059E2,3.77E0,-5.6387253E-2,1.3905069E-1,1.82E1,6.52E2,9.11E1,3.0651E2,1.749E2,-5.754183E-2,4.24E2,2.6E0,1.3226378E-1,1.7931502E-1,-5.472176E-2,9.93E2,1.901E2,-5.3265166E-2,9.871E2,7.206301E-2,-3.8791183E-2,-4.7481198E-2,1.7804305E-1,2.0495315E-1,9.1084756E-2,-1.959735E-2,8.164098E-2,9.861972E-2,-2.932566E-3,-4.1309197E-2,1.2977007E-1,1.312532E-1,-3.902655E-2,-1.9551046E-2,-4.019608E-2,3.9264534E-2,-5.483976E-2,-5.8005203E-2,4.759934E-3,1.3521963E-1,-4.065792E-2],"split_indices":[5,1,3,3,3,1,0,1,3,7,1,0,0,0,0,7,1,7,1,0,3,4,3,7,0,0,7,3,4,0,4,0,0,7,0,0,0,3,6,0,3,0,0,0,0,0,0,0,0,0,0,0,0,0,0,0,0,0,0,0,0,0,0],"split_type":[0,0,0,0,0,0,0,0,0,0,0,0,0,0,0,0,0,0,0,0,0,0,0,0,0,0,0,0,0,0,0,0,0,0,0,0,0,0,0,0,0,0,0,0,0,0,0,0,0,0,0,0,0,0,0,0,0,0,0,0,0,0,0],"sum_hessian":[1.039E3,1.007E3,3.2E1,3.38E2,6.69E2,2E1,1.2E1,1.14E2,2.24E2,5.15E2,1.54E2,2E0,1.8E1,3E0,9E0,4.1E1,7.3E1,1.48E2,7.6E1,5E2,1.5E1,1.12E2,4.2E1,3E0,6E0,1.1E1,3E1,4.5E1,2.8E1,6.1E1,8.7E1,7.2E1,4E0,4.97E2,3E0,7E0,8E0,6.5E1,4.7E1,5E0,3.7E1,1E0,2E0,2.8E1,2E0,2.7E1,1.8E1,1.5E1,1.3E1,4E1,2.1E1,7.7E1,1E1,2E0,2E0,1.34E2,3.63E2,5.2E1,1.3E1,4E1,7E0,3.5E1,2E0],"tree_param":{"num_deleted":"0","num_feature":"8","num_nodes":"63","size_leaf_vector":"1"}},{"base_weights":[8.659575E-3,-3.9631587E-1,9.111852E-1,-6.2891746E-1,4.5809308E-1,1.716574E0,-3.2868832E-1,1.087065E0,-6.643126E-1,-2.2686458E-1,2.4672658E0,1.3234923E0,3.3471704E0,5.170109E-1,-1.0171268E0,1.3609193E-1,-5.0067425E-2,-4.5235105E-2,-7.5917065E-1,-1.0479403E0,2.2394119E-1,2.6591787E0,-3.930266E-2,1.5069544E0,-5.4768175E-2,-4.767571E-2,3.743044E0,-6.647314E-2,1.6581285E0,-1.9575946E-1,-5.6567885E-2,-9.9487424E-1,7.472079E-1,-8.000698E-1,5.8658123E-1,-5.592533E-2,-3.020487E-1,-2.8132942E-1,1.2861573E0,5.02852E-2,1.4120628E-1,2.7617145E0,1.2360756E0,4.0900297E0,3.1395912E-2,-6.707696E-1,2.4345589E0,1.9662106E0,-3.7153684E-2,1.06254175E-1,-5.208028E-2,-5.5150967E-2,2.6317308E-2,6.9181584E-3,1.1288947E-1,-5.5151056E-2,-3.3889342E-2,1.0600618E-1,-5.1014185E-2,-4.045092E-2,4.3145746E-2,8.5903764E-2,-3.374793E-2,8.788566E-2,-4.758045E-2,-3.8058694E-2,1.4665385E-1,2.0198328E-2,9.374888E-2,1.2736188E-1,2.574233E-1,5.8428407E-2,-3.685921E-2,-4.3876253E-2,8.446466E-2,-3.4910936E-2,1.490922E-1,3.3739872E-2,1.0897534E-1],"categories":[],"categories_nodes":[],"categories_segments":[],"categories_sizes":[],"default_left":[0,0,0,0,0,0,0,0,0,0,0,0,0,0,0,0,0,0,0,0,0,0,0,0,0,0,0,0,0,0,0,0,0,0,0,0,0,0,0,0,0,0,0,0,0,0,0,0,0,0,0,0,0,0,0,0,0,0,0,0,0,0,0,0,0,0,0,0,0,0,0,0,0,0,0,0,0,0,0],"id":4,"left_children":[1,3,5,7,9,11,13,15,17,19,21,23,25,27,29,-1,-1,31,33,35,37,39,-1,41,-1,-1,43,45,47,49,-1,51,53,55,57,-1,59,61,63,-1,-1,65,67,69,71,73,75,77,-1,-1,-1,-1,-1,-1,-1,-1,-1,-1,-1,-1,-1,-1,-1,-1,-1,-1,-1,-1,-1,-1,-1,-1,-1,-1,-1,-1,-1,-1,-1],"loss_changes":[3.8706088E2,1.4556473E2,3.2809857E2,3.5646225E1,2.1662285E2,1.23120605E2,7.621341E1,4.3694508E1,3.3086227E1,4.391186E1,2.7064407E1,7.354117E1,6.8265076E1,3.9393833E1,6.533966E0,0E0,0E0,5.7936024E1,2.7383972E1,1.8728142E0,4.168824E1,7.523712E0,0E0,4.7909363E1,0E0,0E0,4.4947693E1,6.2087612E1,1.625639E1,2.1844261E1,0E0,6.338505E0,3.8315407E1,1.6849121E1,3.9126057E1,0E0,3.6511197E0,4.28719E1,2.805346E1,0E0,0E0,1.7928558E1,6.622873E1,3.9140015E1,4.3574815E0,1.758494E1,1.5798161E1,3.4874344E0,0E0,0E0,0E0,0E0,0E0,0E0,0E0,0E0,0E0,0E0,0E0,0E0,0E0,0E0,0E0,0E0,0E0,0E0,0E0,0E0,0E0,0E0,0E0,0E0,0E0,0E0,0E0,0E0,0E0,0E0,0E0],"parents":[2147483647,0,0,1,1,2,2,3,3,4,4,5,5,6,6,7,7,8,8,9,9,10,10,11,11,12,12,13,13,14,14,17,17,18,18,19,19,20,20,21,21,23,23,26,26,27,27,28,28,29,29,31,31,32,32,33,33,34,34,36,36,37,37,38,38,41,41,42,42,43,43,44,44,45,45,46,46,47,47],"right_children":[2,4,6,8,10,12,14,16,18,20,22,24,26,28,30,-1,-1,32,34,36,38,40,-1,42,-1,-1,44,46,48,50,-1,52,54,56,58,-1,60,62,64,-1,-1,66,68,70,72,74,76,78,-1,-1,-1,-1,-1,-1,-1,-1,-1,-1,-1,-1,-1,-1,-1,-1,-1,-1,-1,-1,-1,-1,-1,-1,-1,-1,-1,-1,-1,-1,-1],"split_conditions":[1.066E3,9.059E2,1.72E2,5.9E2,1.988E2,4.6E1,1.203E3,2.2624E2,6.71E2,7E0,9.871E2,7.719E2,1.22E2,1.146E3,1.89E2,1.3609193E-1,-5.0067425E-2,9.795E2,3E2,8.46E2,7.37E2,5.95E2,-3.930266E-2,1.1E3,-5.4768175E-2,-4.767571E-2,7.4449E2,4E1,2.0836E2,3.57E2,-5.6567885E-2,3.1E2,1.9E1,7.43E2,1.68E2,-5.592533E-2,2.45E2,9.251E2,4.6E1,5.02852E-2,1.4120628E-1,1.069E3,1.151E3,1.49E2,2.88E2,2.115E2,1.815E2,1.1655172E3,-3.7153684E-2,1.06254175E-1,-5.208028E-2,-5.5150967E-2,2.6317308E-2,6.9181584E-3,1.1288947E-1,-5.5151056E-2,-3.3889342E-2,1.0600618E-1,-5.1014185E-2,-4.045092E-2,4.3145746E-2,8.5903764E-2,-3.374793E-2,8.788566E-2,-4.758045E-2,-3.8058694E-2,1.4665385E-1,2.0198328E-2,9.374888E-2,1.2736188E-1,2.574233E-1,5.8428407E-2,-3.685921E-2,-4.3876253E-2,8.446466E-2,-3.4910936E-2,1.490922E-1,3.3739872E-2,1.0897534E-1],"split_indices":[2,3,1,2,1,5,2,1,3,5,3,3,1,2,1,0,0,2,4,2,2,2,0,2,0,0,3,5,1,0,0,0,5,3,1,0,0,3,5,0,0,2,2,1,0,6,1,2,0,0,0,0,0,0,0,0,0,0,0,0,0,0,0,0,0,0,0,0,0,0,0,0,0,0,0,0,0,0,0],"split_type":[0,0,0,0,0,0,0,0,0,0,0,0,0,0,0,0,0,0,0,0,0,0,0,0,0,0,0,0,0,0,0,0,0,0,0,0,0,0,0,0,0,0,0,0,0,0,0,0,0,0,0,0,0,0,0,0,0,0,0,0,0,0,0,0,0,0,0,0,0,0,0,0,0,0,0,0,0,0,0],"sum_hessian":[1.057E3,7.3E2,3.27E2,5.74E2,1.56E2,1.98E2,1.29E2,1.1E1,5.63E2,1.17E2,3.9E1,1.61E2,3.7E1,5.8E1,7.1E1,6E0,5E0,7.5E1,4.88E2,4.1E1,7.6E1,3.7E1,2E0,1.5E2,1.1E1,3E0,3.4E1,3.9E1,1.9E1,9E0,6.2E1,3.4E1,4.1E1,4.74E2,1.4E1,3.7E1,4E0,5.2E1,2.4E1,4E0,3.3E1,2.5E1,1.25E2,3.1E1,3E0,3.2E1,7E0,1.7E1,2E0,2E0,7E0,3.2E1,2E0,3E1,1.1E1,1.34E2,3.4E2,7E0,7E0,3E0,1E0,8E0,4.4E1,2E1,4E0,1E0,2.4E1,5.5E1,7E1,1.4E1,1.7E1,1E0,2E0,3E1,2E0,1E0,6E0,3E0,1.4E1],"tree_param":{"num_deleted":"0","num_feature":"8","num_nodes":"79","size_leaf_vector":"1"}},{"base_weights":[-1.0904918E-2,-3.929929E-1,8.506297E-1,-6.04696E-1,3.4186175E-1,6.6683894E-1,4.0655804E0,-6.753736E-1,2.5585493E-1,-5.433669E-1,1.18031E0,-2.2313859E-1,1.0051553E0,4.390361E0,-2.8272593E-2,4.350699E-1,-7.30538E-1,2.0784628E0,-2.2012582E-1,9.6689636E-1,-8.5549295E-1,1.7211691E0,-5.1037055E-2,2.1893735E-1,-6.332676E-1,8.785963E-1,1.930288E-1,2.7061734E-1,2.994111E0,-5.022949E-1,2.4897568E0,-7.665794E-1,4.642792E-1,2.4943237E0,-3.121061E-2,1.1214583E0,-8.81746E-1,-4.311667E-2,1.5441712E0,-1.023643E0,-1.3513933E-2,7.7760386E-1,2.3786619E0,1.08822815E-1,-5.3923447E-2,1.1905563E0,-4.0501755E-1,1.7751192E-1,-3.6372602E-2,-5.3335067E-2,2.6850766E-2,-2.813159E-2,1.5030943E-1,-1.565197E-2,-4.193245E-2,1.394527E-1,-4.885068E-2,-2.6863908E-2,1.502082E-1,1.1435218E-1,-4.838849E-2,-5.3168125E-2,1.4608853E-2,9.206658E-2,2.8190378E-2,-5.415502E-2,-2.3060365E-2,5.2384567E-2,-4.6059396E-2,7.815577E-2,-3.249399E-2,1.2920254E-1,-3.2251745E-3,2.23705E-2,1.0105015E-1,-5.3739697E-2,1.2879407E-1],"categories":[],"categories_nodes":[],"categories_segments":[],"categories_sizes":[],"default_left":[0,0,0,0,0,0,0,0,0,0,0,0,0,0,0,0,0,0,0,0,0,0,0,0,0,0,0,0,0,0,0,0,0,0,0,0,0,0,0,0,0,0,0,0,0,0,0,0,0,0,0,0,0,0,0,0,0,0,0,0,0,0,0,0,0,0,0,0,0,0,0,0,0,0,0,0,0],"id":5,"left_children":[1,3,5,7,9,11,13,15,17,19,21,23,25,27,-1,29,31,33,35,37,39,41,-1,-1,43,45,-1,-1,47,49,51,53,55,57,-1,59,61,-1,63,65,67,69,71,-1,-1,73,75,-1,-1,-1,-1,-1,-1,-1,-1,-1,-1,-1,-1,-1,-1,-1,-1,-1,-1,-1,-1,-1,-1,-1,-1,-1,-1,-1,-1,-1,-1],"loss_changes":[3.4070853E2,1.11751114E2,1.8518811E2,3.405049E1,1.20138504E2,9.115466E1,2.8051697E1,3.1865158E1,3.7761158E1,3.806718E1,1.0056491E2,1.6131172E2,7.575014E1,6.6259766E0,0E0,4.9400368E1,2.1499756E1,1.16724205E1,3.205551E1,1.6115143E1,9.330372E0,3.9716293E1,0E0,0E0,9.99169E1,8.497421E1,0E0,0E0,2.120958E1,1.11315155E1,1.4302177E1,1.5328918E1,5.298516E1,1.397913E1,0E0,3.1435413E1,5.42758E0,0E0,2.166422E0,1.339714E0,1.2523862E1,3.3533676E1,1.9736862E1,0E0,0E0,1.0401018E2,8.662305E1,0E0,0E0,0E0,0E0,0E0,0E0,0E0,0E0,0E0,0E0,0E0,0E0,0E0,0E0,0E0,0E0,0E0,0E0,0E0,0E0,0E0,0E0,0E0,0E0,0E0,0E0,0E0,0E0,0E0,0E0],"parents":[2147483647,0,0,1,1,2,2,3,3,4,4,5,5,6,6,7,7,8,8,9,9,10,10,11,11,12,12,13,13,15,15,16,16,17,17,18,18,19,19,20,20,21,21,24,24,25,25,28,28,29,29,30,30,31,31,32,32,33,33,35,35,36,36,38,38,39,39,40,40,41,41,42,42,45,45,46,46],"right_children":[2,4,6,8,10,12,14,16,18,20,22,24,26,28,-1,30,32,34,36,38,40,42,-1,-1,44,46,-1,-1,48,50,52,54,56,58,-1,60,62,-1,64,66,68,70,72,-1,-1,74,76,-1,-1,-1,-1,-1,-1,-1,-1,-1,-1,-1,-1,-1,-1,-1,-1,-1,-1,-1,-1,-1,-1,-1,-1,-1,-1,-1,-1,-1,-1],"split_conditions":[1.066E3,9.059E2,8.75E1,4.792E2,2.5757E2,6E2,1.317E3,6.3E2,6.882E2,9.32E2,1.034E3,1.1055E3,1.6E1,5.18E2,-2.8272593E-2,7E0,1.998E1,1.043E3,4.95E2,6.553E2,3.6E1,7.37E2,-5.1037055E-2,2.1893735E-1,4.377E2,5.7E0,1.930288E-1,2.7061734E-1,4.165E2,1.032E3,9.45E2,7.2E-1,7.37E2,4.86E2,-3.121061E-2,1.1332398E1,8.58E2,-4.311667E-2,7.429E2,2.45E2,9.8E2,6.81E2,9.6E1,1.08822815E-1,-5.3923447E-2,6.75E1,1.005E2,1.7751192E-1,-3.6372602E-2,-5.3335067E-2,2.6850766E-2,-2.813159E-2,1.5030943E-1,-1.565197E-2,-4.193245E-2,1.394527E-1,-4.885068E-2,-2.6863908E-2,1.502082E-1,1.1435218E-1,-4.838849E-2,-5.3168125E-2,1.4608853E-2,9.206658E-2,2.8190378E-2,-5.415502E-2,-2.3060365E-2,5.2384567E-2,-4.6059396E-2,7.815577E-2,-3.249399E-2,1.2920254E-1,-3.2251745E-3,2.23705E-2,1.0105015E-1,-5.3739697E-2,1.2879407E-1],"split_indices":[2,3,5,0,0,3,2,3,3,3,3,2,7,3,0,5,7,2,0,2,5,2,0,0,3,7,0,0,0,2,2,7,2,0,0,7,3,0,2,0,3,2,5,0,0,4,6,0,0,0,0,0,0,0,0,0,0,0,0,0,0,0,0,0,0,0,0,0,0,0,0,0,0,0,0,0,0],"split_type":[0,0,0,0,0,0,0,0,0,0,0,0,0,0,0,0,0,0,0,0,0,0,0,0,0,0,0,0,0,0,0,0,0,0,0,0,0,0,0,0,0,0,0,0,0,0,0,0,0,0,0,0,0,0,0,0,0,0,0,0,0,0,0,0,0,0,0,0,0,0,0,0,0,0,0,0,0],"sum_hessian":[1.033E3,7.16E2,3.17E2,5.56E2,1.6E2,3.01E2,1.6E1,5.14E2,4.2E1,7.8E1,8.2E1,8.3E1,2.18E2,1.5E1,1E0,2.4E1,4.9E2,8E0,3.4E1,1.3E1,6.5E1,6.6E1,1.6E1,6E0,7.7E1,2.1E2,8E0,7E0,8E0,1.7E1,7E0,4.76E2,1.4E1,7E0,1E0,1.1E1,2.3E1,3E0,1E1,5.4E1,1.1E1,2.8E1,3.8E1,1E1,6.7E1,1.69E2,4.1E1,7E0,1E0,1.1E1,6E0,1E0,6E0,6.6E1,4.1E2,5E0,9E0,1E0,6E0,7E0,4E0,2E1,3E0,7E0,3E0,4.8E1,6E0,5E0,6E0,1.8E1,1E1,3.5E1,3E0,9E1,7.9E1,3.4E1,7E0],"tree_param":{"num_deleted":"0","num_feature":"8","num_nodes":"77","size_leaf_vector":"1"}},{"base_weights":[-2.748275E-2,-4.167285E-1,7.86166E-1,-8.623226E-3,-6.816028E-1,1.4936006E0,-2.553358E-1,-7.2155863E-1,3.59267E-1,-3.8914296E-1,-9.566578E-1,1.302839E0,2.3697506E-1,-4.7027382E-1,1.4627296E-1,-9.231638E-1,1.1247224E0,8.584852E-2,1.7412299E0,-5.5555904E-1,1.0097535E0,-1.0020066E0,-2.048538E-1,8.683006E-1,2.1787179E0,-7.832841E-1,9.7090936E-1,5.8110066E-2,-9.851746E-1,2.0911746E0,-4.2387486E-2,4.5231813E-1,-5.7144535E-1,2.4257846E0,-4.7617745E-2,-7.92997E-1,-6.0558204E-2,-3.4743717E-1,2.080472E0,-5.109113E-2,-5.8823985E-1,8.9439017E-1,-4.574608E-2,2.2609844E0,2.3820995E-1,9.210659E-1,3.1313062E0,4.702683E-1,-9.2878765E-1,1.4905063E0,-4.1814964E-2,3.8867008E-2,-5.0752766E-2,-2.5788143E-2,1.3058124E-1,-5.3221635E-3,5.5422634E-2,-2.7654102E-4,-5.066966E-2,5.9812516E-3,1.3674116E-1,-4.087573E-2,5.8631163E-2,1.1818427E-1,-1.7860495E-2,-4.653713E-2,7.591458E-2,5.1176637E-2,1.5714896E-1,4.166935E-2,-3.966206E-2,6.353929E-2,4.719961E-3,1.3908273E-1,2.9404862E-2,7.029785E-2,-1.8914187E-2,1.1787827E-1,-1.9671887E-2,8.853944E-2,2.2738604E-1,-4.750449E-2,1.0244874E-1,-4.7741644E-2,3.993999E-2,-4.6529677E-2,9.150412E-2],"categories":[],"categories_nodes":[],"categories_segments":[],"categories_sizes":[],"default_left":[0,0,0,0,0,0,0,0,0,0,0,0,0,0,0,0,0,0,0,0,0,0,0,0,0,0,0,0,0,0,0,0,0,0,0,0,0,0,0,0,0,0,0,0,0,0,0,0,0,0,0,0,0,0,0,0,0,0,0,0,0,0,0,0,0,0,0,0,0,0,0,0,0,0,0,0,0,0,0,0,0,0,0,0,0,0,0],"id":6,"left_children":[1,3,5,7,9,11,13,15,17,19,21,23,-1,25,-1,27,29,31,33,35,37,39,41,43,45,47,49,-1,51,53,-1,55,57,59,-1,61,63,65,67,-1,69,71,-1,73,75,77,79,81,83,85,-1,-1,-1,-1,-1,-1,-1,-1,-1,-1,-1,-1,-1,-1,-1,-1,-1,-1,-1,-1,-1,-1,-1,-1,-1,-1,-1,-1,-1,-1,-1,-1,-1,-1,-1,-1,-1],"loss_changes":[3.3667294E2,7.771556E1,2.5383867E2,7.474731E1,3.4700684E1,1.20759796E2,9.7090096E1,3.7143616E1,7.08871E1,5.0147137E1,7.4316406E0,7.2325806E1,0E0,6.0306374E1,0E0,1.2524712E1,2.0835794E1,3.8317234E1,5.94713E1,2.2400581E1,3.414573E1,1.128952E0,1.1745826E1,1.1529366E2,7.378943E1,2.031797E1,2.3782991E1,0E0,5.3182373E0,1.0844444E1,0E0,3.7513496E1,1.4250364E1,1.7490158E1,0E0,7.1754303E0,4.615116E1,1.3384324E1,1.138213E1,0E0,4.158301E0,1.6867175E0,0E0,3.407605E1,6.676345E1,5.5687786E1,6.1320984E1,2.8854649E1,5.1722717E0,1.7323864E1,0E0,0E0,0E0,0E0,0E0,0E0,0E0,0E0,0E0,0E0,0E0,0E0,0E0,0E0,0E0,0E0,0E0,0E0,0E0,0E0,0E0,0E0,0E0,0E0,0E0,0E0,0E0,0E0,0E0,0E0,0E0,0E0,0E0,0E0,0E0,0E0,0E0],"parents":[2147483647,0,0,1,1,2,2,3,3,4,4,5,5,6,6,7,7,8,8,9,9,10,10,11,11,13,13,15,15,16,16,17,17,18,18,19,19,20,20,21,21,22,22,23,23,24,24,25,25,26,26,28,28,29,29,31,31,32,32,33,33,35,35,36,36,37,37,38,38,40,40,41,41,43,43,44,44,45,45,46,46,47,47,48,48,49,49],"right_children":[2,4,6,8,10,12,14,16,18,20,22,24,-1,26,-1,28,30,32,34,36,38,40,42,44,46,48,50,-1,52,54,-1,56,58,60,-1,62,64,66,68,-1,70,72,-1,74,76,78,80,82,84,86,-1,-1,-1,-1,-1,-1,-1,-1,-1,-1,-1,-1,-1,-1,-1,-1,-1,-1,-1,-1,-1,-1,-1,-1,-1,-1,-1,-1,-1,-1,-1,-1,-1,-1,-1,-1,-1],"split_conditions":[1.057E3,7.975E2,1.72E2,1.855E2,5E0,4.86E2,1.5E1,1.998E1,7.756E2,4.27E0,2.14E2,2.85E1,2.3697506E-1,1.42E2,1.4627296E-1,1.2E2,3.62E2,1.112E2,2.0513E2,9.795E2,2.704E2,1.96E2,2.156E2,1.571E0,1.5E2,1.74E2,1.203E3,5.8110066E-2,5.65E2,1.4E2,-4.2387486E-2,3.2E0,7E0,2.0604E1,-4.7617745E-2,4.56E2,1.397E2,9.48E2,8.66E2,-5.109113E-2,2.2E2,1.58E2,-4.574608E-2,1.596E2,2.28E2,2.7E2,4.32E0,1.103E3,1.8E2,1.779E2,-4.1814964E-2,3.8867008E-2,-5.0752766E-2,-2.5788143E-2,1.3058124E-1,-5.3221635E-3,5.5422634E-2,-2.7654102E-4,-5.066966E-2,5.9812516E-3,1.3674116E-1,-4.087573E-2,5.8631163E-2,1.1818427E-1,-1.7860495E-2,-4.653713E-2,7.591458E-2,5.1176637E-2,1.5714896E-1,4.166935E-2,-3.966206E-2,6.353929E-2,4.719961E-3,1.3908273E-1,2.9404862E-2,7.029785E-2,-1.8914187E-2,1.1787827E-1,-1.9671887E-2,8.853944E-2,2.2738604E-1,-4.750449E-2,1.0244874E-1,-4.7741644E-2,3.993999E-2,-4.6529677E-2,9.150412E-2],"split_indices":[2,2,1,1,7,0,7,7,2,7,1,5,0,6,0,0,0,4,1,2,0,4,1,7,1,1,2,0,2,1,0,7,5,5,0,0,0,2,2,0,4,4,0,1,0,0,7,2,4,1,0,0,0,0,0,0,0,0,0,0,0,0,0,0,0,0,0,0,0,0,0,0,0,0,0,0,0,0,0,0,0,0,0,0,0,0,0],"split_type":[0,0,0,0,0,0,0,0,0,0,0,0,0,0,0,0,0,0,0,0,0,0,0,0,0,0,0,0,0,0,0,0,0,0,0,0,0,0,0,0,0,0,0,0,0,0,0,0,0,0,0,0,0,0,0,0,0,0,0,0,0,0,0,0,0,0,0,0,0,0,0,0,0,0,0,0,0,0,0,0,0,0,0,0,0,0,0],"sum_hessian":[1.061E3,7.18E2,3.43E2,2.83E2,4.35E2,2.04E2,1.39E2,9.6E1,1.87E2,2.12E2,2.23E2,1.94E2,1E1,1.31E2,8E0,8.7E1,9E0,1.57E2,3E1,1.9E2,2.2E1,2.1E2,1.3E1,1.31E2,6.3E1,1.08E2,2.3E1,2E0,8.5E1,6E0,3E0,1.01E2,5.6E1,2.4E1,6E0,1.28E2,6.2E1,1E1,1.2E1,1.99E2,1.1E1,5E0,8E0,4E1,9.1E1,2.8E1,3.5E1,1.1E1,9.7E1,1.8E1,5E0,1E0,8.4E1,1E0,5E0,5.5E1,4.6E1,2.5E1,3.1E1,3E0,2.1E1,1.27E2,1E0,6E0,5.6E1,8E0,2E0,7E0,5E0,1E0,1E1,3E0,2E0,3E1,1E1,3.1E1,6E1,1.3E1,1.5E1,1.9E1,1.6E1,6E0,5E0,9.6E1,1E0,2E0,1.6E1],"tree_param":{"num_deleted":"0","num_feature":"8","num_nodes":"87","size_leaf_vector":"1"}},{"base_weights":[1.0733001E-3,-3.4795085E-1,8.1509143E-1,-5.5389875E-1,4.041987E-1,1.529308E0,-2.8846586E-1,-7.6686563E-3,-6.339252E-1,-2.1231888E-1,2.1266959E0,1.7381587E0,-8.766862E-1,-5.9748554E-1,1.1854668E0,-7.453903E-1,8.567386E-1,7.8813684E-1,-6.642459E-1,-9.180072E-1,1.4767924E-1,2.2902386E0,-3.813875E-2,3.1479783E0,1.3300931E0,6.157714E-2,-5.4966886E-2,-7.5611913E-1,1.3473414E-1,1.6637405E0,-3.8670618E-2,-4.928339E-2,-4.8189814E-4,2.3079474E0,9.543675E-2,1.17790066E-1,-4.554419E-2,-7.014588E-1,5.733302E-1,-4.9313124E-2,-2.4296807E-1,5.1468986E-1,-5.191953E-2,4.432025E-2,2.4654605E0,2.5030947E-1,2.423642E0,-3.6453363E-2,1.6013606E0,-9.0094954E-1,3.991267E-3,-4.4978682E-2,1.0201891E-1,6.215771E-2,-4.4436228E-2,1.2658392E-1,3.96431E-2,-3.480031E-2,7.459212E-2,-4.8214074E-2,-3.0812163E-2,1.21007085E-1,-4.6339102E-2,-3.511497E-2,3.9858934E-2,1.1258542E-1,-5.033968E-3,1.2745965E-1,5.8961846E-2,1.2820074E-1,-4.1179232E-2,9.5527634E-2,-2.606911E-2,7.0532545E-2,1.855974E-1,-4.7727574E-2,4.3224256E-2,-4.0500764E-2,1.0598049E-1],"categories":[],"categories_nodes":[],"categories_segments":[],"categories_sizes":[],"default_left":[0,0,0,0,0,0,0,0,0,0,0,0,0,0,0,0,0,0,0,0,0,0,0,0,0,0,0,0,0,0,0,0,0,0,0,0,0,0,0,0,0,0,0,0,0,0,0,0,0,0,0,0,0,0,0,0,0,0,0,0,0,0,0,0,0,0,0,0,0,0,0,0,0,0,0,0,0,0,0],"id":7,"left_children":[1,3,5,7,9,11,13,15,17,19,21,23,25,27,29,31,33,35,37,39,41,43,-1,45,47,-1,-1,49,-1,51,-1,-1,53,55,57,-1,-1,59,61,-1,63,65,-1,-1,67,-1,69,71,73,75,77,-1,-1,-1,-1,-1,-1,-1,-1,-1,-1,-1,-1,-1,-1,-1,-1,-1,-1,-1,-1,-1,-1,-1,-1,-1,-1,-1,-1],"loss_changes":[2.9916943E2,1.1438785E2,2.4950565E2,2.5304886E1,1.6930153E2,9.8002625E1,5.764258E1,4.84655E1,2.2298096E1,3.0113056E1,2.1594162E1,9.764081E1,8.864285E0,5.6351326E1,2.1898129E1,7.3378983E0,3.8448017E1,3.1444298E1,2.3198792E1,1.603363E0,3.4923172E1,7.653885E0,0E0,4.035959E1,5.15856E1,0E0,0E0,1.1012302E1,0E0,1.9213402E1,0E0,0E0,1.3255977E1,2.0603828E0,2.756254E1,0E0,0E0,1.0178513E1,4.379931E1,0E0,2.9487183E0,6.543007E1,0E0,0E0,7.633362E-1,0E0,1.5786362E1,2.365595E1,4.1454865E1,8.77417E0,3.0993082E1,0E0,0E0,0E0,0E0,0E0,0E0,0E0,0E0,0E0,0E0,0E0,0E0,0E0,0E0,0E0,0E0,0E0,0E0,0E0,0E0,0E0,0E0,0E0,0E0,0E0,0E0,0E0,0E0],"parents":[2147483647,0,0,1,1,2,2,3,3,4,4,5,5,6,6,7,7,8,8,9,9,10,10,11,11,12,12,13,13,14,14,15,15,16,16,17,17,18,18,19,19,20,20,21,21,23,23,24,24,27,27,29,29,32,32,33,33,34,34,37,37,38,38,40,40,41,41,44,44,46,46,47,47,48,48,49,49,50,50],"right_children":[2,4,6,8,10,12,14,16,18,20,22,24,26,28,30,32,34,36,38,40,42,44,-1,46,48,-1,-1,50,-1,52,-1,-1,54,56,58,-1,-1,60,62,-1,64,66,-1,-1,68,-1,70,72,74,76,78,-1,-1,-1,-1,-1,-1,-1,-1,-1,-1,-1,-1,-1,-1,-1,-1,-1,-1,-1,-1,-1,-1,-1,-1,-1,-1,-1,-1],"split_conditions":[1.066E3,9.059E2,1.72E2,6.71E2,1.988E2,7.719E2,1.42E2,1.002E3,5.9E2,7E0,9.871E2,1.098E3,7.2E-1,1.5E1,1.203E3,7E0,1.5453E1,2.2624E2,3E2,8.36E2,2.07E0,5.95E2,-3.813875E-2,5.2E2,1.27E2,6.157714E-2,-5.4966886E-2,7.1E2,1.3473414E-1,1.779E2,-3.8670618E-2,-4.928339E-2,4.614E1,6.45E2,1.004E2,1.17790066E-1,-4.554419E-2,7.312E2,1.68E2,-4.9313124E-2,1.27E2,4.125E1,-5.191953E-2,4.432025E-2,1.4E2,2.5030947E-1,1.62E2,7.2E-1,1.6E1,1.8E2,1.1225E3,-4.4978682E-2,1.0201891E-1,6.215771E-2,-4.4436228E-2,1.2658392E-1,3.96431E-2,-3.480031E-2,7.459212E-2,-4.8214074E-2,-3.0812163E-2,1.21007085E-1,-4.6339102E-2,-3.511497E-2,3.9858934E-2,1.1258542E-1,-5.033968E-3,1.2745965E-1,5.8961846E-2,1.2820074E-1,-4.1179232E-2,9.5527634E-2,-2.606911E-2,7.0532545E-2,1.855974E-1,-4.7727574E-2,4.3224256E-2,-4.0500764E-2,1.0598049E-1],"split_indices":[2,3,1,3,1,3,6,2,2,5,3,2,7,7,2,5,4,1,4,2,7,2,0,3,1,0,0,3,0,1,0,0,5,3,4,0,0,3,1,0,1,4,0,0,4,0,1,7,7,4,2,0,0,0,0,0,0,0,0,0,0,0,0,0,0,0,0,0,0,0,0,0,0,0,0,0,0,0,0],"split_type":[0,0,0,0,0,0,0,0,0,0,0,0,0,0,0,0,0,0,0,0,0,0,0,0,0,0,0,0,0,0,0,0,0,0,0,0,0,0,0,0,0,0,0,0,0,0,0,0,0,0,0,0,0,0,0,0,0,0,0,0,0,0,0,0,0,0,0,0,0,0,0,0,0,0,0,0,0,0,0],"sum_hessian":[1.051E3,7.36E2,3.15E2,5.78E2,1.58E2,1.91E2,1.24E2,7.4E1,5.04E2,1.17E2,4.1E1,1.76E2,1.5E1,1.03E2,2.1E1,4E1,3.4E1,1E1,4.94E2,3.9E1,7.8E1,3.9E1,2E0,3.8E1,1.38E2,1E0,1.4E1,9.9E1,4E0,1.7E1,4E0,3E1,1E1,1.1E1,2.3E1,5E0,5E0,4.8E2,1.4E1,3.5E1,4E0,6E1,1.8E1,5E0,3.4E1,9E0,2.9E1,2.3E1,1.15E2,8.3E1,1.6E1,2E0,1.5E1,4E0,6E0,9E0,2E0,1.5E1,8E0,1.15E2,3.65E2,6E0,8E0,3E0,1E0,1.5E1,4.5E1,3.1E1,3E0,2.8E1,1E0,4E0,1.9E1,1.07E2,8E0,8.1E1,2E0,1.2E1,4E0],"tree_param":{"num_deleted":"0","num_feature":"8","num_nodes":"79","size_leaf_vector":"1"}},{"base_weights":[-1.28148645E-2,-8.254385E-2,2.2276292E0,3.4732002E-1,-2.9735547E-1,3.5818524E0,2.3063876E-1,8.1802493E-1,-5.3422344E-1,-4.8370078E-1,3.3360234E-1,-4.0494677E-2,2.0730846E-1,9.655737E-2,-6.426794E-1,1.3109984E0,-2.196464E-1,-8.427398E-1,2.5995066E0,-5.201527E-1,8.024909E-1,-1.7263466E-1,1.6376345E0,1.0837376E-1,-4.9002066E-2,8.287615E-1,2.3077667E0,-4.238529E-1,1.7044394E-1,3.93075E-1,-9.435202E-1,-2.7960343E-2,1.4856493E-1,-5.4035974E-1,1.10072136E-1,1.4445685E-1,-4.5481082E-2,8.2749844E-1,-4.4853124E-1,-4.639786E-2,1.9903504E0,5.8929145E-2,-3.2061182E-2,6.619894E-2,-1.6342573E-2,6.181298E-2,1.7326427E-1,1.2294624E-1,-3.1791158E-2,-3.811526E-2,1.0139382E-1,-4.9215604E-2,-1.7058816E-2,6.528902E-2,-2.7871657E-2,-2.8880319E-2,7.030087E-2,1.363429E-2,-4.255728E-2,1.078861E-1,-3.6867462E-2],"categories":[],"categories_nodes":[],"categories_segments":[],"categories_sizes":[],"default_left":[0,0,0,0,0,0,0,0,0,0,0,0,0,0,0,0,0,0,0,0,0,0,0,0,0,0,0,0,0,0,0,0,0,0,0,0,0,0,0,0,0,0,0,0,0,0,0,0,0,0,0,0,0,0,0,0,0,0,0,0,0],"id":8,"left_children":[1,3,5,7,9,11,13,15,17,19,21,-1,-1,-1,23,25,27,29,31,33,35,37,39,41,-1,43,45,47,-1,49,51,-1,-1,53,-1,-1,-1,55,57,-1,59,-1,-1,-1,-1,-1,-1,-1,-1,-1,-1,-1,-1,-1,-1,-1,-1,-1,-1,-1,-1],"loss_changes":[1.6562498E2,9.502854E1,8.571373E1,1.4276376E2,8.081853E1,5.044635E1,2.20323E1,1.1487393E2,1.18207565E2,2.5266006E1,1.0392617E2,0E0,0E0,0E0,2.639978E0,7.115051E1,5.5535557E1,1.4070908E1,1.4579803E1,2.9567245E1,5.6216614E1,3.1827557E1,4.166365E1,3.9646392E0,0E0,5.9949806E1,5.6490204E1,4.4337856E1,0E0,1.8545214E1,2.170395E0,0E0,0E0,1.6897537E1,0E0,0E0,0E0,2.1134115E1,2.6365602E1,0E0,1.9396027E1,0E0,0E0,0E0,0E0,0E0,0E0,0E0,0E0,0E0,0E0,0E0,0E0,0E0,0E0,0E0,0E0,0E0,0E0,0E0,0E0],"parents":[2147483647,0,0,1,1,2,2,3,3,4,4,5,5,6,6,7,7,8,8,9,9,10,10,14,14,15,15,16,16,17,17,18,18,19,19,20,20,21,21,22,22,23,23,25,25,26,26,27,27,29,29,30,30,33,33,37,37,38,38,40,40],"right_children":[2,4,6,8,10,12,14,16,18,20,22,-1,-1,-1,24,26,28,30,32,34,36,38,40,42,-1,44,46,48,-1,50,52,-1,-1,54,-1,-1,-1,56,58,-1,60,-1,-1,-1,-1,-1,-1,-1,-1,-1,-1,-1,-1,-1,-1,-1,-1,-1,-1,-1,-1],"split_conditions":[8.75E1,1.67E2,6.69E2,7.719E2,8.81E2,1.22E2,3.5E2,5.7E0,1.65E2,1.6E1,1.95904E2,-4.0494677E-2,2.0730846E-1,9.655737E-2,9.6E1,3.4E0,4.86E2,7.2E-1,7.99E2,6.75E2,6.43E2,9.32E2,9.059E2,3.77E0,-4.9002066E-2,1.571E0,1.51E2,1.53E2,1.7044394E-1,2.704E2,1.598E2,-2.7960343E-2,1.4856493E-1,4.377E2,1.10072136E-1,1.4445685E-1,-4.5481082E-2,1.04E1,4.125E1,-4.639786E-2,9.871E2,5.8929145E-2,-3.2061182E-2,6.619894E-2,-1.6342573E-2,6.181298E-2,1.7326427E-1,1.2294624E-1,-3.1791158E-2,-3.811526E-2,1.0139382E-1,-4.9215604E-2,-1.7058816E-2,6.528902E-2,-2.7871657E-2,-2.8880319E-2,7.030087E-2,1.363429E-2,-4.255728E-2,1.078861E-1,-3.6867462E-2],"split_indices":[5,1,3,3,3,1,0,7,1,7,1,0,0,0,5,7,0,7,3,0,3,3,3,7,0,7,1,0,0,0,1,0,0,3,0,0,0,5,4,0,3,0,0,0,0,0,0,0,0,0,0,0,0,0,0,0,0,0,0,0,0],"split_type":[0,0,0,0,0,0,0,0,0,0,0,0,0,0,0,0,0,0,0,0,0,0,0,0,0,0,0,0,0,0,0,0,0,0,0,0,0,0,0,0,0,0,0,0,0,0,0,0,0,0,0,0,0,0,0,0,0,0,0,0,0],"sum_hessian":[1.058E3,1.027E3,3.1E1,3.42E2,6.85E2,1.8E1,1.3E1,2.23E2,1.19E2,5.29E2,1.56E2,2E0,1.6E1,4E0,9E0,1.51E2,7.2E1,1.09E2,1E1,5.15E2,1.4E1,1.13E2,4.3E1,3E0,6E0,1.03E2,4.8E1,6.9E1,3E0,8E0,1.01E2,1E0,9E0,5.12E2,3E0,6E0,8E0,2.4E1,8.9E1,5E0,3.8E1,1E0,2E0,7.2E1,3.1E1,2.6E1,2.2E1,4E0,6.5E1,5E0,3E0,9.4E1,7E0,4E0,5.08E2,7E0,1.7E1,3.2E1,5.7E1,3.6E1,2E0],"tree_param":{"num_deleted":"0","num_feature":"8","num_nodes":"61","size_leaf_vector":"1"}},{"base_weights":[5.150863E-2,-3.3082232E-1,8.5447747E-1,-5.342209E-1,2.5784022E-1,1.524055E0,-1.2696855E-1,1.3260945E0,-5.6539124E-1,-1.9436508E-1,1.4984499E0,1.3322213E0,2.0978938E-1,-3.5862017E-1,1.2900783E-1,1.249482E-1,-3.8236674E-2,-1.3830552E-1,-6.27174E-1,-6.190978E-1,3.3103365E-1,-4.634018E-2,1.9247255E0,2.3208017E0,9.2990094E-1,-5.81837E-1,1.6607468E0,-8.002509E-1,5.679488E-1,-2.986467E-1,-7.215238E-1,1.445488E-1,-7.8154874E-1,2.55851E0,-3.2554352E-1,2.0744197E0,-3.563855E-2,2.1413572E-1,2.5313973E0,-1.1309569E0,1.15691E0,-7.9360455E-1,2.6300555E-1,-3.1912755E-2,9.527591E-2,-4.4767495E-2,8.030208E-3,1.13782935E-1,1.2696584E-2,1.0089798E-1,-2.7095854E-2,-3.7694167E-2,2.571393E-4,-3.914997E-2,7.558899E-2,3.5672586E-2,-4.0887646E-2,6.622971E-2,1.4598086E-1,5.632739E-2,-4.7829863E-2,3.797832E-2,1.120277E-1,3.2065883E-2,-4.804435E-2,6.7035406E-4,1.3476615E-1,-7.4653104E-2,3.4722485E-2,6.9667704E-2,-4.7547612E-2,-4.375468E-2,6.191492E-2,-3.0917257E-2,1.0515001E-1],"categories":[],"categories_nodes":[],"categories_segments":[],"categories_sizes":[],"default_left":[0,0,0,0,0,0,0,0,0,0,0,0,0,0,0,0,0,0,0,0,0,0,0,0,0,0,0,0,0,0,0,0,0,0,0,0,0,0,0,0,0,0,0,0,0,0,0,0,0,0,0,0,0,0,0,0,0,0,0,0,0,0,0,0,0,0,0,0,0,0,0,0,0,0,0],"id":9,"left_children":[1,3,5,7,9,11,13,15,17,19,21,23,-1,25,-1,-1,-1,27,29,31,33,-1,35,37,39,41,43,45,47,49,51,53,55,57,59,61,-1,63,65,67,69,71,73,-1,-1,-1,-1,-1,-1,-1,-1,-1,-1,-1,-1,-1,-1,-1,-1,-1,-1,-1,-1,-1,-1,-1,-1,-1,-1,-1,-1,-1,-1,-1,-1],"loss_changes":[3.2171152E2,8.514823E1,2.2231163E2,3.1366806E1,1.0295612E2,9.742847E1,8.746646E1,2.3981457E1,1.3634232E1,3.0330738E1,5.2441338E1,7.3012115E1,0E0,5.866314E1,0E0,0E0,0E0,3.1777119E1,1.3856934E1,9.417103E0,9.004603E1,0E0,1.8060928E1,2.3415283E1,6.493374E1,2.0962307E1,8.531696E0,3.3419704E0,1.7118393E1,5.914042E1,8.280991E0,1.8938139E1,3.9391937E0,2.370758E0,4.5062344E1,7.035843E0,0E0,3.6279247E0,2.018924E1,1.0290705E1,6.2627182E1,1.6482353E1,4.022071E1,0E0,0E0,0E0,0E0,0E0,0E0,0E0,0E0,0E0,0E0,0E0,0E0,0E0,0E0,0E0,0E0,0E0,0E0,0E0,0E0,0E0,0E0,0E0,0E0,0E0,0E0,0E0,0E0,0E0,0E0,0E0,0E0],"parents":[2147483647,0,0,1,1,2,2,3,3,4,4,5,5,6,6,7,7,8,8,9,9,10,10,11,11,13,13,17,17,18,18,19,19,20,20,22,22,23,23,24,24,25,25,26,26,27,27,28,28,29,29,30,30,31,31,32,32,33,33,34,34,35,35,37,37,38,38,39,39,40,40,41,41,42,42],"right_children":[2,4,6,8,10,12,14,16,18,20,22,24,-1,26,-1,-1,-1,28,30,32,34,-1,36,38,40,42,44,46,48,50,52,54,56,58,60,62,-1,64,66,68,70,72,74,-1,-1,-1,-1,-1,-1,-1,-1,-1,-1,-1,-1,-1,-1,-1,-1,-1,-1,-1,-1,-1,-1,-1,-1,-1,-1,-1,-1,-1,-1,-1,-1],"split_conditions":[1.057E3,8.76E2,1.72E2,5.9E2,1.988E2,4.792E2,1.5E1,2.2624E2,6.71E2,1.855E2,9.059E2,1.571E0,2.0978938E-1,1.75E2,1.2900783E-1,1.249482E-1,-3.8236674E-2,9.795E2,7.5325E2,7.2E-1,1.9E2,-4.634018E-2,9.871E2,1.607E2,2.25E0,7.1E2,1.29E2,3.1E2,1.5561E2,1.67E2,4.86E2,1.72E2,5.65E2,2.25625E2,9.35E2,5.95E2,-3.563855E-2,6.8E2,1.069E3,1.54E2,7.719E2,1.8E2,1.1225E3,-3.1912755E-2,9.527591E-2,-4.4767495E-2,8.030208E-3,1.13782935E-1,1.2696584E-2,1.0089798E-1,-2.7095854E-2,-3.7694167E-2,2.571393E-4,-3.914997E-2,7.558899E-2,3.5672586E-2,-4.0887646E-2,6.622971E-2,1.4598086E-1,5.632739E-2,-4.7829863E-2,3.797832E-2,1.120277E-1,3.2065883E-2,-4.804435E-2,6.7035406E-4,1.3476615E-1,-7.4653104E-2,3.4722485E-2,6.9667704E-2,-4.7547612E-2,-4.375468E-2,6.191492E-2,-3.0917257E-2,1.0515001E-1],"split_indices":[2,3,1,2,1,0,7,1,3,1,3,7,0,6,0,0,0,2,2,7,1,0,3,0,7,3,0,0,1,1,0,1,2,0,3,2,0,3,2,1,3,4,2,0,0,0,0,0,0,0,0,0,0,0,0,0,0,0,0,0,0,0,0,0,0,0,0,0,0,0,0,0,0,0,0],"split_type":[0,0,0,0,0,0,0,0,0,0,0,0,0,0,0,0,0,0,0,0,0,0,0,0,0,0,0,0,0,0,0,0,0,0,0,0,0,0,0,0,0,0,0,0,0,0,0,0,0,0,0,0,0,0,0,0,0,0,0,0,0,0,0,0,0,0,0,0,0,0,0,0,0,0,0],"sum_hessian":[1.046E3,7.09E2,3.37E2,5.27E2,1.82E2,2E2,1.37E2,8E0,5.19E2,1.34E2,4.8E1,1.88E2,1.2E1,1.27E2,1E1,5E0,3E0,6.6E1,4.53E2,7.4E1,6E1,7E0,4.1E1,5.3E1,1.35E2,1.15E2,1.2E1,3.4E1,3.2E1,1.02E2,3.51E2,1.3E1,6.1E1,1.3E1,4.7E1,3.9E1,2E0,5E0,4.8E1,1.3E1,1.22E2,9.2E1,2.3E1,1E0,1.1E1,3.1E1,3E0,4E0,2.8E1,9E0,9.3E1,3.36E2,1.5E1,8E0,5E0,1E0,6E1,4E0,9E0,1.4E1,3.3E1,5E0,3.4E1,4E0,1E0,3E0,4.5E1,1.1E1,2E0,1.1E2,1.2E1,8.9E1,3E0,1.6E1,7E0],"tree_param":{"num_deleted":"0","num_feature":"8","num_nodes":"75","size_leaf_vector":"1"}},{"base_weights":[-1.8939994E-2,-3.1681865E-1,6.172495E-1,-4.7757196E-1,2.5609255E-1,1.1663682E0,-1.8270381E-1,-5.3459215E-1,2.4891469E-1,-2.9292724E-1,1.9106629E0,8.653391E-1,2.6361694E0,3.563274E-1,-7.5980246E-1,-4.1785423E-2,-6.033395E-1,6.3881004E-1,-4.3625493E-2,7.7521634E-1,-4.8038918E-1,2.0698078E0,-3.4450594E-2,1.0654933E0,-7.28767E-1,2.204926E-1,1.892197E0,-3.528469E-2,2.106234E0,7.599474E-2,-4.3819755E-2,-6.339798E-1,7.932209E-1,-1.9588034E-1,-7.1297383E-1,-1.17777735E-1,1.5659364E0,1.4536684E0,-4.1198287E-2,-8.153305E-1,5.0779555E-2,3.182055E-2,1.0887831E-1,8.203656E-1,1.9941462E0,8.754281E-2,-4.818968E-2,-4.964646E-2,2.3307564E0,-6.222473E-1,1.451461E0,-3.0420033E-2,1.1915769E-1,1.0491388E-1,-4.0077716E-2,4.4258118E-2,-3.9474115E-2,-2.5405684E-3,1.24346554E-1,9.415234E-2,-2.4184275E-2,-1.389835E-2,-3.725433E-2,-2.9010937E-2,6.0030628E-2,1.5281516E-1,3.3061714E-3,8.8465884E-2,3.9526228E-2,-4.778419E-2,-1.7604219E-2,-3.1852763E-2,5.6117386E-2,8.719743E-3,7.785624E-2,1.3467766E-1,-3.4434926E-2,-3.4269903E-2,1.3333209E-1,-4.0919863E-2,7.4740715E-2,8.795904E-2,-2.8547922E-2],"categories":[],"categories_nodes":[],"categories_segments":[],"categories_sizes":[],"default_left":[0,0,0,0,0,0,0,0,0,0,0,0,0,0,0,0,0,0,0,0,0,0,0,0,0,0,0,0,0,0,0,0,0,0,0,0,0,0,0,0,0,0,0,0,0,0,0,0,0,0,0,0,0,0,0,0,0,0,0,0,0,0,0,0,0,0,0,0,0,0,0,0,0,0,0,0,0,0,0,0,0,0,0],"id":10,"left_children":[1,3,5,7,9,11,13,15,17,19,21,23,25,27,29,31,33,35,-1,37,39,41,-1,43,45,-1,47,49,51,53,-1,55,57,59,61,63,65,67,-1,69,71,-1,-1,73,75,-1,-1,-1,77,79,81,-1,-1,-1,-1,-1,-1,-1,-1,-1,-1,-1,-1,-1,-1,-1,-1,-1,-1,-1,-1,-1,-1,-1,-1,-1,-1,-1,-1,-1,-1,-1,-1],"loss_changes":[1.9728311E2,6.541934E1,1.460505E2,2.3082191E1,1.4226883E2,8.488205E1,4.2576828E1,1.7388657E1,1.8484135E1,2.4000288E1,1.7561386E1,5.3422577E1,3.5201553E1,4.8729523E1,6.4981575E0,3.2149994E1,2.0007202E1,2.1929459E1,0E0,2.07272E1,1.8010345E1,4.3292084E0,0E0,3.182695E1,1.2760235E1,0E0,3.3946747E1,5.2390343E1,1.1222473E1,1.7653753E1,0E0,9.675575E0,3.8724106E1,5.894842E1,4.7519836E0,1.1670816E1,3.109171E1,1.3224831E0,0E0,3.694641E0,3.0197474E1,0E0,0E0,5.5887596E1,5.8147057E1,0E0,0E0,0E0,2.4115532E1,1.90796E1,1.1584175E1,0E0,0E0,0E0,0E0,0E0,0E0,0E0,0E0,0E0,0E0,0E0,0E0,0E0,0E0,0E0,0E0,0E0,0E0,0E0,0E0,0E0,0E0,0E0,0E0,0E0,0E0,0E0,0E0,0E0,0E0,0E0,0E0],"parents":[2147483647,0,0,1,1,2,2,3,3,4,4,5,5,6,6,7,7,8,8,9,9,10,10,11,11,12,12,13,13,14,14,15,15,16,16,17,17,19,19,20,20,21,21,23,23,24,24,26,26,27,27,28,28,29,29,31,31,32,32,33,33,34,34,35,35,36,36,37,37,39,39,40,40,43,43,44,44,48,48,49,49,50,50],"right_children":[2,4,6,8,10,12,14,16,18,20,22,24,26,28,30,32,34,36,-1,38,40,42,-1,44,46,-1,48,50,52,54,-1,56,58,60,62,64,66,68,-1,70,72,-1,-1,74,76,-1,-1,-1,78,80,82,-1,-1,-1,-1,-1,-1,-1,-1,-1,-1,-1,-1,-1,-1,-1,-1,-1,-1,-1,-1,-1,-1,-1,-1,-1,-1,-1,-1,-1,-1,-1,-1],"split_conditions":[1.057E3,9.059E2,1.72E2,4.792E2,1.988E2,4.6E1,1.203E3,6.71E2,5.42E1,9.32E2,9.871E2,7.719E2,1.097E3,4E1,1.89E2,1.002E3,7.4823E2,1.855E2,-4.3625493E-2,9.7E1,7.37E2,5.95E2,-3.4450594E-2,7.065E2,1.058E3,2.204926E-1,1.344E2,1.1655172E3,1.815E2,3.57E2,-4.3819755E-2,1.397E2,1.004E2,1.779E2,1.30625E2,2.75E1,3.09084E1,7.13E1,-4.1198287E-2,3.6E1,1.72E2,3.182055E-2,1.0887831E-1,1.54E2,1.5216E2,8.754281E-2,-4.818968E-2,-4.964646E-2,1.1E3,2.115E2,2.04E2,-3.0420033E-2,1.1915769E-1,1.0491388E-1,-4.0077716E-2,4.4258118E-2,-3.9474115E-2,-2.5405684E-3,1.24346554E-1,9.415234E-2,-2.4184275E-2,-1.389835E-2,-3.725433E-2,-2.9010937E-2,6.0030628E-2,1.5281516E-1,3.3061714E-3,8.8465884E-2,3.9526228E-2,-4.778419E-2,-1.7604219E-2,-3.1852763E-2,5.6117386E-2,8.719743E-3,7.785624E-2,1.3467766E-1,-3.4434926E-2,-3.4269903E-2,1.3333209E-1,-4.0919863E-2,7.4740715E-2,8.795904E-2,-2.8547922E-2],"split_indices":[2,3,1,0,1,5,2,3,5,3,3,3,2,5,1,2,2,1,0,4,2,2,0,3,2,0,1,2,1,0,0,0,4,1,0,5,4,4,0,5,1,0,0,1,1,0,0,0,2,6,1,0,0,0,0,0,0,0,0,0,0,0,0,0,0,0,0,0,0,0,0,0,0,0,0,0,0,0,0,0,0,0,0],"split_type":[0,0,0,0,0,0,0,0,0,0,0,0,0,0,0,0,0,0,0,0,0,0,0,0,0,0,0,0,0,0,0,0,0,0,0,0,0,0,0,0,0,0,0,0,0,0,0,0,0,0,0,0,0,0,0,0,0,0,0,0,0,0,0,0,0,0,0,0,0,0,0,0,0,0,0,0,0,0,0,0,0,0,0],"sum_hessian":[1.039E3,7.08E2,3.31E2,5.53E2,1.55E2,1.96E2,1.35E2,5.13E2,4E1,1.17E2,3.8E1,1.64E2,3.2E1,7E1,6.5E1,6.3E1,4.5E2,3E1,1E1,1.7E1,1E2,3.6E1,2E0,1.46E2,1.8E1,8E0,2.4E1,5.8E1,1.2E1,8E0,5.7E1,3.7E1,2.6E1,9.6E1,3.54E2,1.7E1,1.3E1,1.2E1,5E0,6.1E1,3.9E1,3E0,3.3E1,1.17E2,2.9E1,1E0,1.7E1,3E0,2.1E1,4.2E1,1.6E1,1E0,1.1E1,2E0,6E0,3E0,3.4E1,1.8E1,8E0,1.1E1,8.5E1,2.5E1,3.29E2,1.3E1,4E0,6E0,7E0,7E0,5E0,4.6E1,1.5E1,2.4E1,1.5E1,6.3E1,5.4E1,2.3E1,6E0,2E0,1.9E1,3.9E1,3E0,1.4E1,2E0],"tree_param":{"num_deleted":"0","num_feature":"8","num_nodes":"83","size_leaf_vector":"1"}},{"base_weights":[1.2375612E-2,-2.8962508E-1,6.609121E-1,-4.543692E-1,2.8724664E-1,1.1683818E0,-9.765048E-2,-4.391737E-2,-3.7367594E-1,-2.0839281E-1,1.718804E0,8.7018853E-1,2.540768E0,-2.672042E-1,1.1434758E-1,2.034131E-1,-4.8257947E-1,-7.886367E-1,1.1834586E-1,1.858182E0,-3.3302244E-2,1.9335161E0,4.6754447E-1,-4.2031515E-2,2.8840437E0,-4.9115935E-1,8.5863225E-2,1.3422127E-1,-1.7557985E-1,-5.431129E-1,3.2807526E-1,-4.23409E-2,-1.7709468E-1,4.484037E-1,-4.5639962E-2,3.507004E-2,2.0076675E0,2.2855406E0,1.1526257E0,-1.1509885E0,7.4317956E-1,1.2704991E0,1.9605897E-1,-7.213788E-1,4.510732E-1,1.4879799E-1,-1.8644532E-2,3.3487044E-2,-2.877372E-2,6.5139815E-2,-4.4840895E-2,-2.9385284E-2,3.6633734E-2,9.807762E-2,-3.2971874E-3,1.0436614E-1,4.4421077E-2,2.8783837E-2,1.1935569E-1,-6.1739385E-2,8.992755E-2,-7.228319E-2,1.2089567E-2,9.142164E-2,8.309487E-3,-5.7530876E-2,8.8495165E-2,-3.9814845E-2,5.6294646E-2,7.5171724E-2,-4.168166E-2],"categories":[],"categories_nodes":[],"categories_segments":[],"categories_sizes":[],"default_left":[0,0,0,0,0,0,0,0,0,0,0,0,0,0,0,0,0,0,0,0,0,0,0,0,0,0,0,0,0,0,0,0,0,0,0,0,0,0,0,0,0,0,0,0,0,0,0,0,0,0,0,0,0,0,0,0,0,0,0,0,0,0,0,0,0,0,0,0,0,0,0],"id":11,"left_children":[1,3,5,7,9,11,13,-1,15,17,19,21,23,25,-1,27,29,31,33,35,-1,37,39,-1,41,43,-1,-1,45,47,49,-1,51,53,-1,-1,55,57,59,61,63,65,-1,67,69,-1,-1,-1,-1,-1,-1,-1,-1,-1,-1,-1,-1,-1,-1,-1,-1,-1,-1,-1,-1,-1,-1,-1,-1,-1,-1],"loss_changes":[2.0466765E2,6.789134E1,1.2791669E2,1.8659546E1,1.1317445E2,7.922708E1,5.478972E1,0E0,2.9510582E1,2.2654316E1,1.4865837E1,6.973951E1,4.3050735E1,5.6841877E1,0E0,7.099279E1,1.951242E1,1.3799858E0,2.6615292E1,5.3358E0,0E0,9.735794E0,5.483645E1,0E0,4.8569E1,2.5054302E1,0E0,0E0,4.215066E1,1.4790092E1,3.459838E1,0E0,2.2984035E0,4.604812E1,0E0,0E0,1.1767883E0,3.83609E0,2.6894278E1,7.73707E0,6.4818855E1,1.8964102E1,0E0,1.3628796E1,3.2348743E1,0E0,0E0,0E0,0E0,0E0,0E0,0E0,0E0,0E0,0E0,0E0,0E0,0E0,0E0,0E0,0E0,0E0,0E0,0E0,0E0,0E0,0E0,0E0,0E0,0E0,0E0],"parents":[2147483647,0,0,1,1,2,2,3,3,4,4,5,5,6,6,8,8,9,9,10,10,11,11,12,12,13,13,15,15,16,16,17,17,18,18,19,19,21,21,22,22,24,24,25,25,28,28,29,29,30,30,32,32,33,33,36,36,37,37,38,38,39,39,40,40,41,41,43,43,44,44],"right_children":[2,4,6,8,10,12,14,-1,16,18,20,22,24,26,-1,28,30,32,34,36,-1,38,40,-1,42,44,-1,-1,46,48,50,-1,52,54,-1,-1,56,58,60,62,64,66,-1,68,70,-1,-1,-1,-1,-1,-1,-1,-1,-1,-1,-1,-1,-1,-1,-1,-1,-1,-1,-1,-1,-1,-1,-1,-1,-1,-1],"split_conditions":[1.057E3,9.059E2,1.72E2,1.55E2,1.988E2,4.6E1,1.5E1,-4.391737E-2,1.67E2,7E0,9.871E2,1.571E0,1.22E2,1.75E2,1.1434758E-1,8.2E2,8.61E2,8.46E2,2.07E0,5.95E2,-3.3302244E-2,1.596E2,2.25E0,-4.2031515E-2,8.58E0,7.1E2,8.5863225E-2,1.3422127E-1,6.45E2,5.9E2,1.858E2,-4.23409E-2,1.27E2,4.125E1,-4.5639962E-2,3.507004E-2,1.4E2,1.062E3,5.78E2,1.1E1,6.52E2,6.28E2,1.9605897E-1,1.8E2,1.5E0,1.4879799E-1,-1.8644532E-2,3.3487044E-2,-2.877372E-2,6.5139815E-2,-4.4840895E-2,-2.9385284E-2,3.6633734E-2,9.807762E-2,-3.2971874E-3,1.0436614E-1,4.4421077E-2,2.8783837E-2,1.1935569E-1,-6.1739385E-2,8.992755E-2,-7.228319E-2,1.2089567E-2,9.142164E-2,8.309487E-3,-5.7530876E-2,8.8495165E-2,-3.9814845E-2,5.6294646E-2,7.5171724E-2,-4.168166E-2],"split_indices":[2,3,1,1,1,5,7,0,1,5,3,7,1,6,0,2,3,2,7,2,0,1,7,0,7,3,0,0,3,2,1,0,1,4,0,0,4,2,3,6,3,3,0,4,7,0,0,0,0,0,0,0,0,0,0,0,0,0,0,0,0,0,0,0,0,0,0,0,0,0,0],"split_type":[0,0,0,0,0,0,0,0,0,0,0,0,0,0,0,0,0,0,0,0,0,0,0,0,0,0,0,0,0,0,0,0,0,0,0,0,0,0,0,0,0,0,0,0,0,0,0,0,0,0,0,0,0,0,0,0,0,0,0,0,0,0,0,0,0,0,0,0,0,0,0],"sum_hessian":[1.043E3,7.12E2,3.31E2,5.54E2,1.58E2,1.98E2,1.33E2,8.7E1,4.67E2,1.18E2,4E1,1.64E2,3.4E1,1.25E2,8E0,7.4E1,3.93E2,4.2E1,7.6E1,3.8E1,2E0,4.4E1,1.2E2,3E0,3.1E1,1.13E2,1.2E1,9E0,6.5E1,3.66E2,2.7E1,3.8E1,4E0,5.8E1,1.8E1,5E0,3.3E1,2.9E1,1.5E1,1.7E1,1.03E2,1.3E1,1.8E1,9.1E1,2.2E1,3E0,6.2E1,9E0,3.57E2,1.5E1,1.2E1,3E0,1E0,1.4E1,4.4E1,3E1,3E0,2E0,2.7E1,3E0,1.2E1,1.4E1,3E0,3.5E1,6.8E1,2E0,1.1E1,8.8E1,3E0,1.2E1,1E1],"tree_param":{"num_deleted":"0","num_feature":"8","num_nodes":"71","size_leaf_vector":"1"}},{"base_weights":[1.7411713E-2,-2.6924485E-1,6.327271E-1,-4.1186997E-1,2.5484484E-1,1.2088201E0,-2.254309E-1,1.24030575E-1,-4.9305502E-1,-2.131881E-1,1.6404084E0,1.0194366E0,3.4765882E0,-3.406611E-1,1.15439765E-1,-6.844167E-1,7.4158245E-1,-5.57697E-1,2.687717E-1,-3.9158657E-2,7.453761E-2,1.7812825E0,-3.2192167E-2,1.9304298E0,6.609841E-1,-2.485963E-2,1.8979716E-1,-5.7185453E-1,7.042706E-1,-3.939518E-2,6.130864E-1,1.7152931E-1,1.9101547E0,-5.9480387E-1,5.6300235E-1,8.7769634E-1,-6.6141343E-1,9.994252E-1,-3.0665797E-1,1.9182266E0,7.54034E-1,-2.3100905E-1,2.1153624E0,-1.0361769E0,8.81764E-1,-7.005068E-1,5.050178E-1,-3.0006355E-1,1.5771736E0,6.853529E-2,-2.255381E-2,5.1010784E-2,-3.1741735E-2,-3.1073594E-2,1.07635036E-1,-1.2090105E-2,-3.2243233E-2,-3.5587795E-2,1.0607741E-1,3.7989772E-3,1.4069343E-1,-4.553919E-2,-4.6999515E-3,7.99468E-2,3.0083796E-3,1.7526684E-2,-4.653067E-2,3.6706377E-2,9.863478E-2,4.0773135E-2,1.1172262E-2,4.0044095E-2,-5.929485E-2,-5.0950613E-2,1.10186614E-1,-7.02923E-2,-9.28771E-3,8.503214E-2,2.255333E-2,4.5427945E-2,-3.7220385E-2,7.03763E-2,-3.16039E-2,5.474645E-2,-4.4335995E-2,1.0416843E-1,-4.1303635E-3],"categories":[],"categories_nodes":[],"categories_segments":[],"categories_sizes":[],"default_left":[0,0,0,0,0,0,0,0,0,0,0,0,0,0,0,0,0,0,0,0,0,0,0,0,0,0,0,0,0,0,0,0,0,0,0,0,0,0,0,0,0,0,0,0,0,0,0,0,0,0,0,0,0,0,0,0,0,0,0,0,0,0,0,0,0,0,0,0,0,0,0,0,0,0,0,0,0,0,0,0,0,0,0,0,0,0,0],"id":12,"left_children":[1,3,5,7,9,11,13,15,17,19,21,23,25,27,-1,29,31,33,35,-1,37,39,-1,41,43,-1,-1,45,47,-1,49,51,53,55,57,59,61,63,65,67,69,71,73,75,77,79,81,83,85,-1,-1,-1,-1,-1,-1,-1,-1,-1,-1,-1,-1,-1,-1,-1,-1,-1,-1,-1,-1,-1,-1,-1,-1,-1,-1,-1,-1,-1,-1,-1,-1,-1,-1,-1,-1,-1,-1],"loss_changes":[1.8537375E2,5.369954E1,1.6539502E2,2.459916E1,1.0021708E2,8.235144E1,4.0209133E1,3.795191E1,2.4280449E1,1.9082302E1,1.3696762E1,5.94619E1,2.092302E1,3.180832E1,0E0,4.914113E0,2.8316727E1,1.9131561E1,2.2670612E1,0E0,2.7806398E1,3.7585754E0,0E0,2.127414E1,5.1498047E1,0E0,0E0,1.5177765E1,2.1513718E1,0E0,3.0369835E0,2.1178171E1,9.934349E0,7.5842133E0,3.1311562E1,3.704048E1,2.1783285E0,1.2854982E1,2.3289474E1,6.156845E-1,1.3348818E-2,5.876464E0,1.5540863E1,4.768858E0,4.1555573E1,7.457733E0,1.3204523E1,1.079147E1,1.1094345E1,0E0,0E0,0E0,0E0,0E0,0E0,0E0,0E0,0E0,0E0,0E0,0E0,0E0,0E0,0E0,0E0,0E0,0E0,0E0,0E0,0E0,0E0,0E0,0E0,0E0,0E0,0E0,0E0,0E0,0E0,0E0,0E0,0E0,0E0,0E0,0E0,0E0,0E0],"parents":[2147483647,0,0,1,1,2,2,3,3,4,4,5,5,6,6,7,7,8,8,9,9,10,10,11,11,12,12,13,13,15,15,16,16,17,17,18,18,20,20,21,21,23,23,24,24,27,27,28,28,30,30,31,31,32,32,33,33,34,34,35,35,36,36,37,37,38,38,39,39,40,40,41,41,42,42,43,43,44,44,45,45,46,46,47,47,48,48],"right_children":[2,4,6,8,10,12,14,16,18,20,22,24,26,28,-1,30,32,34,36,-1,38,40,-1,42,44,-1,-1,46,48,-1,50,52,54,56,58,60,62,64,66,68,70,72,74,76,78,80,82,84,86,-1,-1,-1,-1,-1,-1,-1,-1,-1,-1,-1,-1,-1,-1,-1,-1,-1,-1,-1,-1,-1,-1,-1,-1,-1,-1,-1,-1,-1,-1,-1,-1,-1,-1,-1,-1,-1,-1],"split_conditions":[1.066E3,9.059E2,1.72E2,6.71E2,1.988E2,8.9E1,1.5E1,9.795E2,4.792E2,7E0,9.871E2,1.571E0,1.133125E2,7.1E2,1.15439765E-1,3.1E2,1.9E1,1.998E1,1.1332398E1,-3.9158657E-2,9.391E2,1.4E2,-3.2192167E-2,1.607E2,2.25E0,-2.485963E-2,1.8979716E-1,1.2E2,2.135E2,-3.939518E-2,3.25E2,2.704E2,1.375E2,7.2E2,1.4E2,1.08E1,1.855E2,8.15E1,1.5453E1,5.95E2,2.356E2,1.17E2,1.069E3,6.83E2,2.52E2,4.377E2,3.1681E2,7.1122E2,1.246E2,6.853529E-2,-2.255381E-2,5.1010784E-2,-3.1741735E-2,-3.1073594E-2,1.07635036E-1,-1.2090105E-2,-3.2243233E-2,-3.5587795E-2,1.0607741E-1,3.7989772E-3,1.4069343E-1,-4.553919E-2,-4.6999515E-3,7.99468E-2,3.0083796E-3,1.7526684E-2,-4.653067E-2,3.6706377E-2,9.863478E-2,4.0773135E-2,1.1172262E-2,4.0044095E-2,-5.929485E-2,-5.0950613E-2,1.10186614E-1,-7.02923E-2,-9.28771E-3,8.503214E-2,2.255333E-2,4.5427945E-2,-3.7220385E-2,7.03763E-2,-3.16039E-2,5.474645E-2,-4.4335995E-2,1.0416843E-1,-4.1303635E-3],"split_indices":[2,3,1,3,1,5,7,2,0,5,3,7,1,3,0,0,5,7,7,0,3,4,0,0,7,0,0,4,0,0,0,0,1,2,1,7,1,4,4,2,1,1,2,3,0,3,0,3,4,0,0,0,0,0,0,0,0,0,0,0,0,0,0,0,0,0,0,0,0,0,0,0,0,0,0,0,0,0,0,0,0,0,0,0,0,0,0],"split_type":[0,0,0,0,0,0,0,0,0,0,0,0,0,0,0,0,0,0,0,0,0,0,0,0,0,0,0,0,0,0,0,0,0,0,0,0,0,0,0,0,0,0,0,0,0,0,0,0,0,0,0,0,0,0,0,0,0,0,0,0,0,0,0,0,0,0,0,0,0,0,0,0,0,0,0,0,0,0,0,0,0,0,0,0,0,0,0],"sum_hessian":[1.049E3,7.16E2,3.33E2,5.63E2,1.53E2,1.99E2,1.34E2,7.4E1,4.89E2,1.15E2,3.8E1,1.85E2,1.4E1,1.29E2,5E0,3.2E1,4.2E1,4.51E2,3.8E1,3.8E1,7.7E1,3.6E1,2E0,5.1E1,1.34E2,1E0,1.3E1,1.06E2,2.3E1,3E1,2E0,2.9E1,1.3E1,4.37E2,1.4E1,2.3E1,1.5E1,2.2E1,5.5E1,3.1E1,5E0,4E0,4.7E1,1.5E1,1.19E2,9.5E1,1.1E1,1.1E1,1.2E1,1E0,1E0,1.4E1,1.5E1,1E0,1.2E1,5.5E1,3.82E2,8E0,6E0,1.7E1,6E0,1E1,5E0,1.3E1,9E0,2.7E1,2.8E1,2E0,2.9E1,4E0,1E0,2E0,2E0,1E0,4.6E1,1E1,5E0,4E1,7.9E1,2E0,9.3E1,6E0,5E0,3E0,8E0,9E0,3E0],"tree_param":{"num_deleted":"0","num_feature":"8","num_nodes":"87","size_leaf_vector":"1"}},{"base_weights":[3.4156654E-2,-2.3374975E-2,1.7921947E0,3.5004178E-1,-2.0701516E-1,2.8610604E0,1.3722998E-1,7.7363664E-1,-4.4904202E-1,-3.8989815E-1,3.0396602E-1,-4.1160136E-2,3.3161564E0,7.66864E-2,-5.7474196E-1,1.189109E0,-2.6062394E-3,-6.7638683E-1,2.028452E0,-4.2624187E-1,6.656263E-1,-3.90572E-1,8.951278E-1,1.7819189E-1,7.79156E-2,5.3420976E-2,-4.2579312E-2,9.1867876E-1,2.6224246E0,-3.369006E-1,1.6942331E-1,2.4379508E-1,-7.6338106E-1,-2.7201442E-2,1.1873653E-1,-4.389168E-1,8.7402664E-2,1.1907112E-1,-3.8678657E-2,-6.2720364E-1,2.1728083E-1,1.1866635E0,-3.888561E-2,4.685825E-2,-2.7677435E-2,7.62701E-2,1.1667583E-2,2.3872985E-2,1.9070072E-1,-3.846303E-2,7.391848E-2,-3.1078998E-2,8.4862635E-2,-4.0214304E-2,7.915465E-3,-2.4767531E-2,3.597459E-4,-4.0325936E-2,-1.1412375E-2,5.4696538E-2,-1.9081889E-2,1.4962481E-2,7.3181614E-2],"categories":[],"categories_nodes":[],"categories_segments":[],"categories_sizes":[],"default_left":[0,0,0,0,0,0,0,0,0,0,0,0,0,0,0,0,0,0,0,0,0,0,0,0,0,0,0,0,0,0,0,0,0,0,0,0,0,0,0,0,0,0,0,0,0,0,0,0,0,0,0,0,0,0,0,0,0,0,0,0,0,0,0],"id":13,"left_children":[1,3,5,7,9,11,13,15,17,19,21,-1,23,-1,25,27,29,31,33,35,37,39,41,-1,-1,43,-1,45,47,49,-1,51,53,-1,-1,55,-1,-1,-1,57,59,61,-1,-1,-1,-1,-1,-1,-1,-1,-1,-1,-1,-1,-1,-1,-1,-1,-1,-1,-1,-1,-1],"loss_changes":[1.0533155E2,6.9263954E1,5.798221E1,1.1306383E2,6.3384003E1,3.626375E1,1.4801241E1,7.030971E1,6.670848E1,1.94262E1,7.384421E1,0E0,2.283371E0,0E0,1.7845254E0,5.26317E1,8.843002E1,8.751514E0,1.0199879E1,1.407827E1,4.382154E1,1.2074767E1,4.8229073E1,0E0,0E0,2.6643898E0,0E0,4.9956337E1,5.4409164E1,5.6861614E1,0E0,1.3632837E1,3.822094E0,0E0,0E0,1.2113113E1,0E0,0E0,0E0,4.108246E0,1.3018491E1,1.9962234E1,0E0,0E0,0E0,0E0,0E0,0E0,0E0,0E0,0E0,0E0,0E0,0E0,0E0,0E0,0E0,0E0,0E0,0E0,0E0,0E0,0E0],"parents":[2147483647,0,0,1,1,2,2,3,3,4,4,5,5,6,6,7,7,8,8,9,9,10,10,12,12,14,14,15,15,16,16,17,17,18,18,19,19,20,20,21,21,22,22,25,25,27,27,28,28,29,29,31,31,32,32,35,35,39,39,40,40,41,41],"right_children":[2,4,6,8,10,12,14,16,18,20,22,-1,24,-1,26,28,30,32,34,36,38,40,42,-1,-1,44,-1,46,48,50,-1,52,54,-1,-1,56,-1,-1,-1,58,60,62,-1,-1,-1,-1,-1,-1,-1,-1,-1,-1,-1,-1,-1,-1,-1,-1,-1,-1,-1,-1,-1],"split_conditions":[8.75E1,1.67E2,6.69E2,7.719E2,8.61E2,1.22E2,3.5E2,5.7E0,1.65E2,1.6E1,2.5757E2,-4.1160136E-2,1.8656E2,7.66864E-2,3.73E2,4.65E0,4.86E2,7.2E-1,7.99E2,6.75E2,6.43E2,2.25E2,9.93E2,1.7819189E-1,7.79156E-2,3.77E0,-4.2579312E-2,2.7E2,1.51E2,9.2E1,1.6942331E-1,2.704E2,1.598E2,-2.7201442E-2,1.1873653E-1,1.781E2,8.7402664E-2,1.1907112E-1,-3.8678657E-2,2.25E2,9.32E2,1.855E2,-3.888561E-2,4.685825E-2,-2.7677435E-2,7.62701E-2,1.1667583E-2,2.3872985E-2,1.9070072E-1,-3.846303E-2,7.391848E-2,-3.1078998E-2,8.4862635E-2,-4.0214304E-2,7.915465E-3,-2.4767531E-2,3.597459E-4,-4.0325936E-2,-1.1412375E-2,5.4696538E-2,-1.9081889E-2,1.4962481E-2,7.3181614E-2],"split_indices":[5,1,3,3,3,1,0,7,1,7,0,0,1,0,0,7,0,7,3,0,3,6,3,0,0,7,0,0,1,6,0,0,1,0,0,6,0,0,0,0,3,1,0,0,0,0,0,0,0,0,0,0,0,0,0,0,0,0,0,0,0,0,0],"split_type":[0,0,0,0,0,0,0,0,0,0,0,0,0,0,0,0,0,0,0,0,0,0,0,0,0,0,0,0,0,0,0,0,0,0,0,0,0,0,0,0,0,0,0,0,0,0,0,0,0,0,0,0,0,0,0,0,0,0,0,0,0,0,0],"sum_hessian":[1.04E3,1.008E3,3.2E1,3.32E2,6.76E2,1.9E1,1.3E1,2.17E2,1.15E2,4.98E2,1.78E2,2E0,1.7E1,4E0,9E0,1.41E2,7.6E1,1.06E2,9E0,4.82E2,1.6E1,8.2E1,9.6E1,1.4E1,3E0,3E0,6E0,1.2E2,2.1E1,7E1,6E0,9E0,9.7E1,1E0,8E0,4.8E2,2E0,7E0,9E0,5.9E1,2.3E1,8.2E1,1.4E1,1E0,2E0,6.3E1,5.7E1,8E0,1.3E1,5.7E1,1.3E1,6E0,3E0,9.3E1,4E0,4.26E2,5.4E1,4E1,1.9E1,9E0,1.4E1,2E1,6.2E1],"tree_param":{"num_deleted":"0","num_feature":"8","num_nodes":"63","size_leaf_vector":"1"}},{"base_weights":[6.6321124E-3,-2.6685336E-1,6.4908487E-1,-3.9826265E-1,2.1971922E-1,5.132779E-1,2.7378E0,8.378837E-1,-4.2349952E-1,-3.092478E-1,7.662142E-1,1.6741937E0,2.60046E-1,1.478865E-1,-3.0523527E-2,-3.9595876E-2,2.1151586E0,3.4747967E-1,-4.6084923E-1,9.611754E-1,-5.662577E-1,3.3681557E-2,1.4978832E0,1.919663E-1,1.1440684E0,8.331677E-1,-2.87848E-1,3.072666E-2,1.1314203E-1,-3.8703254E-1,1.8595077E0,-5.327252E-1,-1.50254E-1,-2.9932637E-2,1.2710345E0,-7.2911346E-1,2.5449502E-1,5.366683E-1,-6.108949E-1,1.7911022E0,4.6843782E-1,1.512179E0,-4.5549324E-1,4.7980887E-1,1.5278901E0,-4.025371E-1,2.0730236E0,-4.428282E-2,1.3270013E-2,-2.3500731E-2,1.1047249E-1,-2.8436353E-2,4.038679E-2,-3.3467084E-2,9.909472E-3,7.729852E-2,2.8846497E-2,-4.1853208E-2,-2.78727E-2,4.8697796E-2,-3.1364594E-2,-8.719958E-3,9.458598E-2,4.7196124E-2,-3.789398E-2,9.380464E-2,3.848198E-2,-4.9214464E-2,8.004854E-2,9.193559E-2,-4.4003304E-2,-4.6828415E-2,4.0942315E-2,-5.751029E-3,5.9514113E-2,5.381294E-2,1.10442914E-1,-5.320651E-2,-4.9226442E-3,1.4436564E-1,4.720254E-2],"categories":[],"categories_nodes":[],"categories_segments":[],"categories_sizes":[],"default_left":[0,0,0,0,0,0,0,0,0,0,0,0,0,0,0,0,0,0,0,0,0,0,0,0,0,0,0,0,0,0,0,0,0,0,0,0,0,0,0,0,0,0,0,0,0,0,0,0,0,0,0,0,0,0,0,0,0,0,0,0,0,0,0,0,0,0,0,0,0,0,0,0,0,0,0,0,0,0,0,0,0],"id":14,"left_children":[1,3,5,7,9,11,13,15,17,19,21,23,25,-1,-1,-1,27,29,31,33,35,37,39,-1,41,43,45,-1,-1,47,49,51,53,-1,55,57,59,61,63,65,67,69,71,73,75,77,79,-1,-1,-1,-1,-1,-1,-1,-1,-1,-1,-1,-1,-1,-1,-1,-1,-1,-1,-1,-1,-1,-1,-1,-1,-1,-1,-1,-1,-1,-1,-1,-1,-1,-1],"loss_changes":[1.8536261E2,4.740322E1,8.794829E1,1.8542389E1,4.591124E1,8.687697E1,1.5796921E1,2.665548E1,1.6631363E1,2.69917E1,4.1755318E1,5.644049E1,7.717226E1,0E0,0E0,0E0,1.6071701E-1,3.0705975E1,1.2109047E1,7.527484E0,9.274725E0,1.3296384E1,1.0933258E1,0E0,2.659668E1,2.872525E1,3.4951015E1,0E0,0E0,6.416107E0,8.375254E0,2.183815E1,1.8943419E1,0E0,1.3980961E0,5.896301E-1,8.22389E0,2.2491173E1,4.8289986E0,1.1605225E0,1.802843E1,2.9739449E1,6.2843823E0,3.4368355E1,9.924561E0,2.4238012E1,2.7900906E0,0E0,0E0,0E0,0E0,0E0,0E0,0E0,0E0,0E0,0E0,0E0,0E0,0E0,0E0,0E0,0E0,0E0,0E0,0E0,0E0,0E0,0E0,0E0,0E0,0E0,0E0,0E0,0E0,0E0,0E0,0E0,0E0,0E0,0E0],"parents":[2147483647,0,0,1,1,2,2,3,3,4,4,5,5,6,6,7,7,8,8,9,9,10,10,11,11,12,12,16,16,17,17,18,18,19,19,20,20,21,21,22,22,24,24,25,25,26,26,29,29,30,30,31,31,32,32,34,34,35,35,36,36,37,37,38,38,39,39,40,40,41,41,42,42,43,43,44,44,45,45,46,46],"right_children":[2,4,6,8,10,12,14,16,18,20,22,24,26,-1,-1,-1,28,30,32,34,36,38,40,-1,42,44,46,-1,-1,48,50,52,54,-1,56,58,60,62,64,66,68,70,72,74,76,78,80,-1,-1,-1,-1,-1,-1,-1,-1,-1,-1,-1,-1,-1,-1,-1,-1,-1,-1,-1,-1,-1,-1,-1,-1,-1,-1,-1,-1,-1,-1,-1,-1,-1,-1],"split_conditions":[1.066E3,9.059E2,1.6E1,5.9E2,2.704E2,1.098E3,1.147E3,2.6E0,6.3E2,9.32E2,7.37E2,5.23E2,3.125E2,1.478865E-1,-3.0523527E-2,-3.9595876E-2,2.755E2,7E0,4.2E2,6.21E2,3.6E1,9.871E2,7.87E2,1.919663E-1,3.426E2,1.6E1,1.75E2,3.072666E-2,1.1314203E-1,3.5E0,9.45E2,1.998E1,7.41E2,-2.9932637E-2,7.13E1,7.35E2,2.07E0,9.763E2,1.571E0,1.4E2,8.12E2,7.3353E2,1.0852E3,6.99E2,7.2E-1,1.15E3,1.1391E3,-4.428282E-2,1.3270013E-2,-2.3500731E-2,1.1047249E-1,-2.8436353E-2,4.038679E-2,-3.3467084E-2,9.909472E-3,7.729852E-2,2.8846497E-2,-4.1853208E-2,-2.78727E-2,4.8697796E-2,-3.1364594E-2,-8.719958E-3,9.458598E-2,4.7196124E-2,-3.789398E-2,9.380464E-2,3.848198E-2,-4.9214464E-2,8.004854E-2,9.193559E-2,-4.4003304E-2,-4.6828415E-2,4.0942315E-2,-5.751029E-3,5.9514113E-2,5.381294E-2,1.10442914E-1,-5.320651E-2,-4.9226442E-3,1.4436564E-1,4.720254E-2],"split_indices":[2,3,7,2,0,2,2,7,3,3,2,3,0,0,0,0,0,5,0,2,5,3,2,0,0,5,6,0,0,7,2,7,3,0,4,2,7,3,7,4,2,3,2,3,7,2,2,0,0,0,0,0,0,0,0,0,0,0,0,0,0,0,0,0,0,0,0,0,0,0,0,0,0,0,0,0,0,0,0,0,0],"split_type":[0,0,0,0,0,0,0,0,0,0,0,0,0,0,0,0,0,0,0,0,0,0,0,0,0,0,0,0,0,0,0,0,0,0,0,0,0,0,0,0,0,0,0,0,0,0,0,0,0,0,0,0,0,0,0,0,0,0,0,0,0,0,0,0,0,0,0,0,0,0,0,0,0,0,0,0,0,0,0,0,0],"sum_hessian":[1.053E3,7.39E2,3.14E2,5.82E2,1.57E2,2.96E2,1.8E1,1.1E1,5.71E2,8E1,7.7E1,5.2E1,2.44E2,1.7E1,1E0,5E0,6E0,2.6E1,5.45E2,1.3E1,6.7E1,3.9E1,3.8E1,9E0,4.3E1,1.19E2,1.25E2,1E0,5E0,1.8E1,8E0,4.42E2,1.03E2,2E0,1.1E1,5.6E1,1.1E1,2.2E1,1.7E1,2.9E1,9E0,3.5E1,8E0,8E1,3.9E1,1.2E2,5E0,1E1,8E0,1E0,7E0,4.31E2,1.1E1,4.1E1,6.2E1,7E0,4E0,3.2E1,2.4E1,6E0,5E0,1.5E1,7E0,1E0,1.6E1,2.6E1,3E0,4E0,5E0,3.1E1,4E0,6E0,2E0,4.4E1,3.6E1,2.5E1,1.4E1,3.7E1,8.3E1,2E0,3E0],"tree_param":{"num_deleted":"0","num_feature":"8","num_nodes":"81","size_leaf_vector":"1"}},{"base_weights":[2.3251047E-2,-2.4306552E-2,1.475215E0,3.0008566E-1,-1.847846E-1,2.5256562E0,4.630847E-2,1.3363775E0,2.0249255E-2,-3.1761408E-1,2.4125244E-1,-3.8819313E-2,2.9598014E0,6.9534E-2,-5.6897926E-1,4.1061398E-2,2.2831683E0,2.0277507E0,-6.676951E-2,-3.489789E-1,6.8238723E-1,-5.1815647E-1,6.855984E-1,1.6192289E-1,8.216677E-2,4.867652E-2,-4.0334236E-2,1.7726741E0,-7.479017E-1,9.591072E-1,1.8829063E-1,1.21789984E-1,-5.1318444E-2,-1.6048813E-1,1.8365965E0,-3.6850336E-1,7.5713444E-1,1.07859395E-1,-3.521838E-2,7.415276E-1,-6.9852096E-1,1.9116984E-3,1.1641471E0,4.3341678E-2,-2.5649352E-2,3.6358654E-2,9.7157635E-2,1.5621779E-2,-7.5300746E-2,-7.07765E-2,8.486846E-2,3.1783637E-2,-2.183591E-2,-2.8314022E-2,1.1869001E-1,2.7007032E-2,-1.9520307E-2,1.0457031E-1,-3.6428206E-2,-2.4318198E-2,6.1594274E-2,-2.868036E-2,-4.4593047E-2,3.729774E-2,-2.566343E-2,7.533243E-2,-3.4951266E-2],"categories":[],"categories_nodes":[],"categories_segments":[],"categories_sizes":[],"default_left":[0,0,0,0,0,0,0,0,0,0,0,0,0,0,0,0,0,0,0,0,0,0,0,0,0,0,0,0,0,0,0,0,0,0,0,0,0,0,0,0,0,0,0,0,0,0,0,0,0,0,0,0,0,0,0,0,0,0,0,0,0,0,0,0,0,0,0],"id":15,"left_children":[1,3,5,7,9,11,13,15,17,19,21,-1,23,-1,25,27,29,31,33,35,37,39,41,-1,-1,43,-1,45,47,49,-1,-1,-1,51,53,55,57,-1,-1,59,61,63,65,-1,-1,-1,-1,-1,-1,-1,-1,-1,-1,-1,-1,-1,-1,-1,-1,-1,-1,-1,-1,-1,-1,-1,-1],"loss_changes":[7.184985E1,5.2529743E1,4.9415466E1,9.683032E1,3.8275063E1,2.9535713E1,1.3198895E1,8.698018E1,4.625363E1,1.639104E1,5.4683132E1,0E0,9.144287E-1,0E0,1.6542883E0,4.3677315E1,7.687575E1,1.6208557E1,4.560348E1,1.1077141E1,3.4242447E1,1.4150108E1,3.3369877E1,0E0,0E0,2.2827902E0,0E0,3.6934662E-1,1.8155355E1,4.2724075E1,0E0,0E0,0E0,5.3719036E1,1.6834244E1,1.0002563E1,1.936465E1,0E0,0E0,5.4159956E0,7.6841545E-1,1.6865479E1,3.9341545E1,0E0,0E0,0E0,0E0,0E0,0E0,0E0,0E0,0E0,0E0,0E0,0E0,0E0,0E0,0E0,0E0,0E0,0E0,0E0,0E0,0E0,0E0,0E0,0E0],"parents":[2147483647,0,0,1,1,2,2,3,3,4,4,5,5,6,6,7,7,8,8,9,9,10,10,12,12,14,14,15,15,16,16,17,17,18,18,19,19,20,20,21,21,22,22,25,25,27,27,28,28,29,29,33,33,34,34,35,35,36,36,39,39,40,40,41,41,42,42],"right_children":[2,4,6,8,10,12,14,16,18,20,22,-1,24,-1,26,28,30,32,34,36,38,40,42,-1,-1,44,-1,46,48,50,-1,-1,-1,52,54,56,58,-1,-1,60,62,64,66,-1,-1,-1,-1,-1,-1,-1,-1,-1,-1,-1,-1,-1,-1,-1,-1,-1,-1,-1,-1,-1,-1,-1,-1],"split_conditions":[8.75E1,1.67E2,6.69E2,6.52E2,8.81E2,1.22E2,3.5E2,1.5E2,1.28E2,1.6E1,1.855E2,-3.8819313E-2,1.703E2,6.9534E-2,9.6E1,7.2E-1,3.7E0,1.5561E2,1.65E2,6E2,6.43E2,7.2E-1,1.764E0,1.6192289E-1,8.216677E-2,3.77E0,-4.0334236E-2,1.24E2,6.05E2,5.78E2,1.8829063E-1,1.21789984E-1,-5.1318444E-2,1.571E0,7.99E2,5E2,2.2624E2,1.07859395E-1,-3.521838E-2,1.8144E2,2.755E2,9.35E2,9.871E2,4.3341678E-2,-2.5649352E-2,3.6358654E-2,9.7157635E-2,1.5621779E-2,-7.5300746E-2,-7.07765E-2,8.486846E-2,3.1783637E-2,-2.183591E-2,-2.8314022E-2,1.1869001E-1,2.7007032E-2,-1.9520307E-2,1.0457031E-1,-3.6428206E-2,-2.4318198E-2,6.1594274E-2,-2.868036E-2,-4.4593047E-2,3.729774E-2,-2.566343E-2,7.533243E-2,-3.4951266E-2],"split_indices":[5,1,3,3,3,1,0,1,0,7,1,0,1,0,5,7,7,1,1,0,3,7,7,0,0,7,0,0,3,3,0,0,0,7,3,3,1,0,0,0,0,3,3,0,0,0,0,0,0,0,0,0,0,0,0,0,0,0,0,0,0,0,0,0,0,0,0],"split_type":[0,0,0,0,0,0,0,0,0,0,0,0,0,0,0,0,0,0,0,0,0,0,0,0,0,0,0,0,0,0,0,0,0,0,0,0,0,0,0,0,0,0,0,0,0,0,0,0,0,0,0,0,0,0,0,0,0,0,0,0,0,0,0,0,0,0,0],"sum_hessian":[1.039E3,1.007E3,3.2E1,3.33E2,6.74E2,1.8E1,1.4E1,7E1,2.63E2,5.14E2,1.6E2,2E0,1.6E1,4E0,1E1,3E1,4E1,1E1,2.53E2,4.99E2,1.5E1,5.9E1,1.01E2,1.2E1,4E0,3E0,7E0,9E0,2.1E1,2.2E1,1.8E1,9E0,1E0,2.42E2,1.1E1,4.91E2,8E0,7E0,8E0,7E0,5.2E1,4.2E1,5.9E1,1E0,2E0,2E0,7E0,9E0,1.2E1,5E0,1.7E1,6.2E1,1.8E2,2E0,9E0,1.1E1,4.8E2,4E0,4E0,2E0,5E0,3.4E1,1.8E1,1.7E1,2.5E1,5E1,9E0],"tree_param":{"num_deleted":"0","num_feature":"8","num_nodes":"67","size_leaf_vector":"1"}},{"base_weights":[3.7437387E-2,-2.2222272E-1,6.434659E-1,-3.4750125E-1,2.3774166E-1,1.2381651E0,-2.559909E-1,1.6566838E-1,-4.134603E-1,-1.9752292E-1,1.4165374E0,9.351331E-1,2.609956E0,-4.005364E-1,1.1626147E0,-2.6400298E-1,1.3499962E0,-5.032633E-1,-3.948494E-2,1.7651958E-2,-3.5107564E-2,1.5257266E0,-2.7394732E-2,1.06297E0,-4.349335E-2,-3.7525337E-2,2.8434384E0,-4.696539E-1,1.2278033E0,-4.3033436E-2,8.266692E-2,-6.39891E-1,5.0330275E-1,-7.3667705E-2,1.9032259E0,-6.042787E-1,-1.8637007E-1,-4.1258565E-1,4.53227E-1,7.3514086E-1,-2.8666794E-1,2.8760953E-2,1.6129377E0,1.96733E0,8.449118E-1,3.1106846E0,8.264319E-2,-5.747623E-1,4.5414615E-1,8.4981225E-2,-1.6487032E-2,-1.3695742E-3,-3.8508136E-2,-2.3735235E-2,1.18771695E-1,6.8640016E-2,-3.187607E-2,1.14552334E-1,4.122518E-2,1.595571E-2,-3.178001E-2,-1.3806902E-2,8.051779E-2,4.4246633E-2,-2.4972452E-2,4.7077253E-2,-3.9182518E-2,-2.8676063E-2,5.0586022E-2,8.257734E-3,-4.3324362E-2,8.373762E-2,3.421394E-2,-4.9592417E-2,1.0568322E-1,8.141694E-3,6.455854E-2,6.9307424E-2,1.641421E-1,-3.50183E-2,2.0890895E-4,7.873478E-2,-2.8560137E-2],"categories":[],"categories_nodes":[],"categories_segments":[],"categories_sizes":[],"default_left":[0,0,0,0,0,0,0,0,0,0,0,0,0,0,0,0,0,0,0,0,0,0,0,0,0,0,0,0,0,0,0,0,0,0,0,0,0,0,0,0,0,0,0,0,0,0,0,0,0,0,0,0,0,0,0,0,0,0,0,0,0,0,0,0,0,0,0,0,0,0,0,0,0,0,0,0,0,0,0,0,0,0,0],"id":16,"left_children":[1,3,5,7,9,11,13,15,17,19,21,23,25,27,29,31,33,35,37,39,-1,41,-1,43,-1,-1,45,47,49,-1,-1,51,53,55,57,59,61,63,65,67,69,-1,71,73,75,77,-1,79,81,-1,-1,-1,-1,-1,-1,-1,-1,-1,-1,-1,-1,-1,-1,-1,-1,-1,-1,-1,-1,-1,-1,-1,-1,-1,-1,-1,-1,-1,-1,-1,-1,-1,-1],"loss_changes":[1.6631665E2,4.272413E1,1.6988223E2,1.9768135E1,8.1860794E1,7.695743E1,2.6507404E1,3.445081E1,1.7309532E1,1.2716646E1,1.0059212E1,3.7382446E1,2.88107E1,1.3632074E1,1.3337452E1,1.4743113E1,1.43172455E1,1.3203995E1,1.8753942E1,1.8333475E1,0E0,2.4708939E0,0E0,2.752385E1,0E0,0E0,5.0401306E0,1.1136127E1,4.234846E0,0E0,0E0,2.6918097E0,3.2253918E1,5.768768E0,3.5495834E0,9.313255E0,1.68961E1,6.978978E0,2.7313385E1,9.628969E0,1.5599656E1,0E0,9.7797394E-1,1.422126E1,3.6620132E1,2.8717804E0,0E0,7.3473473E0,1.468692E1,0E0,0E0,0E0,0E0,0E0,0E0,0E0,0E0,0E0,0E0,0E0,0E0,0E0,0E0,0E0,0E0,0E0,0E0,0E0,0E0,0E0,0E0,0E0,0E0,0E0,0E0,0E0,0E0,0E0,0E0,0E0,0E0,0E0,0E0],"parents":[2147483647,0,0,1,1,2,2,3,3,4,4,5,5,6,6,7,7,8,8,9,9,10,10,11,11,12,12,13,13,14,14,15,15,16,16,17,17,18,18,19,19,21,21,23,23,26,26,27,27,28,28,31,31,32,32,33,33,34,34,35,35,36,36,37,37,38,38,39,39,40,40,42,42,43,43,44,44,45,45,47,47,48,48],"right_children":[2,4,6,8,10,12,14,16,18,20,22,24,26,28,30,32,34,36,38,40,-1,42,-1,44,-1,-1,46,48,50,-1,-1,52,54,56,58,60,62,64,66,68,70,-1,72,74,76,78,-1,80,82,-1,-1,-1,-1,-1,-1,-1,-1,-1,-1,-1,-1,-1,-1,-1,-1,-1,-1,-1,-1,-1,-1,-1,-1,-1,-1,-1,-1,-1,-1,-1,-1,-1,-1],"split_conditions":[1.066E3,9.059E2,1.72E2,6.71E2,1.988E2,4.757E1,1.75E2,1.9E1,4.3E2,9.7E1,9.871E2,7.719E2,1.22E2,7.3E1,1.779E2,6.7E2,9.45E2,1.69E2,1.855E2,9.391E2,-3.5107564E-2,5.95E2,-2.7394732E-2,1.1E3,-4.349335E-2,-3.7525337E-2,7.2683E2,1.25E2,4.1984E2,-4.3033436E-2,8.266692E-2,5E2,9.11E1,2.325E1,4.825E1,1.30625E2,3.47E2,4.4E2,2.2624E2,1.7E2,1.9E2,2.8760953E-2,1.4E2,1.069E3,1.151E3,1.344E2,8.264319E-2,7.1E2,3.125E2,8.4981225E-2,-1.6487032E-2,-1.3695742E-3,-3.8508136E-2,-2.3735235E-2,1.18771695E-1,6.8640016E-2,-3.187607E-2,1.14552334E-1,4.122518E-2,1.595571E-2,-3.178001E-2,-1.3806902E-2,8.051779E-2,4.4246633E-2,-2.4972452E-2,4.7077253E-2,-3.9182518E-2,-2.8676063E-2,5.0586022E-2,8.257734E-3,-4.3324362E-2,8.373762E-2,3.421394E-2,-4.9592417E-2,1.0568322E-1,8.141694E-3,6.455854E-2,6.9307424E-2,1.641421E-1,-3.50183E-2,2.0890895E-4,7.873478E-2,-2.8560137E-2],"split_indices":[2,3,1,3,1,5,6,5,0,4,3,3,1,5,1,3,2,4,1,3,0,2,0,2,0,0,3,4,0,0,0,3,4,5,5,0,0,0,1,1,1,0,4,2,2,1,0,3,0,0,0,0,0,0,0,0,0,0,0,0,0,0,0,0,0,0,0,0,0,0,0,0,0,0,0,0,0,0,0,0,0,0,0],"split_type":[0,0,0,0,0,0,0,0,0,0,0,0,0,0,0,0,0,0,0,0,0,0,0,0,0,0,0,0,0,0,0,0,0,0,0,0,0,0,0,0,0,0,0,0,0,0,0,0,0,0,0,0,0,0,0,0,0,0,0,0,0,0,0,0,0,0,0,0,0,0,0,0,0,0,0,0,0,0,0,0,0,0,0],"sum_hessian":[1.055E3,7.39E2,3.16E2,5.81E2,1.58E2,1.9E2,1.26E2,6.6E1,5.15E2,1.16E2,4.2E1,1.57E2,3.3E1,1.15E2,1.1E1,4.9E1,1.7E1,4.15E2,1E2,8.2E1,3.4E1,4E1,2E0,1.47E2,1E1,2E0,3.1E1,1.11E2,4E0,2E0,9E0,3.3E1,1.6E1,5E0,1.2E1,3.14E2,1.01E2,5.7E1,4.3E1,2.4E1,5.8E1,4E0,3.6E1,2.7E1,1.2E2,2.4E1,7E0,1E2,1.1E1,3E0,1E0,6E0,2.7E1,1.1E1,5E0,1E0,4E0,8E0,4E0,1E1,3.04E2,9.7E1,4E0,3E0,5.4E1,3.1E1,1.2E1,4E0,2E1,3.3E1,2.5E1,3.3E1,3E0,1E0,2.6E1,4.8E1,7.2E1,3E0,2.1E1,8.2E1,1.8E1,5E0,6E0],"tree_param":{"num_deleted":"0","num_feature":"8","num_nodes":"83","size_leaf_vector":"1"}},{"base_weights":[2.0528553E-2,-1.9693296E-1,5.0515115E-1,1.0202916E-1,-3.7479615E-1,3.8245574E-1,2.4223175E0,-4.2634155E-3,9.3833953E-1,1.6405115E-1,-4.6715608E-1,1.4336325E0,1.872096E-1,1.3137399E-1,-3.176495E-2,4.255365E-1,-1.869672E-1,-3.20099E-2,1.4465988E0,-2.2072785E-1,1.2861041E0,-6.816397E-1,-3.7980857E-1,1.6909781E-1,9.4725955E-1,4.8594645E-1,-4.9692327E-1,-2.0319836E-1,1.1556917E0,2.1275657E-1,-5.073147E-1,1.5519947E0,-2.1802807E-2,-3.501084E-2,3.7259465E-1,-5.1440854E-2,1.8477012E0,7.907887E-2,-7.172396E-1,1.9309616E0,-4.2134777E-1,1.3804555E0,-6.501109E-1,2.913786E-1,1.7066756E-1,1.8339314E-1,-1.1153404E0,2.3144387E-2,-3.1939458E-2,1.1110961E-1,1.2644603E-2,-5.1386156E-3,5.4279983E-2,9.4120875E-2,-3.0394409E-2,1.3750163E-2,8.695755E-2,7.923825E-2,-2.5992757E-2,6.692401E-2,-2.9856056E-2,1.1538827E-1,5.0150465E-2,-4.6347313E-2,-3.231442E-2,-1.7777255E-2,1.2957373E-1,1.5113468E-2,-2.6190614E-2,8.213859E-2,-4.004359E-2,-5.2814413E-2,6.4982705E-2,3.8228422E-2,-2.547036E-2,1.0042633E-1,-3.1728484E-2,-6.531377E-2,-2.3792814E-2],"categories":[],"categories_nodes":[],"categories_segments":[],"categories_sizes":[],"default_left":[0,0,0,0,0,0,0,0,0,0,0,0,0,0,0,0,0,0,0,0,0,0,0,0,0,0,0,0,0,0,0,0,0,0,0,0,0,0,0,0,0,0,0,0,0,0,0,0,0,0,0,0,0,0,0,0,0,0,0,0,0,0,0,0,0,0,0,0,0,0,0,0,0,0,0,0,0,0,0],"id":17,"left_children":[1,3,5,7,9,11,13,15,17,19,21,23,25,-1,-1,27,29,-1,31,33,35,37,39,-1,41,43,45,47,49,51,53,55,-1,-1,57,59,61,-1,63,65,67,69,71,73,-1,75,77,-1,-1,-1,-1,-1,-1,-1,-1,-1,-1,-1,-1,-1,-1,-1,-1,-1,-1,-1,-1,-1,-1,-1,-1,-1,-1,-1,-1,-1,-1,-1,-1],"loss_changes":[1.0854246E2,3.7845215E1,7.411114E1,2.3649694E1,2.227312E1,6.1508312E1,1.3588066E1,1.8690239E1,2.4995296E1,2.8778877E1,6.87899E0,4.133416E1,5.2357277E1,0E0,0E0,3.2829094E1,2.1492369E1,0E0,5.240513E0,1.4485477E1,1.286479E1,9.916546E0,2.70182E1,0E0,2.7884449E1,1.0039046E2,3.302065E1,1.1611185E1,3.1211613E1,2.0767109E1,2.3496262E1,4.779663E0,0E0,0E0,2.5705273E1,5.34995E0,2.3486366E0,0E0,1.0078468E0,8.472723E0,2.0103367E1,1.9053768E1,8.500361E0,6.404866E1,0E0,5.8004417E1,4.384495E0,0E0,0E0,0E0,0E0,0E0,0E0,0E0,0E0,0E0,0E0,0E0,0E0,0E0,0E0,0E0,0E0,0E0,0E0,0E0,0E0,0E0,0E0,0E0,0E0,0E0,0E0,0E0,0E0,0E0,0E0,0E0,0E0],"parents":[2147483647,0,0,1,1,2,2,3,3,4,4,5,5,6,6,7,7,8,8,9,9,10,10,11,11,12,12,15,15,16,16,18,18,19,19,20,20,21,21,22,22,24,24,25,25,26,26,27,27,28,28,29,29,30,30,31,31,34,34,35,35,36,36,38,38,39,39,40,40,41,41,42,42,43,43,45,45,46,46],"right_children":[2,4,6,8,10,12,14,16,18,20,22,24,26,-1,-1,28,30,-1,32,34,36,38,40,-1,42,44,46,48,50,52,54,56,-1,-1,58,60,62,-1,64,66,68,70,72,74,-1,76,78,-1,-1,-1,-1,-1,-1,-1,-1,-1,-1,-1,-1,-1,-1,-1,-1,-1,-1,-1,-1,-1,-1,-1,-1,-1,-1,-1,-1,-1,-1,-1,-1],"split_conditions":[1.066E3,7.9297E2,1.6E1,7.756E2,6.71E2,1.098E3,1.147E3,7E0,8.357E2,1.9E1,7.43E2,5.23E2,4.95E0,1.3137399E-1,-3.176495E-2,8.14E0,4.2E0,-3.20099E-2,5.1514E1,1.024E3,9.45E2,1.28E2,7.443E2,1.6909781E-1,3.426E2,4.8E0,6.12E2,1.166E2,1.1332508E1,7.37E2,5.9E2,7E0,-2.1802807E-2,-3.501084E-2,2.704E2,2.325E1,1.9E0,7.907887E-2,4E0,8.46E2,7.2E-1,7.3353E2,1.092E3,3.125E2,1.7066756E-1,1.203E3,7.04E2,2.3144387E-2,-3.1939458E-2,1.1110961E-1,1.2644603E-2,-5.1386156E-3,5.4279983E-2,9.4120875E-2,-3.0394409E-2,1.3750163E-2,8.695755E-2,7.923825E-2,-2.5992757E-2,6.692401E-2,-2.9856056E-2,1.1538827E-1,5.0150465E-2,-4.6347313E-2,-3.231442E-2,-1.7777255E-2,1.2957373E-1,1.5113468E-2,-2.6190614E-2,8.213859E-2,-4.004359E-2,-5.2814413E-2,6.4982705E-2,3.8228422E-2,-2.547036E-2,1.0042633E-1,-3.1728484E-2,-6.531377E-2,-2.3792814E-2],"split_indices":[2,2,7,2,3,2,2,5,3,5,3,3,7,0,0,7,7,0,5,2,2,0,3,0,0,7,3,4,7,2,2,5,0,0,0,5,7,0,7,2,7,3,2,0,0,2,3,0,0,0,0,0,0,0,0,0,0,0,0,0,0,0,0,0,0,0,0,0,0,0,0,0,0,0,0,0,0,0,0],"split_type":[0,0,0,0,0,0,0,0,0,0,0,0,0,0,0,0,0,0,0,0,0,0,0,0,0,0,0,0,0,0,0,0,0,0,0,0,0,0,0,0,0,0,0,0,0,0,0,0,0,0,0,0,0,0,0,0,0,0,0,0,0,0,0,0,0,0,0,0,0,0,0,0,0,0,0,0,0,0,0],"sum_hessian":[1.028E3,7.1E2,3.18E2,2.65E2,4.45E2,3E2,1.8E1,2.36E2,2.9E1,6.5E1,3.8E2,4.6E1,2.54E2,1.7E1,1E0,7E1,1.66E2,7E0,2.2E1,4.9E1,1.6E1,1.08E2,2.72E2,8E0,3.8E1,1.77E2,7.7E1,3.8E1,3.2E1,7.4E1,9.2E1,2.1E1,1E0,2.7E1,2.2E1,5E0,1.1E1,1E0,1.07E2,4E0,2.68E2,3E1,8E0,1.67E2,1E1,3.7E1,4E1,1.5E1,2.3E1,1.4E1,1.8E1,5.5E1,1.9E1,3E0,8.9E1,3E0,1.8E1,9E0,1.3E1,1E0,4E0,6E0,5E0,2.4E1,8.3E1,1E0,3E0,3.3E1,2.35E2,2.7E1,3E0,7E0,1E0,1.05E2,6.2E1,1.1E1,2.6E1,3E1,1E1],"tree_param":{"num_deleted":"0","num_feature":"8","num_nodes":"79","size_leaf_vector":"1"}},{"base_weights":[8.5692685E-3,-2.1262959E-1,5.3334635E-1,-3.329695E-1,2.3650931E-1,4.1296908E-1,2.2340932E0,8.8195056E-1,-3.561154E-1,-3.044298E-1,7.539126E-1,-1.8030988E-1,6.199313E-1,2.3945913E0,-2.038424E-2,-3.3198234E-2,9.300914E-2,3.1626057E-2,-4.1033763E-1,7.4037397E-1,-5.5229473E-1,1.0415112E0,-3.2787997E-2,1.4436148E-1,-4.40666E-1,1.841037E-1,1.0664577E0,1.5763259E-1,1.6896684E0,-5.1571035E-1,6.97704E-1,-4.3569353E-1,4.2840698E-1,-2.8544938E-2,1.115767E0,-6.446648E-1,-7.5038793E-3,1.4655112E0,4.500107E-1,1.2713864E0,-7.1410626E-1,3.017697E-2,1.2113625E-1,1.4860548E0,-8.441895E-2,9.8662816E-2,-3.5744946E-2,2.0152617E-2,-2.8813327E-2,8.66411E-2,3.6491987E-3,-2.570327E-2,-7.0108385E-3,-2.108678E-2,7.301233E-2,7.000725E-2,2.1880453E-2,-2.124369E-2,-3.6411326E-2,3.258308E-2,-2.777789E-2,7.975371E-2,-1.7271013E-3,-2.944758E-2,6.654885E-2,7.165403E-2,3.3528756E-2,-2.9885022E-2,-6.601312E-2,4.68186E-2,-1.1375512E-2,4.915388E-2,1.0813226E-1,5.001783E-2,-5.8178324E-2],"categories":[],"categories_nodes":[],"categories_segments":[],"categories_sizes":[],"default_left":[0,0,0,0,0,0,0,0,0,0,0,0,0,0,0,0,0,0,0,0,0,0,0,0,0,0,0,0,0,0,0,0,0,0,0,0,0,0,0,0,0,0,0,0,0,0,0,0,0,0,0,0,0,0,0,0,0,0,0,0,0,0,0,0,0,0,0,0,0,0,0,0,0,0,0],"id":18,"left_children":[1,3,5,7,9,11,13,15,17,19,21,23,25,27,-1,-1,-1,29,31,33,35,37,-1,-1,39,41,43,-1,45,47,49,51,53,-1,55,57,59,61,63,65,67,69,-1,71,73,-1,-1,-1,-1,-1,-1,-1,-1,-1,-1,-1,-1,-1,-1,-1,-1,-1,-1,-1,-1,-1,-1,-1,-1,-1,-1,-1,-1,-1,-1],"loss_changes":[1.19791985E2,3.9318558E1,6.1725166E1,1.642709E1,4.3331604E1,3.535146E1,9.456238E0,1.7869999E1,1.1849609E1,2.0090643E1,3.271114E1,6.1171253E1,4.1255287E1,4.8261795E0,0E0,0E0,0E0,2.5879623E1,1.0692612E1,8.020631E0,3.1151485E0,1.5893059E1,0E0,0E0,3.3677994E1,3.7486507E1,5.08304E1,0E0,9.593552E0,2.4020977E0,2.0566616E1,1.104332E1,1.3773998E1,0E0,1.7015219E0,6.6400146E-1,3.9746177E0,7.440445E0,2.7327312E1,1.048851E-2,3.515047E0,2.4265062E1,0E0,2.407779E1,3.5112335E1,0E0,0E0,0E0,0E0,0E0,0E0,0E0,0E0,0E0,0E0,0E0,0E0,0E0,0E0,0E0,0E0,0E0,0E0,0E0,0E0,0E0,0E0,0E0,0E0,0E0,0E0,0E0,0E0,0E0,0E0],"parents":[2147483647,0,0,1,1,2,2,3,3,4,4,5,5,6,6,7,7,8,8,9,9,10,10,11,11,12,12,13,13,17,17,18,18,19,19,20,20,21,21,24,24,25,25,26,26,28,28,29,29,30,30,31,31,32,32,34,34,35,35,36,36,37,37,38,38,39,39,40,40,41,41,43,43,44,44],"right_children":[2,4,6,8,10,12,14,16,18,20,22,24,26,28,-1,-1,-1,30,32,34,36,38,-1,-1,40,42,44,-1,46,48,50,52,54,-1,56,58,60,62,64,66,68,70,-1,72,74,-1,-1,-1,-1,-1,-1,-1,-1,-1,-1,-1,-1,-1,-1,-1,-1,-1,-1,-1,-1,-1,-1,-1,-1,-1,-1,-1,-1,-1,-1],"split_conditions":[1.066E3,9.059E2,8.75E1,5.9E2,2.5757E2,5.98E2,1.317E3,2.6E0,6.71E2,9.32E2,1.034E3,1.103E3,6.75E1,5.18E2,-2.038424E-2,-3.3198234E-2,9.300914E-2,1.002E3,3E2,6.553E2,3.6E1,4.2E0,-3.2787997E-2,1.4436148E-1,4.377E2,1.6E1,4.95E0,1.5763259E-1,4.165E2,1.397E2,2.704E2,4.05E2,6E0,-2.8544938E-2,7.13E1,9.35E2,9.8E2,1.166E2,1.01E1,4.125E1,1.268E3,6.52E2,1.2113625E-1,2.016E0,2.52E2,9.8662816E-2,-3.5744946E-2,2.0152617E-2,-2.8813327E-2,8.66411E-2,3.6491987E-3,-2.570327E-2,-7.0108385E-3,-2.108678E-2,7.301233E-2,7.000725E-2,2.1880453E-2,-2.124369E-2,-3.6411326E-2,3.258308E-2,-2.777789E-2,7.975371E-2,-1.7271013E-3,-2.944758E-2,6.654885E-2,7.165403E-2,3.3528756E-2,-2.9885022E-2,-6.601312E-2,4.68186E-2,-1.1375512E-2,4.915388E-2,1.0813226E-1,5.001783E-2,-5.8178324E-2],"split_indices":[2,3,5,2,0,3,2,7,3,3,3,2,4,3,0,0,0,2,4,2,5,7,0,0,3,7,7,0,0,0,0,0,7,0,4,3,3,4,7,4,2,3,0,7,0,0,0,0,0,0,0,0,0,0,0,0,0,0,0,0,0,0,0,0,0,0,0,0,0,0,0,0,0,0,0],"split_type":[0,0,0,0,0,0,0,0,0,0,0,0,0,0,0,0,0,0,0,0,0,0,0,0,0,0,0,0,0,0,0,0,0,0,0,0,0,0,0,0,0,0,0,0,0,0,0,0,0,0,0,0,0,0,0,0,0,0,0,0,0,0,0,0,0,0,0,0,0,0,0,0,0,0,0],"sum_hessian":[1.03E3,7.25E2,3.05E2,5.72E2,1.53E2,2.86E2,1.9E1,1E1,5.62E2,7.5E1,7.8E1,7.4E1,2.12E2,1.8E1,1E0,4E0,6E0,6.9E1,4.93E2,1.4E1,6.1E1,6.5E1,1.3E1,5E0,6.9E1,1.08E2,1.04E2,7E0,1.1E1,3.8E1,3.1E1,4.79E2,1.4E1,3E0,1.1E1,5.2E1,9E0,3.7E1,2.8E1,9E0,6E1,1.02E2,6E0,7.6E1,2.8E1,1E1,1E0,2E0,3.6E1,1.1E1,2E1,3.78E2,1.01E2,8E0,6E0,7E0,4E0,1.6E1,3.6E1,4E0,5E0,3.4E1,3E0,1.3E1,1.5E1,6E0,3E0,5.2E1,8E0,2.2E1,8E1,4.5E1,3.1E1,1.4E1,1.4E1],"tree_param":{"num_deleted":"0","num_feature":"8","num_nodes":"75","size_leaf_vector":"1"}},{"base_weights":[-1.0364674E-2,-2.080545E-1,4.4928128E-1,-4.1687047E-1,2.152227E-2,9.1583836E-1,-2.377619E-1,1.877563E-2,-4.8475185E-1,-2.5969404E-1,3.8061458E-1,8.089307E-1,1.4820556E-1,-4.3129632E-1,6.7293143E-1,-2.4325201E-1,1.3268276E0,-5.452327E-1,-1.21847995E-1,-3.2712138E-1,1.3825953E0,-2.981102E-1,6.113764E-1,1.5311832E0,5.657898E-1,-5.020992E-1,7.587012E-2,1.0235382E0,-2.4552217E-2,-6.465544E-1,6.959572E-1,1.9529177E0,-2.8816253E-2,-2.5898674E-1,-6.4211994E-1,-3.40478E-2,7.229064E-1,4.226034E-1,-4.373968E-1,1.0321956E-1,-2.2093069E-2,-3.9715182E-2,7.935456E-1,5.414785E-2,9.901532E-1,1.3078552E0,1.7466657E-1,-1.09263E0,7.94115E-1,-6.029685E-1,6.296292E-1,-4.2494085E-2,1.3108333E0,-1.0913081E-2,-3.7887298E-2,1.14000104E-1,-3.8853835E-2,1.2051063E-1,5.036967E-2,-2.461981E-2,1.2341934E-1,-3.2860335E-2,-2.0764453E-2,8.699309E-2,-2.3401758E-2,6.984511E-2,-1.60028E-2,-3.7936114E-2,-1.8500373E-2,8.549858E-2,-2.8030664E-2,-1.4409862E-2,9.00949E-2,5.4721635E-2,-1.4359404E-2,9.0334795E-2,2.7118107E-2,-6.899773E-2,9.308163E-3,1.8119663E-2,7.7069595E-2,-5.002865E-2,-2.0353956E-2,7.867728E-2,-2.2010654E-2,7.0737E-2,3.2271426E-2],"categories":[],"categories_nodes":[],"categories_segments":[],"categories_sizes":[],"default_left":[0,0,0,0,0,0,0,0,0,0,0,0,0,0,0,0,0,0,0,0,0,0,0,0,0,0,0,0,0,0,0,0,0,0,0,0,0,0,0,0,0,0,0,0,0,0,0,0,0,0,0,0,0,0,0,0,0,0,0,0,0,0,0,0,0,0,0,0,0,0,0,0,0,0,0,0,0,0,0,0,0,0,0,0,0,0,0],"id":19,"left_children":[1,3,5,7,9,11,13,15,17,19,21,23,-1,25,27,29,31,33,35,37,39,41,43,45,47,49,-1,51,-1,53,55,57,-1,59,61,-1,63,65,67,-1,-1,-1,69,71,73,75,-1,77,79,81,83,-1,85,-1,-1,-1,-1,-1,-1,-1,-1,-1,-1,-1,-1,-1,-1,-1,-1,-1,-1,-1,-1,-1,-1,-1,-1,-1,-1,-1,-1,-1,-1,-1,-1,-1,-1],"loss_changes":[9.577677E1,3.5340233E1,1.01830475E2,1.1423988E1,3.5644722E1,3.8988724E1,2.3026548E1,1.848828E1,7.2644424E0,2.2377842E1,2.4458944E1,3.0918922E1,0E0,1.5525051E1,9.888854E0,1.7495314E1,1.18494215E1,7.765503E0,2.3635405E1,1.5976006E1,1.0863431E1,2.229721E1,2.4429947E1,1.5150345E1,5.2743958E1,1.2251942E1,0E0,1.0802092E1,0E0,1.3585348E0,3.4438663E1,5.9865E-1,0E0,4.8323437E1,4.5598602E-1,0E0,2.5037006E1,1.853639E1,3.3354702E0,0E0,0E0,0E0,1.7091454E1,2.923932E1,9.505157E0,1.5058205E1,0E0,6.5031834E0,3.8477913E1,7.0697937E0,9.78127E0,0E0,1.9312477E-1,0E0,0E0,0E0,0E0,0E0,0E0,0E0,0E0,0E0,0E0,0E0,0E0,0E0,0E0,0E0,0E0,0E0,0E0,0E0,0E0,0E0,0E0,0E0,0E0,0E0,0E0,0E0,0E0,0E0,0E0,0E0,0E0,0E0,0E0],"parents":[2147483647,0,0,1,1,2,2,3,3,4,4,5,5,6,6,7,7,8,8,9,9,10,10,11,11,13,13,14,14,15,15,16,16,17,17,18,18,19,19,20,20,21,21,22,22,23,23,24,24,25,25,27,27,29,29,30,30,31,31,33,33,34,34,36,36,37,37,38,38,42,42,43,43,44,44,45,45,47,47,48,48,49,49,50,50,52,52],"right_children":[2,4,6,8,10,12,14,16,18,20,22,24,-1,26,28,30,32,34,36,38,40,42,44,46,48,50,-1,52,-1,54,56,58,-1,60,62,-1,64,66,68,-1,-1,-1,70,72,74,76,-1,78,80,82,84,-1,86,-1,-1,-1,-1,-1,-1,-1,-1,-1,-1,-1,-1,-1,-1,-1,-1,-1,-1,-1,-1,-1,-1,-1,-1,-1,-1,-1,-1,-1,-1,-1,-1,-1,-1],"split_conditions":[1.066E3,1.855E2,1.72E2,7.2E-1,3.15E2,4.792E2,1.42E2,1.9E1,2.4E2,1.002E3,3.72E0,1.571E0,1.4820556E-1,1.5E1,3.62E2,1.086E2,4.1208E1,4.94E0,2.9E0,7.01E2,1.041E3,1.1E1,2E2,1.1875E0,2.25E0,1.25E2,7.587012E-2,1.43E2,-2.4552217E-2,2.3696E2,1.166E2,1.5561E2,-2.8816253E-2,4.45E0,1.749E2,-3.40478E-2,1.703E2,9.7E1,7.4078E2,1.0321956E-1,-2.2093069E-2,-3.9715182E-2,1.84E0,4.792E2,1.55E2,1.134E3,1.7466657E-1,1.1E1,1.151E3,2.853E2,3.125E2,-4.2494085E-2,2.3696E2,-1.0913081E-2,-3.7887298E-2,1.14000104E-1,-3.8853835E-2,1.2051063E-1,5.036967E-2,-2.461981E-2,1.2341934E-1,-3.2860335E-2,-2.0764453E-2,8.699309E-2,-2.3401758E-2,6.984511E-2,-1.60028E-2,-3.7936114E-2,-1.8500373E-2,8.549858E-2,-2.8030664E-2,-1.4409862E-2,9.00949E-2,5.4721635E-2,-1.4359404E-2,9.0334795E-2,2.7118107E-2,-6.899773E-2,9.308163E-3,1.8119663E-2,7.7069595E-2,-5.002865E-2,-2.0353956E-2,7.867728E-2,-2.2010654E-2,7.0737E-2,3.2271426E-2],"split_indices":[2,1,1,7,0,0,6,5,4,2,7,7,0,7,0,4,5,7,7,2,2,6,1,7,7,4,0,0,0,0,4,1,0,7,4,0,1,4,2,0,0,0,7,0,4,2,0,6,2,0,0,0,0,0,0,0,0,0,0,0,0,0,0,0,0,0,0,0,0,0,0,0,0,0,0,0,0,0,0,0,0,0,0,0,0,0,0],"split_type":[0,0,0,0,0,0,0,0,0,0,0,0,0,0,0,0,0,0,0,0,0,0,0,0,0,0,0,0,0,0,0,0,0,0,0,0,0,0,0,0,0,0,0,0,0,0,0,0,0,0,0,0,0,0,0,0,0,0,0,0,0,0,0,0,0,0,0,0,0,0,0,0,0,0,0,0,0,0,0,0,0,0,0,0,0,0,0],"sum_hessian":[1.052E3,7.36E2,3.16E2,3.85E2,3.51E2,1.88E2,1.28E2,5.2E1,3.33E2,1.97E2,1.54E2,1.8E2,8E0,1.06E2,2.2E1,4.4E1,8E0,2.85E2,4.8E1,1.9E2,7E0,3.9E1,1.15E2,4.4E1,1.36E2,1.03E2,3E0,1.7E1,5E0,3.1E1,1.3E1,6E0,2E0,7.3E1,2.12E2,2.9E1,1.9E1,2.4E1,1.66E2,5E0,2E0,2.7E1,1.2E1,4.7E1,6.8E1,4.1E1,3E0,1.6E1,1.2E2,9.5E1,8E0,2E0,1.5E1,7E0,2.4E1,6E0,7E0,3E0,3E0,6.8E1,5E0,1.97E2,1.5E1,1E1,9E0,1E1,1.4E1,2.7E1,1.39E2,7E0,5E0,4E1,7E0,6.3E1,5E0,2.4E1,1.7E1,1.3E1,3E0,7.7E1,4.3E1,3E1,6.5E1,4E0,4E0,1.2E1,3E0],"tree_param":{"num_deleted":"0","num_feature":"8","num_nodes":"87","size_leaf_vector":"1"}},{"base_weights":[4.684908E-3,-2.101781E-1,4.3689573E-1,-4.0904292E-1,1.43420305E-2,8.407224E-1,-1.5754259E-1,2.4523558E-2,-4.7592744E-1,-2.5018793E-1,5.734974E-1,9.990205E-1,-5.2144045E-1,-2.8954265E-1,7.937063E-2,1.1809448E-1,-1.7492299E-1,-5.2717036E-1,-1.6146572E-1,-3.1359237E-1,7.932825E-1,3.9456014E-2,1.2068496E0,1.759623E0,6.8605876E-1,7.857205E-2,-4.046503E-2,-4.5548475E-1,1.0241085E0,-5.185011E-1,6.719755E-1,-3.1275845E-1,-6.0830003E-1,-4.5564368E-1,1.0985596E0,-4.282327E-1,3.1427342E-1,1.5677526E0,-3.7971E-2,6.315272E-1,-3.8366955E-2,2.2164898E0,9.8041123E-1,9.8259985E-1,2.590585E0,-7.469477E-2,8.577131E-1,-5.6243837E-1,3.7156233E-1,-4.1077618E-2,1.3712527E0,-5.1751982E-2,-2.8115872E-3,1.09114386E-1,-3.6677238E-2,-3.0326039E-2,1.14837825E-1,-2.8606001E-2,-3.6600325E-2,-3.269842E-2,1.4278558E-3,-2.1579975E-2,6.718897E-2,-2.3614919E-2,1.7965036E-2,1.1287605E-1,-1.5803123E-3,1.1218005E-1,-2.659054E-2,5.854959E-2,-3.0144898E-2,3.134201E-2,1.177017E-1,6.0321815E-2,-2.6957039E-2,-5.9380114E-2,6.393424E-2,1.5419035E-1,4.408784E-2,2.8460825E-2,1.07815064E-1,-3.445506E-2,6.315641E-3,6.3324146E-2,-1.3316802E-2,7.670692E-2,3.1061247E-2],"categories":[],"categories_nodes":[],"categories_segments":[],"categories_sizes":[],"default_left":[0,0,0,0,0,0,0,0,0,0,0,0,0,0,0,0,0,0,0,0,0,0,0,0,0,0,0,0,0,0,0,0,0,0,0,0,0,0,0,0,0,0,0,0,0,0,0,0,0,0,0,0,0,0,0,0,0,0,0,0,0,0,0,0,0,0,0,0,0,0,0,0,0,0,0,0,0,0,0,0,0,0,0,0,0,0,0],"id":20,"left_children":[1,3,5,7,9,11,13,15,17,19,21,23,25,27,-1,-1,29,31,33,35,37,39,41,43,45,-1,-1,47,49,51,53,55,57,59,61,63,65,67,-1,69,-1,71,73,75,77,-1,79,81,83,-1,85,-1,-1,-1,-1,-1,-1,-1,-1,-1,-1,-1,-1,-1,-1,-1,-1,-1,-1,-1,-1,-1,-1,-1,-1,-1,-1,-1,-1,-1,-1,-1,-1,-1,-1,-1,-1],"loss_changes":[9.620825E1,3.0903078E1,8.2709656E1,1.0654263E1,4.8363235E1,4.472464E1,3.2706413E1,2.3722128E1,5.0391083E0,1.4936433E1,3.546719E1,4.2592056E1,1.45258255E1,2.902316E1,0E0,0E0,1.4024282E1,4.558632E0,1.7551449E1,1.5250116E1,1.6823364E1,2.8190039E1,8.800751E0,3.167537E1,5.0675533E1,0E0,0E0,1.0558294E1,1.0737211E1,8.060315E0,3.1319649E1,6.041947E1,4.629135E-1,3.6677766E0,3.9570026E0,6.3468704E0,2.2251633E1,1.39640465E1,0E0,2.334756E1,0E0,2.7357864E-1,1.4732166E1,2.0152933E1,1.8351608E1,0E0,4.4853104E1,9.159916E0,8.329465E0,0E0,6.351509E-1,0E0,0E0,0E0,0E0,0E0,0E0,0E0,0E0,0E0,0E0,0E0,0E0,0E0,0E0,0E0,0E0,0E0,0E0,0E0,0E0,0E0,0E0,0E0,0E0,0E0,0E0,0E0,0E0,0E0,0E0,0E0,0E0,0E0,0E0,0E0,0E0],"parents":[2147483647,0,0,1,1,2,2,3,3,4,4,5,5,6,6,7,7,8,8,9,9,10,10,11,11,12,12,13,13,16,16,17,17,18,18,19,19,20,20,21,21,22,22,23,23,24,24,27,27,28,28,29,29,30,30,31,31,32,32,33,33,34,34,35,35,36,36,37,37,39,39,41,41,42,42,43,43,44,44,46,46,47,47,48,48,50,50],"right_children":[2,4,6,8,10,12,14,16,18,20,22,24,26,28,-1,-1,30,32,34,36,38,40,42,44,46,-1,-1,48,50,52,54,56,58,60,62,64,66,68,-1,70,-1,72,74,76,78,-1,80,82,84,-1,86,-1,-1,-1,-1,-1,-1,-1,-1,-1,-1,-1,-1,-1,-1,-1,-1,-1,-1,-1,-1,-1,-1,-1,-1,-1,-1,-1,-1,-1,-1,-1,-1,-1,-1,-1,-1],"split_conditions":[1.057E3,1.855E2,1.72E2,7.2E-1,8.76E2,7.719E2,1.5E1,6.45E2,2.4E2,1.002E3,7.37E2,1.1055E3,7.2E-1,1.75E2,7.937063E-2,1.1809448E-1,1.086E2,4.94E0,1.1333141E1,4.3E2,1.041E3,7.01E2,1.9E2,8.13E0,1.115E3,7.857205E-2,-4.046503E-2,1.23E2,1.779E2,7.65E2,1.166E2,4.45E0,1.8545E2,2.9E0,1.4E2,1.1332983E1,4.41E2,2.04E2,-3.7971E-2,9.93E2,-3.8366955E-2,1.8144E2,7.87E2,1.069E3,1.5216E2,-7.469477E-2,7.04E2,7.08E2,1.851E2,-4.1077618E-2,3.9E0,-5.1751982E-2,-2.8115872E-3,1.09114386E-1,-3.6677238E-2,-3.0326039E-2,1.14837825E-1,-2.8606001E-2,-3.6600325E-2,-3.269842E-2,1.4278558E-3,-2.1579975E-2,6.718897E-2,-2.3614919E-2,1.7965036E-2,1.1287605E-1,-1.5803123E-3,1.1218005E-1,-2.659054E-2,5.854959E-2,-3.0144898E-2,3.134201E-2,1.177017E-1,6.0321815E-2,-2.6957039E-2,-5.9380114E-2,6.393424E-2,1.5419035E-1,4.408784E-2,2.8460825E-2,1.07815064E-1,-3.445506E-2,6.315641E-3,6.3324146E-2,-1.3316802E-2,7.670692E-2,3.1061247E-2],"split_indices":[2,1,1,7,3,3,7,3,4,2,2,2,7,6,0,0,4,7,7,0,2,2,1,7,2,0,0,4,1,3,4,7,1,7,1,7,0,1,0,3,0,0,2,2,1,0,3,3,1,0,7,0,0,0,0,0,0,0,0,0,0,0,0,0,0,0,0,0,0,0,0,0,0,0,0,0,0,0,0,0,0,0,0,0,0,0,0],"split_type":[0,0,0,0,0,0,0,0,0,0,0,0,0,0,0,0,0,0,0,0,0,0,0,0,0,0,0,0,0,0,0,0,0,0,0,0,0,0,0,0,0,0,0,0,0,0,0,0,0,0,0,0,0,0,0,0,0,0,0,0,0,0,0,0,0,0,0,0,0,0,0,0,0,0,0,0,0,0,0,0,0,0,0,0,0,0,0],"sum_hessian":[1.034E3,6.91E2,3.43E2,3.66E2,3.25E2,2.04E2,1.39E2,4.9E1,3.17E2,2.21E2,1.04E2,1.83E2,2.1E1,1.3E2,9E0,3E0,4.6E1,2.72E2,4.5E1,2.09E2,1.2E1,5.7E1,4.7E1,5.2E1,1.31E2,2E0,1.9E1,1.16E2,1.4E1,3.3E1,1.3E1,7.6E1,1.96E2,3.7E1,8E0,1.77E2,3.2E1,8E0,4E0,3.3E1,2.4E1,7E0,4E1,2.8E1,2.4E1,9E0,1.22E2,1.03E2,1.3E1,2E0,1.2E1,1.5E1,1.8E1,6E0,7E0,6.9E1,7E0,1.56E2,4E1,2.6E1,1.1E1,1E0,7E0,1.68E2,9E0,4E0,2.8E1,6E0,2E0,2.3E1,1E1,1E0,6E0,3.5E1,5E0,3E0,2.5E1,1.8E1,6E0,1.01E2,2.1E1,8.7E1,1.6E1,5E0,8E0,9E0,3E0],"tree_param":{"num_deleted":"0","num_feature":"8","num_nodes":"87","size_leaf_vector":"1"}},{"base_weights":[2.7449833E-2,-1.7619461E-1,4.8370355E-1,-2.834359E-1,2.1097524E-1,8.2395786E-1,-1.5367149E-1,-3.2127982E-1,2.317047E-1,-7.9350404E-2,1.083936E0,9.7639054E-1,-3.15801E-1,-3.4745768E-1,1.0670967E0,2.5380942E-1,-3.451765E-1,4.8407805E-1,-3.4568388E-2,-5.3356063E-1,1.6888238E-1,1.1807663E0,-2.519472E-2,4.806958E-1,1.3856046E0,-6.4685595E-1,8.333576E-2,-4.1351563E-1,6.706561E-2,-4.108351E-2,1.3956113E0,-3.921929E-1,1.4333376E0,-3.8571995E-1,2.401357E-2,-4.7575668E-2,1.1710311E0,-2.8807476E-2,-9.46553E-2,9.378802E-1,-9.026493E-2,3.332862E-1,1.2990729E0,-2.1351686E-1,1.9511267E0,8.6920273E-1,2.24605E0,-4.0329482E-2,8.950319E-2,-5.27112E-1,6.2748414E-1,1.5974791E0,-3.071679E-2,6.7884037E-3,-3.796261E-2,8.747742E-2,-1.9503465E-2,-1.2840753E-3,-2.0748286E-2,-1.5933739E-2,2.0343198E-2,-1.2326324E-2,8.833847E-2,1.17838494E-1,-6.43459E-4,-2.0997388E-2,3.0162865E-2,-2.8501317E-2,6.187562E-2,2.4483947E-2,-2.8980164E-2,3.5327703E-3,1.8584063E-2,6.904084E-3,6.6551946E-2,3.384374E-2,-2.9063672E-2,1.1825895E-1,-5.6224126E-2,1.0800149E-1,2.4006665E-2,1.1754995E-1,-4.0926557E-2,4.1227628E-2,-3.3769026E-2,-1.93517E-2,-4.777987E-2,-3.9708365E-2,5.4108392E-2,4.0589917E-2,8.760018E-2],"categories":[],"categories_nodes":[],"categories_segments":[],"categories_sizes":[],"default_left":[0,0,0,0,0,0,0,0,0,0,0,0,0,0,0,0,0,0,0,0,0,0,0,0,0,0,0,0,0,0,0,0,0,0,0,0,0,0,0,0,0,0,0,0,0,0,0,0,0,0,0,0,0,0,0,0,0,0,0,0,0,0,0,0,0,0,0,0,0,0,0,0,0,0,0,0,0,0,0,0,0,0,0,0,0,0,0,0,0,0,0],"id":21,"left_children":[1,3,5,7,9,11,13,15,17,19,21,23,25,27,29,31,33,35,-1,37,39,41,-1,43,45,47,-1,49,-1,-1,51,53,55,57,59,61,63,-1,65,67,69,71,73,75,77,79,81,-1,83,85,87,89,-1,-1,-1,-1,-1,-1,-1,-1,-1,-1,-1,-1,-1,-1,-1,-1,-1,-1,-1,-1,-1,-1,-1,-1,-1,-1,-1,-1,-1,-1,-1,-1,-1,-1,-1,-1,-1,-1,-1],"loss_changes":[9.875941E1,3.0577435E1,7.125985E1,1.1303532E1,4.063687E1,3.7487946E1,2.757609E1,7.467449E0,9.653031E0,1.3732843E1,6.744995E0,3.767169E1,1.814249E1,1.17103195E1,1.1074532E1,1.7325659E1,7.732876E0,1.174279E1,0E0,7.492409E-1,1.5828072E1,3.3770065E0,0E0,8.922548E1,4.3814285E1,2.777484E0,0E0,1.1801376E1,0E0,0E0,6.661804E0,3.009977E0,5.2950935E0,4.885597E0,6.9519715E0,7.293898E0,1.968348E1,0E0,1.3884652E0,9.74176E0,1.7311146E1,3.424114E-2,1.0409088E0,2.0040293E1,3.8316566E1,3.2109512E1,1.4146088E1,0E0,3.3680232E0,4.912033E0,7.3234406E0,1.5601349E-1,0E0,0E0,0E0,0E0,0E0,0E0,0E0,0E0,0E0,0E0,0E0,0E0,0E0,0E0,0E0,0E0,0E0,0E0,0E0,0E0,0E0,0E0,0E0,0E0,0E0,0E0,0E0,0E0,0E0,0E0,0E0,0E0,0E0,0E0,0E0,0E0,0E0,0E0,0E0],"parents":[2147483647,0,0,1,1,2,2,3,3,4,4,5,5,6,6,7,7,8,8,9,9,10,10,11,11,12,12,13,13,14,14,15,15,16,16,17,17,19,19,20,20,21,21,23,23,24,24,25,25,27,27,30,30,31,31,32,32,33,33,34,34,35,35,36,36,38,38,39,39,40,40,41,41,42,42,43,43,44,44,45,45,46,46,48,48,49,49,50,50,51,51],"right_children":[2,4,6,8,10,12,14,16,18,20,22,24,26,28,30,32,34,36,-1,38,40,42,-1,44,46,48,-1,50,-1,-1,52,54,56,58,60,62,64,-1,66,68,70,72,74,76,78,80,82,-1,84,86,88,90,-1,-1,-1,-1,-1,-1,-1,-1,-1,-1,-1,-1,-1,-1,-1,-1,-1,-1,-1,-1,-1,-1,-1,-1,-1,-1,-1,-1,-1,-1,-1,-1,-1,-1,-1,-1,-1,-1,-1],"split_conditions":[1.066E3,9.059E2,1.74E2,4.792E2,1.988E2,7.719E2,7.1E2,6.3E2,2.2624E2,7E0,9.871E2,1.51E2,1.7346E2,7.3E1,4.52E1,7E0,2.26644E2,1.855E2,-3.4568388E-2,8.46E2,9.371E2,5.95E2,-2.519472E-2,6.7932E2,2.85E1,4.37E1,8.333576E-2,1.75E2,6.706561E-2,-4.108351E-2,2.156E2,2.704E2,4.335E2,1.397E2,2.2168E2,3.2E1,3.09084E1,-2.8807476E-2,2.45E2,6.21E2,1.5453E1,3.57E2,3.1E2,6.05E2,2.52E2,1.53E2,7.08E2,-4.0329482E-2,3.0651E2,6.556E2,1.779E2,1.59E2,-3.071679E-2,6.7884037E-3,-3.796261E-2,8.747742E-2,-1.9503465E-2,-1.2840753E-3,-2.0748286E-2,-1.5933739E-2,2.0343198E-2,-1.2326324E-2,8.833847E-2,1.17838494E-1,-6.43459E-4,-2.0997388E-2,3.0162865E-2,-2.8501317E-2,6.187562E-2,2.4483947E-2,-2.8980164E-2,3.5327703E-3,1.8584063E-2,6.904084E-3,6.6551946E-2,3.384374E-2,-2.9063672E-2,1.1825895E-1,-5.6224126E-2,1.0800149E-1,2.4006665E-2,1.1754995E-1,-4.0926557E-2,4.1227628E-2,-3.3769026E-2,-1.93517E-2,-4.777987E-2,-3.9708365E-2,5.4108392E-2,4.0589917E-2,8.760018E-2],"split_indices":[2,3,1,0,1,3,3,3,1,5,3,1,1,5,6,5,4,1,0,2,3,2,0,3,5,5,0,6,0,0,1,0,0,0,0,6,4,0,0,2,4,0,0,3,0,1,3,0,0,3,1,0,0,0,0,0,0,0,0,0,0,0,0,0,0,0,0,0,0,0,0,0,0,0,0,0,0,0,0,0,0,0,0,0,0,0,0,0,0,0,0],"split_type":[0,0,0,0,0,0,0,0,0,0,0,0,0,0,0,0,0,0,0,0,0,0,0,0,0,0,0,0,0,0,0,0,0,0,0,0,0,0,0,0,0,0,0,0,0,0,0,0,0,0,0,0,0,0,0,0,0,0,0,0,0,0,0,0,0,0,0,0,0,0,0,0,0,0,0,0,0,0,0,0,0,0,0,0,0,0,0,0,0,0,0],"sum_hessian":[1.061E3,7.34E2,3.27E2,5.75E2,1.59E2,2.13E2,1.14E2,5.36E2,3.9E1,1.2E2,3.9E1,1.88E2,2.5E1,9.9E1,1.5E1,2.1E1,5.15E2,3.1E1,8E0,4.2E1,7.8E1,3.7E1,2E0,8.6E1,1.02E2,2.2E1,3E0,9.6E1,3E0,2E0,1.3E1,1.4E1,7E0,4.64E2,5.1E1,1.8E1,1.3E1,3.8E1,4E0,1.9E1,5.9E1,5E0,3.2E1,5.9E1,2.7E1,6.5E1,3.7E1,1.8E1,4E0,8.7E1,9E0,1.2E1,1E0,6E0,8E0,6E0,1E0,3.5E1,4.29E2,2.7E1,2.4E1,1.7E1,1E0,6E0,7E0,3E0,1E0,3E0,1.6E1,2.7E1,3.2E1,1E0,4E0,1E0,3.1E1,1.7E1,4.2E1,2.4E1,3E0,1.4E1,5.1E1,3.6E1,1E0,2E0,2E0,6.7E1,2E1,2E0,7E0,3E0,9E0],"tree_param":{"num_deleted":"0","num_feature":"8","num_nodes":"91","size_leaf_vector":"1"}},{"base_weights":[4.791731E-3,-1.7739013E-1,4.1384795E-1,-3.44154E-1,1.8021476E-2,8.2497436E-1,-1.6658583E-1,2.4836014E-1,-3.9003617E-1,-2.1414243E-1,5.572845E-1,9.432606E-1,-5.2773494E-1,-2.4159615E-1,7.49452E-2,-3.7392133E-1,1.0430082E0,-4.1463414E-1,4.4373745E-1,5.9108925E-1,-3.0764782E-1,1.7950104E0,3.2325113E-1,1.8039938E0,6.850665E-1,3.9853375E-2,-3.8696293E-2,-4.2026892E-1,6.156616E-1,8.1435746E-1,-8.0218846E-1,1.1075564E-1,-3.4681626E-2,-2.4793683E-1,-5.1978546E-1,8.255433E-2,-2.4102295E-2,1.3020381E-1,-1.8164751E-1,-4.0107137E-1,4.8154992E-1,9.795346E-2,4.065333E-2,-1.9577803E-1,7.691435E-1,1.2996398E0,1.375763E-1,5.023768E-1,8.966125E-2,-5.143223E-1,4.6441773E-1,8.485294E-2,7.1596794E-2,-1.9015877E-2,6.040528E-2,-2.7359262E-2,-5.5037826E-2,-1.9706076E-2,1.1066878E-1,-2.8541053E-2,2.239413E-3,8.2172774E-2,-3.1328514E-2,-2.8108481E-2,-8.767781E-3,4.1993883E-2,-3.3684574E-2,3.4834404E-2,-3.4217075E-2,-3.807133E-2,5.0585043E-2,-4.812189E-2,7.095332E-2,-1.5537784E-3,5.050516E-2,-3.7382323E-2,-1.9847957E-2,5.1841944E-2,-2.149277E-2,-4.530671E-2,2.0405544E-2],"categories":[],"categories_nodes":[],"categories_segments":[],"categories_sizes":[],"default_left":[0,0,0,0,0,0,0,0,0,0,0,0,0,0,0,0,0,0,0,0,0,0,0,0,0,0,0,0,0,0,0,0,0,0,0,0,0,0,0,0,0,0,0,0,0,0,0,0,0,0,0,0,0,0,0,0,0,0,0,0,0,0,0,0,0,0,0,0,0,0,0,0,0,0,0,0,0,0,0,0,0],"id":22,"left_children":[1,3,5,7,9,11,13,15,17,19,21,23,25,27,-1,29,31,33,35,37,39,41,43,45,47,-1,-1,49,51,53,55,-1,-1,57,59,-1,-1,-1,61,63,65,-1,-1,67,69,71,-1,73,-1,75,77,79,-1,-1,-1,-1,-1,-1,-1,-1,-1,-1,-1,-1,-1,-1,-1,-1,-1,-1,-1,-1,-1,-1,-1,-1,-1,-1,-1,-1,-1],"loss_changes":[7.884383E1,2.3860323E1,7.793135E1,1.0835274E1,4.2436058E1,3.1059113E1,1.7352463E1,1.4730351E1,7.7108345E0,1.802641E1,2.8966011E1,3.78777E1,5.83534E0,2.0323835E1,0E0,9.304581E0,2.799829E1,6.128784E0,1.309108E1,3.9360744E1,1.5897554E1,9.846916E-1,2.0285093E1,1.5539673E1,2.6834663E1,0E0,0E0,9.308506E0,9.844062E0,2.8114688E0,3.8744736E-1,0E0,0E0,5.1245197E1,6.306881E0,0E0,0E0,0E0,1.6458307E1,6.8466454E0,1.0086782E1,0E0,0E0,1.8353851E1,1.8219131E1,8.930019E0,