tree
version=v4
num_class=1
num_tree_per_iteration=1
label_index=0
max_feature_idx=12
objective=regression
feature_names=Column_0 Column_1 Column_2 Column_3 Column_4 Column_5 Column_6 Column_7 Column_8 Column_9 Column_10 Column_11 Column_12
feature_infos=[19:720] [67.829999999999998:350.10000000000002] [504:1816] [0:1386] [0:420] [0:240] [0:440] [0:43] [-1:6100] [-1:4500] [-1:2800] none [0.1615:1.0594815531892008]
tree_sizes=2637 2724 2737 2731 2744 2743 2732 2746 2729 2733 2748 2742 2743 2740 2721 2732 2753 2705 2742 2757 2753 2747 2747 2739 2754 2755 2746 2761 2739 2748 2745 2746 2766 2743 2771 2741 2763 2767 2776 2769 2753 2746 2769 2770 2758 2761 2777 2774 2766 2765 2762 2766 2782 2758 2762 2774 2765 2791 2773 2738 2774 2777 2761 2788 2783 2768 2766 2768 2780 2791 2746 2795 2779 2792 2789 2784 2774 2783 2780 2777 2748 2788 2787 2783 2779 2782 2782 2753 2803 2777 2786 2785 2803 2775 2802 2777 2804 2799 2800 2783 2784 2801 2801 2786 2815 2779 2816 2798 2804 2793 2801 2778 2811 2764 2759 2784 2821 2783 2799 2791 2819 2793 2818 2804 2787 2805 2821 2793 2828 2805 2819 2781 2774 2806 2813 2789 2788 2800 2784 2817 2829 2777 2831 2790 2816 2824 2796 2783 2809 2840 2807 2813 2821 2802 2829 2779 2803 2794 2830 2826 2788 2825 2818 2803 2865 2835 2830 2826 2802 2825 2820 2821 2811 2837 2800 2826 2819 2807 2847 2823 2837 2829 2797 2820 2808 2821 2828 2829 2849 2800 2838 2854 2835 2840 2805 2816 2795 2848 2832 2830 2851 2839 2819 2777 2809 2819 2828 2803 2800 2849 2860 2820 2818 2817 2853 2819 2831 2840 2844 2849 2813 2872 2840 2821 2855 2853 2861 2852 2815 2853 2860 2866 2807 2841 2840 2838 2818 2824 2869 2865 2845 2829 2856 2841 2864 2877 2831 2853 2854 2846 2851 2815 2821 2831 2845 2876 2844 2864 2830 2854 2844 2854 2855 2847 2840 2867 2817 2824 2839 2865 2869 2848 2855 2846 2874 2836 2814 2842 2836 2867 2845 2871 2839 2855 2849 2837 2836 2826 2820 2852 2850 2835 2848 2858 2804 2836 2844 2844 2843 2865 2853 2821 2838 2829 2803 2852 2867 2788 2810 2827 2809 2819 2857 2867 2842 2851 2813 2831 2815 2864 2844 2801 2779 2832 2854 2841 2845 2862 2764 2830 2866 2848 2828 2851 2784 2817 2855 2811 2817 2836 2852 2817 2827 2798 2855 2836 2847 2830 2791 2808 2796 2850 2831 2857 2818 2836 2849 2849 2789 2798 2828 2856 2862 2841 2832 2820 2825 2829 2850 2836 2834 2831 2838 2825 2798 2850 2830 2804 2827 2866 2847 2809 2858 2835 2845 2821 2863 2837 2824 2857 2823 2813 2848 2819 2801 2829 2863 2776 2824 2793 2806 2776 2824 2784 2825 2811 2772 2794 2799 2821 2822 2828 2802 2823 2822 2818 2824 2838 2794 2798 2835 2770 2821 2853 2839 2805 2771 2812 2818 2751 2855 2836 2826 2833 2817 2753 2861 2849 2797 2841 2789 2846 2792 2842 2827 2841 2824 2783 2846 2834 2845 2830 2779 2844 2841 2866 2831 2877 2855 2855 2875 2847 2786 2865 2837 2810 2840 2852 2874 2822 2773 2823 2804 2849 2835 2822 2828 2843 2763 2757 2847 2845 2800 2782 2824 2817 2842 2827 2772 2859 2843 2833 2844 2795 2772 2788 2844 2812 2785 2849 2824 2862 2853 2859 2829 2808 2820 2834 2858 2836 2841 2844 2850 2836 2807 2843 2761 2847 2827 2844 2808 2786 2834 2758 2870 2854 2833 2856 2826 2878 2839 2834 2864 2886 2831 2857 2872 2881 2851 2836 2836 2853 2863 2858 2834 2845 2832 2820 2859 2863 2869 2815 2877 2804 2853 2836 2876 2845 2861 2882 2841 2849 2874 2825 2846 2850 2862 2797 2822 2861 2828 2834 2856 2860 2824 2858 2862 2863 2855 2835 2878 2845 2882 2857 2848 2837 2847 2830 2822 2824 2871 2809 2847 2851 2829 2900 2858 2849 2850 2841 2803 2845 2841 2789 2841 2872 2865 2836 2806 2804 2906 2841 2851 2838 2840 2844 2832 2846 2807 2820 2865 2869 2839 2833 2840 2874 2852 2789 2868 2863 2882 2880 2805 2837 2823 2865 2836 2830 2851 2861 2858 2887 2901 2912 2880 2843 2875 2806 2896 2782 2842 2875 2855 2831 2892 2809 2839 2839 2874 2826 2877 2855 2877 2880 2874 2810 2847 2848 2847 2880 2874 2858 2874 2855 2834 2851 2863 2854 2823 2819 2841 2841 2794 2809 2853 2861 2784 2823 2830 2833 2781 2817 2864 2878 2882 2805 2868 2877 2878 2856 2839 2773 2833 2855 2874 2868 2795 2835 2872 2796 2771 2820 2883 2837 2790 2776 2895 2837 2769 2835 2841 2788 2824 2828 2861 2830 2850 2835 2849 2883 2839 2780 2844 2764 2813 2799 2836 2805 2870 2871 2854 2847 2867 2804 2876 2815 2855 2833 2864 2858 2866 2856 2817 2808 2833 2802 2828 2846 2851 2850 2850 2815 2802 2853 2795 2797 2867 2835 2832 2790 2868 2871 2820 2830 2868 2862 2819 2816 2864 2822 2900 2867 2890 2835 2849 2856 2864 2848 2811 2899 2819 2853 2850 2848 2901 2867 2835 2813 2803 2877 2881 2873 2833 2872 2889 2792 2772 2857 2780 2820 2854 2881 2832 2841 2846 2842 2842 2816 2843 2755 2854 2848 2827 2868 2808 2904 2879 2856 2814 2834 2890 2882 2849 2852 2770 2868 2846 2864 2838 2853 2858 2838 2853 2811 2818 2883 2807 2871 2892 2847 2846 2861 2839 2853 2822 2856 2876 2873 2842 2867 2783 2819 2865 2827 2812 2833 2825 2844 2880 2878 2855 2837 2849 2827 2825 2800 2873 2854 2835 2845 2856 2832 2823 2872 2853 2826 2843 2873 2791 2861 2862 2839 2845 2814 2879 2830 2849 2860 2872 2873 2827 2869 2809 2843 2869 2814 2855 2783 2815 2827 2846 2896 2823 2861 2819 2833 2895 2871 2775 2804 2840 2810 2859 2843 2836 2904 2873 2796 2833 2802 2812 2862 2886 2826 2754 2856 2824 2852 2806 2908 2901 2838 2808 2841 2810 2869 2896 2870 2826 2833 2846 2815 2858 2860 2868 2830 2844 2855 2842 2860 2850 2871 2841 2837 2816 2816 2898 2864 2828 2841 2828 2876 2800 2911 2857 2869 2797 2839 2884 2908 2837 2774 2849 2863 2834 2852 2825 2838 2820 2841 2886 2849 2827 2890 2863 2798 2789 2840 2859 2857

Tree=0
num_leaves=31
num_cat=0
split_feature=2 8 7 8 7 1 7 1 8 0 2 7 7 2 3 2 7 1 0 1 12 12 1 12 4 12 3 3 3 7
split_gain=782.497 634.004 418.9 303.589 386.586 295.861 270.063 249.572 196.504 138.508 117.155 107.651 157.513 173.852 159.586 91.969 64.8205 81.6112 52.7307 48.0775 36.7995 34.3985 32.5434 32.3273 24.4534 22.7549 19.6143 14.6171 10.4005 6.71689
threshold=1065.9000000000003 225.00000000000003 16.975000000000005 1.0000000180025095e-35 9.668000000000001 162.05000000000004 1.5896875000000004 157.75000000000003 492.50000000000006 237.87500000000003 1202.2500000000002 4.9600000000000009 3.7050000000000005 1006.6500000000001 864.50000000000011 1125.5000000000002 16.450000000000006 164.90000000000003 279.90000000000003 208.68000000000004 0.41989010989010994 0.4235091430131005 181.85000000000002 0.38954342874121034 75.800000000000011 0.42198065821807779 675.50000000000011 743.30000000000007 646.50000000000011 2.2980000000000005
decision_type=2 2 2 2 2 2 2 2 2 2 2 2 2 2 2 2 2 2 2 2 2 2 2 2 2 2 2 2 2 2
left_child=3 2 5 11 8 6 23 9 -5 -8 15 12 13 27 25 22 19 -18 26 -13 29 -21 -7 -2 -17 -14 -15 -1 -11 -10
right_child=1 -3 -4 4 -6 10 7 -9 20 28 -12 16 14 18 -16 24 17 -19 -20 21 -22 -23 -24 -25 -26 -27 -28 -29 -30 -31
leaf_value=0.30479230131847518 0.43829724109197865 0.47238793289280478 0.46849714846770218 0.38719692594211219 0.43294685631905283 0.28375726273655894 0.36711828442045619 0.41621569947940962 0.28481160711816378 0.31345079497354372 0.28694689934594292 0.28305615281701269 0.33673214394607387 0.38198993157218031 0.40100745276255267 0.34167060325073673 0.28387445151183632 0.35768583511028973 0.31140825461218885 0.34339547617830241 0.33019438382337246 0.29285813139024236 0.33048983560453404 0.38508409824115886 0.38595801122866058 0.29808403991082033 0.34086117034299035 0.28409756123696056 0.28724836070557214 0.30655079491223608
leaf_weight=41 33 37 22 30 34 27 34 29 55 20 95 373 25 21 31 25 25 27 32 21 28 26 25 22 22 28 23 174 51 20
leaf_count=41 33 37 22 30 34 27 34 29 55 20 95 373 25 21 31 25 25 27 32 21 28 26 25 22 22 28 23 174 51 20
internal_value=0.321891 0.355158 0.344096 0.307371 0.344234 0.336579 0.363198 0.339899 0.320919 0.318158 0.310583 0.300081 0.31213 0.301684 0.348093 0.333357 0.290557 0.322095 0.340482 0.286653 0.301143 0.315479 0.30602 0.418574 0.363366 0.316307 0.361457 0.287933 0.294368 0.290291
internal_weight=1456 442 405 1014 167 383 189 134 133 105 194 847 375 291 84 99 472 52 76 420 103 47 52 55 47 53 44 215 71 75
internal_count=1456 442 405 1014 167 383 189 134 133 105 194 847 375 291 84 99 472 52 76 420 103 47 52 55 47 53 44 215 71 75
is_linear=0
shrinkage=1


Tree=1
num_leaves=31
num_cat=0
split_feature=2 8 7 8 1 1 7 1 9 7 7 2 3 7 12 2 12 6 2 12 3 1 12 4 12 3 12 7 3 7
split_gain=738.626 585.472 478.241 289.859 381.37 276.547 271.608 232.593 122.201 113.292 150.85 156.929 150.443 99.8007 158.45 75.0561 50.9894 38.5284 37.8779 37.3233 35.0096 34.8525 35.8459 43.0913 25.0462 22.4135 21.4588 15.3123 13.7374 13.0651
threshold=1056.5000000000002 225.00000000000003 16.450000000000006 1.0000000180025095e-35 185.47500000000002 162.05000000000004 1.5896875000000004 157.75000000000003 1.0000000180025095e-35 4.9600000000000009 3.7050000000000005 1006.6500000000001 864.50000000000011 2.8120000000000007 0.45026315789473687 1311.1000000000001 0.39812811598889702 70.500000000000014 1032.5000000000002 0.38978260869565223 674.50000000000011 208.68000000000004 0.27989169675090259 82.250000000000014 0.4235091430131005 680.20000000000016 0.42198065821807779 10.270000000000001 743.30000000000007 5.4350000000000014
decision_type=2 2 2 2 2 2 2 2 2 2 2 2 2 2 2 2 2 2 2 2 2 2 2 2 2 2 2 2 2 2
left_child=3 2 5 9 16 6 19 15 27 10 11 28 26 14 -7 20 -5 -16 -13 -2 29 22 23 -11 -23 -20 -12 -6 -1 -8
right_child=1 -3 -4 4 8 13 7 -9 -10 21 12 18 -14 -15 17 -17 -18 -19 25 -21 -22 24 -24 -25 -26 -27 -28 -29 -30 -31
leaf_value=-0.016597488880157468 0.11036015390094958 0.14081411229372026 0.13838994299954382 -0.038121267568869674 0.07003640098571777 0.063205746433951646 -0.016157977612122246 0.087393568085085971 0.0040939040942625559 -0.036797848400862317 0.014413496925280645 0.051680057082857403 0.076817596837878227 -0.0323557197446021 -0.035281014692492597 0.040404774169921873 0.013729721784591675 0.010995651245117187 0.023685197989145913 0.05433141865049089 -0.03785494725648747 0.013494765429496765 -0.038176370301726138 0.022656922544751847 -0.02819367914729648 -0.014290304167517301 -0.023116916360526249 0.10760403708049229 -0.036665652776445665 0.015483565956354141
leaf_weight=41 37 39 28 60 34 32 22 30 21 22 25 20 31 106 40 24 23 26 26 20 42 24 357 20 26 28 28 27 174 23
leaf_count=41 37 39 28 60 34 32 22 30 21 22 25 20 31 106 40 24 23 26 26 20 42 24 357 20 26 28 28 27 174 23
internal_value=1.38997e-05 0.0309748 0.020702 -0.0147114 0.0214721 0.0121744 0.0373476 0.0147291 0.066991 -0.0219954 -0.00972646 -0.0200111 0.0254415 -0.0123069 0.00945607 -0.00548814 -0.0237248 -0.017114 0.0174715 0.0920284 -0.0184976 -0.0321368 -0.0350942 -0.00854779 -0.00825216 0.00403785 -0.00541925 0.0881804 -0.0329471 0
internal_weight=1456 469 430 987 165 402 198 141 82 822 373 289 84 204 98 111 83 66 74 57 87 449 399 42 50 54 53 61 215 45
internal_count=1456 469 430 987 165 402 198 141 82 822 373 289 84 204 98 111 83 66 74 57 87 449 399 42 50 54 53 61 215 45
is_linear=0
shrinkage=0.03


Tree=2
num_leaves=31
num_cat=0
split_feature=2 8 7 8 7 1 7 1 8 0 2 7 7 2 0 2 7 1 0 1 12 12 12 6 12 4 12 1 7 4
split_gain=696.514 564.015 373.361 269.129 346.895 263.018 240.109 222.397 176.675 128.315 105.601 95.5915 139.798 154.12 95.5018 84.8561 56.7484 74.3334 48.6373 42.862 32.8215 32.1536 30.8815 30.5293 28.7411 22.0674 7.30125 6.39024 5.71437 5.40129
threshold=1065.9000000000003 225.00000000000003 16.975000000000005 1.0000000180025095e-35 9.668000000000001 162.05000000000004 1.5896875000000004 157.75000000000003 492.50000000000006 237.87500000000003 1202.2500000000002 4.9600000000000009 3.7050000000000005 1006.6500000000001 285.95000000000005 1125.5000000000002 16.450000000000006 164.90000000000003 279.90000000000003 208.68000000000004 0.41989010989010994 0.43321167883211686 0.4235091430131005 87.250000000000014 0.38954342874121034 75.800000000000011 0.28324842455996335 260.52000000000004 2.2980000000000005 87.750000000000014
decision_type=2 2 2 2 2 2 2 2 2 2 2 2 2 2 2 2 2 2 2 2 2 2 2 2 2 2 2 2 2 2
left_child=3 2 5 11 8 6 24 9 -5 -8 15 12 13 27 -14 23 19 -18 -15 -13 28 -16 -21 -7 -2 -17 -11 -1 -10 -12
right_child=1 -3 -4 4 -6 10 7 -9 20 26 29 16 14 18 21 25 17 -19 -20 22 -22 -23 -24 -25 -26 -27 -28 -29 -30 -31
leaf_value=-0.033659081639075772 0.10980379818467534 0.14198804339609647 0.13842846443342124 0.061800082175962383 0.10507477326393128 -0.0337849056199193 0.043613494144167216 0.089055333042144788 -0.035115581465618953 -0.011604831397533417 -0.037129228301950402 -0.036555878971349744 -0.025063537530899044 0.037656469599405926 0.060019581800553855 0.019178657742647022 -0.03646903247099656 0.033974951786654328 -0.010402492956681685 0.020502689838409426 0.0076404235938499704 0.012641742774418421 -0.027379194127188786 0.012238877827470952 0.059601877025935959 0.061295450697774471 -0.033059285285521531 -0.014504475797925676 -0.014948332684380667 -0.018423607846964962
leaf_weight=195 33 37 22 30 34 31 34 29 55 23 73 373 24 44 40 25 25 27 32 21 28 20 26 21 22 22 48 20 20 22
leaf_count=195 33 37 22 30 34 31 34 29 55 23 73 373 24 44 40 25 25 27 32 21 28 20 26 21 22 22 48 20 20 22
internal_value=2.83893e-05 0.0314166 0.0209828 -0.0136682 0.0210393 0.0138858 0.0389836 0.0170127 -0.00104487 -0.00350895 -0.0106242 -0.0205316 -0.00917772 -0.0190189 0.0247022 0.0109958 -0.0295073 1.9586e-06 0.0175099 -0.0331593 -0.0197963 0.0447423 -0.00594123 -0.0152615 0.0911995 0.0398217 -0.0264086 -0.0319665 -0.0300446 -0.0330657
internal_weight=1456 442 405 1014 167 383 189 134 133 105 194 847 375 291 84 99 472 52 76 420 103 60 47 52 55 47 71 215 75 95
internal_count=1456 442 405 1014 167 383 189 134 133 105 194 847 375 291 84 99 472 52 76 420 103 60 47 52 55 47 71 215 75 95
is_linear=0
shrinkage=0.03


Tree=3
num_leaves=31
num_cat=0
split_feature=2 8 7 8 1 1 7 7 7 12 9 7 7 2 3 0 12 0 12 1 12 1 12 4 12 3 3 7 1 3
split_gain=657.388 519.206 428.845 257.573 339.845 245.768 246.905 111.811 223.48 114.024 111.07 100.677 133.873 139.018 138.808 95.8621 132.502 59.6133 46.8089 42.6795 33.3606 30.5488 32.651 39.5198 21.9836 20.6257 18.8873 12.9081 9.91988 7.916
threshold=1056.5000000000002 225.00000000000003 16.450000000000006 1.0000000180025095e-35 185.47500000000002 162.05000000000004 5.6750000000000007 1.5896875000000004 3.4200000000000004 0.31973637993825454 1.0000000180025095e-35 4.9600000000000009 3.7050000000000005 989.00000000000011 864.50000000000011 332.35000000000008 0.48607430889299003 279.90000000000003 0.39812811598889702 194.50000000000003 0.38978260869565223 208.68000000000004 0.27989169675090259 82.250000000000014 0.4235091430131005 675.50000000000011 786.5150000000001 10.270000000000001 144.81000000000003 743.30000000000007
decision_type=2 2 2 2 2 2 2 2 2 2 2 2 2 2 2 2 2 2 2 2 2 2 2 2 2 2 2 2 2 2
left_child=3 2 5 11 18 6 7 20 -9 -10 27 12 13 29 26 16 -7 25 -5 -18 -2 22 23 -13 -23 -15 -14 -6 -8 -1
right_child=1 -3 -4 4 10 15 28 8 9 -11 -12 21 14 17 -16 -17 19 -19 -20 -21 -22 24 -24 -25 -26 -27 -28 -29 -30 -31
leaf_value=-0.017655558300018311 0.10414285147190094 0.13268753798604013 0.13102009056354391 -0.036202354501505364 0.066539816451072695 0.054450630484400568 -0.036494134426116938 -0.030579462181438095 0.026464698651257682 0.10851662113666535 0.003288021065972068 -0.034786271250766256 0.014371522545814515 0.054550869255065915 0.073329348251223572 -0.03200961547684901 -0.034253929454226825 -0.015995402526855468 0.013466989576816558 0.015144344072341918 0.051176188196454725 0.012467138128280639 -0.035987979531954123 0.022146094560623171 -0.026588240755928885 0.014557660846710204 -0.021075078156686595 0.10145154517037527 -0.0082748830643567181 -0.03456066286152807
leaf_weight=34 37 39 28 60 34 36 26 32 33 29 21 22 23 24 31 102 42 34 23 24 20 24 357 20 26 24 30 27 21 173
leaf_count=34 37 39 28 60 34 36 26 32 33 29 21 22 23 24 31 102 42 34 23 24 20 24 357 20 26 24 30 27 21 173
internal_value=4.09712e-05 0.0292497 0.0195751 -0.0138509 0.0202575 0.0114995 0.0352307 0.0538441 0.0331176 0.0660047 0.0632274 -0.0207174 -0.00915106 -0.0188401 0.023978 -0.0115787 0.00893556 0.0140708 -0.0224064 -0.0162882 0.0868126 -0.0302776 -0.0330468 -0.00772131 -0.00790596 0.0353207 -0.00565576 0.083428 -0.0243831 -0.0318966
internal_weight=1456 469 430 987 165 402 198 151 94 62 82 822 373 289 84 204 102 82 83 66 57 449 399 42 50 48 53 61 47 207
internal_count=1456 469 430 987 165 402 198 151 94 62 82 822 373 289 84 204 102 82 83 66 57 449 399 42 50 48 53 61 47 207
is_linear=0
shrinkage=0.03


Tree=4
num_leaves=31
num_cat=0
split_feature=2 8 7 8 7 0 12 8 7 5 7 7 2 3 12 12 4 7 12 0 7 0 12 12 3 2 3 3 2 12
split_gain=619.6 501.908 332.79 238.541 311.363 211.715 165.709 158.826 122.493 127.928 84.7742 124.068 137.083 130.85 75.5268 69.5931 56.066 49.5953 65.7965 43.3522 39.5462 38.5841 29.2745 18.092 17.4016 15.1296 11.7063 5.52137 3.42307 10.2413
threshold=1065.9000000000003 225.00000000000003 16.975000000000005 1.0000000180025095e-35 9.668000000000001 379.32000000000005 0.45026315789473687 492.50000000000006 1.8485000000000003 33.420000000000009 4.9600000000000009 3.7050000000000005 1006.6500000000001 864.50000000000011 0.38978260869565223 0.31997091437920383 23.790000000000003 16.450000000000006 0.27350000000000008 279.90000000000003 3.4200000000000004 241.50000000000003 0.41989010989010994 0.42198065821807779 675.50000000000011 652.50000000000011 743.30000000000007 862.9100000000002 832.30000000000007 0.37996021958159532
decision_type=2 2 2 2 2 2 2 2 2 2 2 2 2 2 2 2 2 2 2 2 2 2 2 2 2 2 2 2 2 2
left_child=3 2 5 10 7 6 8 -5 14 20 11 12 26 23 -2 -7 -8 25 -19 24 -10 -22 27 -13 -14 -12 -1 -9 29 -27
right_child=1 -3 -4 4 -6 15 16 22 9 -11 17 13 19 -15 -16 -17 -18 18 -20 -21 21 -23 -24 -25 -26 28 -28 -29 -30 -31
leaf_value=-0.015028059669903344 0.10538814910682472 0.13396462828234623 0.13069645724089249 0.058475093133987917 0.099425642987660004 0.014122570860385894 0.021125860942376624 -0.014266373114152388 -0.021770345752889459 0.077325680444980491 -0.0064683226191479225 0.012727162406994745 0.054868766264481977 0.071198217630386348 0.04216790713490666 -0.033778379793824816 -0.028245541988535128 -0.035799283103942869 0.030612957173380355 -0.0098048351244492959 0.051178123133523122 -0.004239019947052002 0.0070222766481596848 -0.021733305437811486 0.016262914121150971 -0.033327087703504059 -0.033548776800973075 -0.03371487770514054 -0.035131166997551914 -0.015829645080769311
leaf_weight=41 36 37 22 30 34 39 36 21 32 28 22 25 21 31 36 86 46 24 28 32 20 24 28 28 23 113 174 54 239 46
leaf_count=41 36 37 22 30 34 39 36 21 32 28 22 25 21 31 36 86 46 24 28 32 20 24 28 28 23 113 174 54 239 46
internal_value=5.307e-05 0.0296576 0.0198145 -0.012865 0.0198101 0.0131137 0.028608 -0.00111048 0.0449456 0.0237123 -0.0193268 -0.00863396 -0.0179053 0.0232822 0.0748298 -0.018816 -0.00654077 -0.0277796 -7.93645e-05 0.0165437 0.00317329 0.0214614 -0.0188897 -0.00548814 0.035565 -0.0311937 -0.0301167 -0.0285681 -0.0325332 -0.0284143
internal_weight=1456 442 405 1014 167 383 258 133 176 104 847 375 291 84 72 125 82 472 52 76 76 44 103 53 44 420 215 75 398 159
internal_count=1456 442 405 1014 167 383 258 133 176 104 847 375 291 84 72 125 82 472 52 76 76 44 103 53 44 420 215 75 398 159
is_linear=0
shrinkage=0.03


Tree=5
num_leaves=31
num_cat=0
split_feature=2 1 12 7 2 3 1 12 5 5 2 7 7 12 2 7 2 0 0 3 2 5 12 12 1 12 1 7 2 3
split_gain=585.059 382.882 223.936 190.979 136.856 136.362 297.904 158.601 135.769 121.988 145.392 102.268 153.547 85.9623 61.6613 58.8015 89.9056 62.5262 43.2444 40.4731 34.6148 94.103 32.2191 28.2769 16.8272 15.0958 13.3976 28.7379 71.4395 10.0121
threshold=1056.5000000000002 171.80000000000004 0.2629899856938484 1.5896875000000004 1202.2500000000002 906.25000000000011 199.70000000000002 0.41989010989010994 47.560000000000009 22.750000000000004 1147.5000000000002 5.6750000000000007 4.4600000000000009 0.39999570271373636 1098.5000000000002 1.0000000180025095e-35 1008.1500000000001 279.90000000000003 479.15000000000003 931.00000000000011 746.80500000000006 10.251000000000003 0.30013054830287211 0.39999570271373636 185.47500000000002 0.35999845479230258 169.10000000000002 4.9600000000000009 913.95000000000016 786.5150000000001
decision_type=2 2 2 2 2 2 2 2 2 2 2 2 2 2 2 2 2 2 2 2 2 2 2 2 2 2 2 2 2 2
left_child=5 2 14 23 9 15 7 19 11 10 -3 12 13 22 -2 16 -1 -18 20 -7 21 -17 -5 -4 -20 -23 -22 28 29 -28
right_child=1 4 3 8 -6 6 -8 -9 -10 -11 -12 -13 -14 -15 -16 18 17 -19 24 -21 26 25 -24 -25 -26 -27 27 -29 -30 -31
leaf_value=-0.026871537579939913 0.15246787091663905 -0.028326784526600556 0.098087404434497538 0.014249467713492257 -0.03037232038378716 0.011138241593654339 0.072232195773124688 0.05871775992393493 0.088482544867888743 0.075722621385867786 0.062530180039613137 -0.024995685496330262 0.095539712781491495 0.05474046181595843 0.072383834318681201 0.035317331844760526 0.055473447874188418 -0.007486876322672917 -0.014185171394348144 -0.030369886970520024 -0.034716186845302581 -0.0022847247464316228 -0.033680205255746838 0.055645642518997195 0.019391396604735274 -0.032220912516117098 -0.0094681051969528196 -0.030106667169152872 0.027539657915792156 -0.035189704808783022
leaf_weight=51 20 50 38 20 95 25 49 24 22 25 22 49 22 22 21 30 31 25 24 119 179 20 31 32 28 67 21 218 30 46
leaf_count=51 20 50 38 20 95 25 49 24 22 25 22 49 22 22 21 30 31 25 24 119 179 20 31 32 28 67 21 218 30 46
internal_value=6.35006e-05 0.0276187 0.0501231 0.0385399 -0.00492449 -0.0130418 0.00792551 -0.0111293 0.0207559 0.0200236 -4.75599e-05 0.00984919 0.0279262 0.00649328 0.114221 -0.0189572 0.00164048 0.0276753 -0.0222834 -0.0231158 -0.0245162 -0.0096963 -0.014914 0.0797847 0.00386266 -0.0254773 -0.0279935 -0.024066 -0.0102907 -0.0274296
internal_weight=1456 469 277 236 192 987 217 168 166 97 72 144 95 73 41 770 107 56 663 144 611 117 51 70 52 87 494 315 97 67
internal_count=1456 469 277 236 192 987 217 168 166 97 72 144 95 73 41 770 107 56 663 144 611 117 51 70 52 87 494 315 97 67
is_linear=0
shrinkage=0.03


Tree=6
num_leaves=31
num_cat=0
split_feature=2 8 7 8 1 1 7 12 7 7 12 7 7 2 3 6 7 12 0 12 12 1 12 2 6 12 0 3 3 7
split_gain=551.629 440.348 373.957 222.704 294.034 204.455 217.721 98.857 93.54 193.423 106.287 84.9138 114.06 116.793 115.416 81.3476 56.8829 106.963 42.5961 41.2572 27.1895 26.7781 29.7379 33.6211 20.3877 19.6302 17.0094 15.6943 10.7671 9.44311
threshold=1056.5000000000002 225.00000000000003 16.450000000000006 1.0000000180025095e-35 185.47500000000002 162.05000000000004 5.6750000000000007 0.41989010989010994 1.5896875000000004 3.4200000000000004 0.31973637993825454 4.9600000000000009 3.7050000000000005 1006.6500000000001 864.50000000000011 181.00000000000003 2.8900000000000001 0.45026315789473687 279.90000000000003 0.39812811598889702 0.38978260869565223 208.68000000000004 0.27989169675090259 823.00000000000011 70.500000000000014 0.4235091430131005 299.90000000000003 675.50000000000011 743.30000000000007 9.9550000000000018
decision_type=2 2 2 2 2 2 2 2 2 2 2 2 2 2 2 2 2 2 2 2 2 2 2 2 2 2 2 2 2 2
left_child=3 2 5 11 19 6 8 -6 20 -10 -11 12 13 28 26 16 17 -7 27 -5 -2 22 23 -13 -19 -23 -14 -15 -1 -8
right_child=1 -3 -4 4 7 15 29 -9 9 10 -12 21 14 18 -16 -17 -18 24 -20 -21 -22 25 -24 -25 -26 -27 -28 -29 -30 -31
leaf_value=-0.014056246978896004 0.095357960889213972 0.12209260593652725 0.12199070484884854 -0.033573900355667367 0.083711136480547343 0.055076584994792933 -0.0094006799459457387 0.014843938719841743 -0.028706824584440752 0.023064076991642223 0.10215650751590728 0.020030001380226828 -0.0230934829044342 0.051823241797360503 0.067168137453496465 0.045344842876706801 -0.03199005145185134 -0.031813594440134554 -0.012285645684888285 0.013043140947818757 0.047344557421548021 0.012354407672882079 -0.033212399075151153 -0.032419516097415578 0.0047973680836813793 -0.024543728854921128 0.010405849242210389 0.015172223329544068 -0.03180503045899527 -0.036811920576095579
leaf_weight=41 37 39 28 60 52 23 23 30 32 33 29 21 24 21 31 20 101 40 30 23 20 24 357 21 20 26 29 23 174 24
leaf_count=41 37 39 28 60 52 23 23 30 32 33 29 21 24 21 31 20 101 40 30 23 20 24 357 21 20 26 29 23 174 24
internal_value=7.63253e-05 0.0268327 0.0179227 -0.012649 0.0190655 0.010382 0.0320275 0.0590344 0.0495091 0.0305426 0.0611409 -0.0190341 -0.00841079 -0.0173547 0.0221673 -0.0106659 -0.0169825 0.00140745 0.0149785 -0.0206187 0.0796696 -0.0278143 -0.0304065 -0.00626905 -0.0196822 -0.00687883 -0.00485484 0.0334943 -0.028515 -0.0239357
internal_weight=1456 469 430 987 165 402 198 82 151 94 62 822 373 289 84 204 184 83 74 83 57 449 399 42 60 50 53 44 215 47
internal_count=1456 469 430 987 165 402 198 82 151 94 62 822 373 289 84 204 184 83 74 83 57 449 399 42 60 50 53 44 215 47
is_linear=0
shrinkage=0.03


Tree=7
num_leaves=31
num_cat=0
split_feature=2 8 7 8 7 1 7 1 8 2 7 7 2 3 2 12 7 1 5 1 3 12 1 12 12 12 3 3 2 3
split_gain=520.251 427.654 288.845 205.473 269.81 194.634 182.455 192.987 139.998 79.3362 71.2873 105.743 114.58 108.812 67.8428 58.3493 41.6045 60.6515 40.0595 34.2372 25.8476 25.5236 25.4835 24.7875 21.1542 20.6879 19.0135 16.0562 10.3586 10.1189
threshold=1065.9000000000003 225.00000000000003 16.975000000000005 1.0000000180025095e-35 9.668000000000001 162.05000000000004 1.5896875000000004 157.75000000000003 492.50000000000006 1202.2500000000002 4.9600000000000009 3.7050000000000005 1006.6500000000001 864.50000000000011 1125.5000000000002 0.38978260869565223 16.450000000000006 164.90000000000003 1.0000000180025095e-35 208.68000000000004 674.50000000000011 0.4235091430131005 181.85000000000002 0.41989010989010994 0.38954342874121034 0.44930007946696016 679.5100000000001 786.5150000000001 1149.0000000000002 743.30000000000007
decision_type=2 2 2 2 2 2 2 2 2 2 2 2 2 2 2 2 2 2 2 2 2 2 2 2 2 2 2 2 2 2
left_child=3 2 5 10 8 6 24 15 -5 14 11 12 29 27 22 20 19 -18 25 -12 28 -21 -7 -10 -2 -14 -16 -13 -8 -1
right_child=1 -3 -4 4 -6 9 7 -9 23 -11 16 13 18 -15 26 -17 17 -19 -20 21 -22 -23 -24 -25 -26 -27 -28 -29 -30 -31
leaf_value=-0.013644599590982708 0.094995639660779174 0.12349629523252185 0.1214282489652219 0.055039616807814565 0.092686344235283991 -0.033634589552879332 0.012573543667793273 0.081439166212081915 -0.026500762035972195 -0.028649981886148451 -0.03166223986773567 0.013734676420688629 -0.016135513687133788 0.065216060712933538 0.054389122903347006 0.040068913561957221 -0.033170715781358565 0.030460424831935333 0.048150322934855584 0.019689243874766612 -0.035567413759231559 -0.02383468683560689 0.0077087025734094471 0.0062471871787104115 0.051769472184388529 0.02042199201767261 0.015476213722229005 -0.018942566940861362 -0.014059336374545919 -0.030856331822531564
leaf_weight=41 33 37 22 30 34 27 23 29 75 95 373 23 29 31 23 20 25 27 22 21 34 26 25 28 22 25 24 30 28 174
leaf_count=41 33 37 22 30 34 27 23 29 75 95 373 23 29 31 23 20 25 27 22 21 34 26 25 28 22 25 24 30 28 174
internal_value=8.58556e-05 0.0272135 0.0181274 -0.0117512 0.0185736 0.0118851 0.0334756 0.0143245 -0.000900458 -0.00919742 -0.0177486 -0.00794213 -0.0165019 0.0215215 0.00953902 -0.00477706 -0.0255002 -0.000123523 0.0149917 -0.0286272 -0.0157072 -0.00432027 -0.013931 -0.0175951 0.078992 0.000798298 0.0353176 -0.00471458 -0.00197992 -0.0276663
internal_weight=1456 442 405 1014 167 383 189 134 133 194 847 375 291 84 99 105 472 52 76 420 85 47 52 103 55 54 47 53 51 215
internal_count=1456 442 405 1014 167 383 189 134 133 194 847 375 291 84 99 105 472 52 76 420 85 47 52 103 55 54 47 53 51 215
is_linear=0
shrinkage=0.03


Tree=8
num_leaves=31
num_cat=0
split_feature=2 8 7 8 1 1 7 9 7 7 12 7 7 2 3 0 12 0 1 12 12 2 1 7 3 0 7 7 3 0
split_gain=490.914 390.494 335.401 197.789 262.066 181.53 196.08 91.2062 82.5318 180.094 97.3614 75.529 101.205 103.829 102.573 73.6284 101.286 47.903 39.0279 38.0153 24.4138 23.8916 47.9324 38.6212 16.3142 15.9439 8.87242 8.64435 5.89851 5.70824
threshold=1056.5000000000002 225.00000000000003 16.450000000000006 1.0000000180025095e-35 185.47500000000002 162.05000000000004 5.6750000000000007 1.0000000180025095e-35 1.5896875000000004 3.4200000000000004 0.31973637993825454 4.9600000000000009 3.7050000000000005 989.00000000000011 864.50000000000011 319.45000000000005 0.48607430889299003 279.90000000000003 194.50000000000003 0.39812811598889702 0.38978260869565223 746.80500000000006 179.95000000000002 11.315913000000004 675.50000000000011 299.90000000000003 9.9550000000000018 10.270000000000001 743.30000000000007 366.50000000000006
decision_type=2 2 2 2 2 2 2 2 2 2 2 2 2 2 2 2 2 2 2 2 2 2 2 2 2 2 2 2 2 2
left_child=3 2 5 11 19 6 8 27 20 -10 -11 12 13 28 25 16 -7 24 -18 -5 -2 22 -13 -24 -15 -14 -8 -6 -1 -17
right_child=1 -3 -4 4 7 15 26 -9 9 10 -12 21 14 17 -16 29 18 -19 -20 -21 -22 -23 23 -25 -26 -27 -28 -29 -30 -31
leaf_value=-0.015292499051775248 0.089987749946744813 0.11504473652243614 0.11550457763671874 -0.031921510864476692 0.059649637566293989 0.049820494774409703 -0.0088270378410816204 0.0014619276523590086 -0.028191202142021868 0.022049812590374664 0.097753686928749084 0.025581308419054202 -0.02223575895309448 0.048266393880844111 0.063320719175040729 -0.012022178422320973 -0.030724709561892913 -0.01482812100137983 0.017962182221205339 0.012816847294569014 0.044517896720341274 -0.030523805222511288 0.013636351176670621 -0.032053619519401999 0.012693837575912475 0.010195934081077575 -0.035380112628936762 0.08922718548774719 -0.029917416720554743 -0.030545742602183904
leaf_weight=34 37 39 28 60 34 34 23 21 32 33 29 21 24 24 31 21 41 34 22 23 20 324 20 84 24 29 24 27 173 86
leaf_count=34 37 39 28 60 34 34 23 21 32 33 29 21 24 24 31 21 41 34 22 23 20 324 20 84 24 29 24 27 173 86
internal_value=9.70001e-05 0.0253381 0.0169469 -0.0119075 0.0179798 0.0098052 0.0302013 0.055714 0.0467921 0.0289684 0.0584969 -0.017925 -0.00790535 -0.0163305 0.020897 -0.0100271 0.00884092 0.0121087 -0.0136611 -0.0194834 0.0751278 -0.0262059 -0.0148366 -0.0231923 0.0311634 -0.00457437 -0.0229032 0.0740177 -0.0276147 -0.027083
internal_weight=1456 469 430 987 165 402 198 82 151 94 62 822 373 289 84 204 97 82 63 83 57 449 125 104 48 53 47 61 207 107
internal_count=1456 469 430 987 165 402 198 82 151 94 62 822 373 289 84 204 97 82 63 83 57 449 125 104 48 53 47 61 207 107
is_linear=0
shrinkage=0.03


Tree=9
num_leaves=31
num_cat=0
split_feature=8 7 3 7 1 7 12 3 3 1 1 1 0 12 3 1 3 7 4 0 6 1 12 4 4 7 0 3 0 1
split_gain=340.458 462.641 224.02 254.577 226.817 156.798 124.866 122.948 117.093 87.1577 204.91 83.5494 73.641 71.3178 123.998 70.9868 61.859 58.8712 55.7939 44.9398 40.7586 31.2265 28.5227 31.922 23.9492 22.9175 21.4469 20.3272 17.6315 15.1963
threshold=1.0000000180025095e-35 8.8400000000000016 673.25000000000011 16.450000000000006 163.40000000000003 4.870000000000001 0.39999570271373636 771.45000000000016 709.35000000000014 154.50000000000003 158.35000000000005 174.71000000000004 350.15000000000003 0.4130025399129173 910.95000000000016 197.84000000000003 694.20500000000004 2.2840000000000007 74.550000000000011 245.60000000000002 179.05000000000004 208.68000000000004 0.27989169675090259 82.250000000000014 79.500000000000014 4.1750000000000016 225.31250000000003 859.23500000000013 366.50000000000006 197.39000000000001
decision_type=2 2 2 2 2 2 2 2 2 2 2 2 2 2 2 2 2 2 2 2 2 2 2 2 2 2 2 2 2 2
left_child=2 6 3 4 9 7 27 8 11 12 -11 18 24 25 15 -15 -3 26 -4 -10 28 22 23 -7 -1 -9 -8 -2 29 -6
right_child=1 16 5 -5 20 21 17 13 19 10 -12 -13 -14 14 -16 -17 -18 -19 -20 -21 -22 -23 -24 -25 -26 -27 -28 -29 -30 -31
leaf_value=0.05533241633006504 0.0040215008940015515 0.15008976241520472 -0.0093103416562080391 0.093908934723247184 0.011251603909901209 -0.030004998309271676 0.030588223136704541 -0.029861965826341322 0.068648354414105411 0.12158837010179248 0.017198563273747761 -0.035649674683082389 -0.035136591878804288 0.032490030884742734 0.056554584295518934 -0.030422800751983139 0.080152802753448493 -0.0081865325624292558 0.056331844879233317 0.022377341437339781 0.015051472730934618 -0.00096361196595568985 -0.030684201991712887 0.02229589891433716 0.011492220454745824 0.0041052149363926468 0.070746218039439271 -0.031257449585657848 -0.030997564990412105 -0.019924050724783607
leaf_weight=20 20 20 23 32 20 20 28 142 39 27 44 40 21 21 30 60 39 21 22 39 31 42 384 20 26 20 25 51 87 42
leaf_count=20 20 20 23 32 20 20 28 142 39 27 44 40 21 21 30 60 39 21 22 39 31 42 384 20 26 20 25 51 87 42
internal_value=0.000106013 0.0359484 -0.00575575 0.0145843 0.00632315 -0.013659 0.00688644 -0.000712344 0.0198267 0.0351344 0.0580751 -0.00452852 0.0102833 -0.0130141 0.00546591 -0.0138782 0.106017 0.0339514 0.0232431 0.0461269 -0.0158209 -0.0257382 -0.0281772 -0.00387539 0.0313887 -0.0256506 0.0505456 -0.0213602 -0.0223216 -0.0098008
internal_weight=1456 204 1252 350 318 902 145 436 163 138 71 85 67 273 111 81 59 74 45 78 180 466 424 40 46 162 53 71 149 62
internal_count=1456 204 1252 350 318 902 145 436 163 138 71 85 67 273 111 81 59 74 45 78 180 466 424 40 46 162 53 71 149 62
is_linear=0
shrinkage=0.03


Tree=10
num_leaves=31
num_cat=0
split_feature=2 8 3 8 1 12 5 9 3 5 12 3 1 3 3 12 3 2 1 3 0 1 3 12 12 1 0 12 0 3
split_gain=443.295 364.441 220.115 170.225 220.903 136.335 107.037 79.1991 58.2635 96.3722 57.8354 57.3046 49.3077 90.6857 41.5507 45.877 39.5257 38.5018 38.399 40.3027 38.134 32.0039 132.516 31.7151 30.5558 28.5847 21.972 15.7059 8.72823 6.49817
threshold=1065.9000000000003 225.00000000000003 599.00000000000011 1.0000000180025095e-35 185.47500000000002 0.49071428571428582 12.437500000000002 1.0000000180025095e-35 675.50000000000011 22.750000000000004 0.31973637993825454 518.50000000000011 162.55000000000004 734.80000000000007 741.20000000000016 0.55366137123745829 763.40000000000009 1038.5000000000002 152.08000000000001 659.50000000000011 299.90000000000003 199.70000000000002 909.00000000000011 0.27989169675090259 0.39812811598889702 194.50000000000003 269.72500000000008 0.33995614035087723 473.91500000000002 772.10000000000014
decision_type=2 2 2 2 2 2 2 2 2 2 2 2 2 2 2 2 2 2 2 2 2 2 2 2 2 2 2 2 2 2
left_child=3 2 11 8 24 6 10 -6 9 17 26 -2 13 -12 -10 16 20 -1 -8 27 -16 23 -23 -18 -5 -7 -4 -20 29 -25
right_child=1 -3 5 4 7 25 18 -9 14 -11 12 -13 -14 -15 15 -17 21 -19 19 -21 -22 22 -24 28 -26 -27 -28 -29 -30 -31
leaf_value=-0.033062167780739914 0.023689266307013374 0.11404098010690589 0.0192987425327301 -0.028400557533387213 0.068045859234673642 -0.02406925220148904 0.032856126585314345 0.00059925185550342914 -0.031907141216015553 0.048181562148034568 0.079300896497873169 -0.031883453415972846 0.0056220359578728679 0.0005491377115249634 -0.01264840409972451 0.021654826221794918 0.0056293310119259745 0.010310733340003275 0.11238749447464942 0.043434772304126186 0.039074042218072071 -0.025454399976730345 0.051026472176824295 -0.010753316107003585 0.011608517646789551 0.017562451601028442 -0.020986486451379179 0.068043654643970983 -0.0064131730284009668 -0.028514403978350811
leaf_weight=41 20 37 20 61 62 41 30 21 177 31 38 83 31 20 32 28 30 32 23 27 20 74 27 22 23 22 28 22 20 313
leaf_count=41 20 37 20 61 62 41 30 21 177 31 38 83 31 20 32 28 30 32 23 27 20 74 27 22 23 22 28 22 20 313
internal_value=0.000116212 0.0251573 0.0167688 -0.0108102 0.0167907 0.0296663 0.0399827 0.0512271 -0.0162691 0.00469955 0.0223684 -0.0209398 0.0365575 0.0526655 -0.0192106 -0.0151856 -0.0171451 -0.0141264 0.0631652 0.0751298 0.00755014 -0.0198036 -0.00467979 -0.023741 -0.0174027 -0.00943707 -0.00408846 0.092724 -0.0262402 -0.0273924
internal_weight=1456 442 405 1014 167 302 239 83 847 104 137 103 89 58 743 566 538 73 102 72 52 486 101 385 84 63 48 45 355 335
internal_count=1456 442 405 1014 167 302 239 83 847 104 137 103 89 58 743 566 538 73 102 72 52 486 101 385 84 63 48 45 355 335
is_linear=0
shrinkage=0.03


Tree=11
num_leaves=31
num_cat=0
split_feature=12 8 7 3 7 1 7 3 3 12 1 12 1 7 0 12 0 4 0 6 12 12 1 12 4 4 3 0 7 0
split_gain=306.296 155.585 217.307 200.794 232.231 206.23 142.386 110.797 108.021 100.796 76.2847 188.206 75.179 69.9448 66.414 65.0558 59.0776 51.6166 42.2433 37.469 37.3269 71.679 28.6486 25.6936 29.8078 22.3021 20.3476 18.9485 15.8817 15.763
threshold=0.21020270270270272 1.0000000180025095e-35 9.668000000000001 673.25000000000011 16.450000000000006 163.40000000000003 4.870000000000001 771.45000000000016 709.35000000000014 0.39999570271373636 154.50000000000003 0.35000346884972949 174.71000000000004 2.2980000000000005 350.15000000000003 0.55366137123745829 285.95000000000005 74.550000000000011 245.60000000000002 179.05000000000004 0.39999570271373636 0.43321167883211686 208.68000000000004 0.27989169675090259 82.250000000000014 79.500000000000014 859.23500000000013 225.31250000000003 3.9500000000000006 366.50000000000006
decision_type=2 2 2 2 2 2 2 2 2 2 2 2 2 2 2 2 2 2 2 2 2 2 2 2 2 2 2 2 2 2
left_child=-1 3 9 4 5 10 7 8 12 26 14 -12 17 27 25 16 -9 -5 -10 29 28 -22 23 24 -8 -2 -3 -11 -18 -7
right_child=1 2 -4 6 -6 19 22 15 18 13 11 -13 -14 -15 -16 -17 20 -19 -20 -21 21 -23 -24 -25 -26 -27 -28 -29 -30 -31
leaf_value=0.11121684245629744 0.052918105840682975 0.0052269659042358391 0.086021586048603063 -0.0093529233634471898 0.08967228490656072 -0.009451635008766536 -0.028879563076155523 -0.029174688255036624 0.066079081106185919 0.030176847226917741 0.10488777527127947 0.007528986792815359 -0.03392436972769295 -0.016821230769157407 -0.034375521659851076 0.037359091726216397 -0.029176193098227179 0.053770231091457864 0.021237928676605223 0.014530665636062623 0.049097623848915098 -0.018380845944086708 -0.00063187481636224792 -0.029072489207750785 0.021658906630107333 0.010636600679821438 -0.029736373791889266 0.067104345725132866 0.003869985376085554 -0.029504783026196739
leaf_weight=21 20 21 39 23 32 62 20 142 39 31 34 37 40 20 20 21 35 22 39 31 29 26 42 384 20 26 48 25 20 87
leaf_count=21 20 21 39 23 32 62 20 142 39 31 34 37 40 20 20 21 35 22 39 31 29 26 42 384 20 26 48 25 20 87
internal_value=0.000123902 -0.00157608 0.0241022 -0.00537152 0.0139201 0.00600586 -0.0128463 -0.000509111 0.018988 0.00695231 0.0336214 0.0550024 -0.00440295 0.030612 0.0100982 -0.012188 -0.0164601 0.0219401 0.0442491 -0.0150657 4.11947e-05 0.0173865 -0.024357 -0.026693 -0.00362521 0.0298185 -0.0191298 0.047603 -0.0172513 -0.0212992
internal_weight=1456 1435 184 1251 349 317 902 436 163 145 137 71 85 76 66 273 252 45 78 180 110 55 466 424 40 46 69 56 55 149
internal_count=1456 1435 184 1251 349 317 902 436 163 145 137 71 85 76 66 273 252 45 78 180 110 55 466 424 40 46 69 56 55 149
is_linear=0
shrinkage=0.03


Tree=12
num_leaves=31
num_cat=0
split_feature=2 8 7 8 7 1 7 1 8 0 0 12 7 7 2 3 0 1 0 3 4 12 3 12 1 3 3 3 3 4
split_gain=400.599 330.753 226.429 149.42 209.83 144.418 153.932 153.001 110.657 88.9055 60.9221 104.517 54.1776 86.3175 88.8506 83.2879 33.7703 30.1285 53.667 29.4105 26.7654 18.3968 18.0337 13.8984 12.348 11.7038 6.78228 6.66082 3.52322 2.68865
threshold=1065.9000000000003 225.00000000000003 16.975000000000005 1.0000000180025095e-35 9.668000000000001 162.05000000000004 1.5896875000000004 157.75000000000003 492.50000000000006 237.87500000000003 366.50000000000006 0.45026315789473687 4.9600000000000009 3.7050000000000005 1006.6500000000001 864.50000000000011 279.90000000000003 201.55000000000004 334.40000000000003 709.35000000000014 238.50000000000003 0.41989010989010994 660.50000000000011 0.42198065821807779 181.85000000000002 675.50000000000011 743.30000000000007 674.50000000000011 862.9100000000002 179.00000000000003
decision_type=2 2 2 2 2 2 2 2 2 2 2 2 2 2 2 2 2 2 2 2 2 2 2 2 2 2 2 2 2 2
left_child=3 2 5 12 8 6 22 9 -5 -8 11 24 13 14 26 23 25 20 -19 -13 29 28 -2 -15 -7 -16 -1 -11 -10 -14
right_child=1 -3 -4 4 -6 10 7 -9 21 27 -12 19 17 15 16 -17 -18 18 -20 -21 -22 -23 -24 -25 -26 -27 -28 -29 -30 -31
leaf_value=-0.012798911435263497 0.049013225926293265 0.10861263091940629 0.10740690478034641 0.048174299909222507 0.080962632097516751 0.025950133493968415 0.033689464759826655 0.071202148520946501 -0.012486816839738325 -0.014480192979176836 -0.027236106203263066 -0.029572566918704819 -0.02857994048746235 0.012758608350386986 0.045835694757374847 0.05802281255275011 -0.010041424599560823 -0.022397580372435704 0.028468472344534736 0.0095212649064404624 0.0035787248876359727 0.0041587084367357453 0.087977360630035403 -0.017436941927876964 0.061601204735892159 0.014061947047710419 -0.027011260499954223 -0.033695168417853277 -0.028210568950392981 -0.018157195014112133
leaf_weight=41 26 37 22 30 34 20 34 29 21 35 82 45 331 25 21 31 32 55 27 27 26 28 29 28 20 23 174 36 54 33
leaf_count=41 26 37 22 30 34 20 34 29 21 35 82 45 331 25 21 31 32 55 27 27 26 28 29 28 20 23 174 36 54 33
internal_value=0.000131438 0.0239362 0.0159445 -0.0102554 0.0156036 0.0104169 0.0290151 0.0114384 -0.00156183 -0.00555544 -0.00774237 0.00661801 -0.0153699 -0.00681978 -0.0145549 0.0197974 0.0131754 -0.0221277 -0.00547165 -0.0149417 -0.0255991 -0.0164009 0.0708157 -0.00316569 0.0449165 0.0299749 -0.0243867 -0.0245973 -0.0240696 -0.0276956
internal_weight=1456 442 405 1014 167 383 189 134 133 105 194 112 847 375 291 84 76 472 82 72 390 103 55 53 40 44 215 71 75 364
internal_count=1456 442 405 1014 167 383 189 134 133 105 194 112 847 375 291 84 76 472 82 72 390 103 55 53 40 44 215 71 75 364
is_linear=0
shrinkage=0.03


Tree=13
num_leaves=31
num_cat=0
split_feature=2 8 7 8 7 1 7 1 8 0 0 12 7 7 2 0 5 7 12 12 1 0 0 4 12 12 1 7 7 1
split_gain=377.553 311.614 213.594 140.737 197.758 136.068 145.147 144.252 104.308 83.8008 57.423 98.5899 51.0256 81.3042 83.719 57.1092 33.0878 28.9171 49.7881 27.7176 26.3597 22.4716 21.8181 18.5249 17.34 16.9401 11.6441 6.25677 11.9235 3.57923
threshold=1065.9000000000003 225.00000000000003 16.975000000000005 1.0000000180025095e-35 9.668000000000001 162.05000000000004 1.5896875000000004 157.75000000000003 492.50000000000006 237.87500000000003 366.50000000000006 0.45026315789473687 4.9600000000000009 3.7050000000000005 1006.6500000000001 285.95000000000005 1.0000000180025095e-35 16.450000000000006 0.27350000000000008 0.43321167883211686 208.68000000000004 259.95000000000005 279.90000000000003 23.790000000000003 0.41989010989010994 0.38954342874121034 181.85000000000002 4.3675000000000006 9.9550000000000018 260.52000000000004
decision_type=2 2 2 2 2 2 2 2 2 2 2 2 2 2 2 2 2 2 2 2 2 2 2 2 2 2 2 2 2 2
left_child=3 2 5 12 8 6 25 9 -5 -8 11 26 13 14 29 -15 22 20 -19 -17 -14 -22 -16 -13 -10 -2 -7 -11 -29 -1
right_child=1 -3 -4 4 -6 10 7 -9 24 27 -12 23 17 15 16 19 -18 18 -20 -21 21 -23 -24 -25 -26 -27 -28 28 -30 -31
leaf_value=-0.024929360851341367 0.083027583802447597 0.10543999447948055 0.10432479597174604 0.046775691378501155 0.078603148923601429 0.025208701099668229 0.032707657221385411 0.069137286031246192 -0.0233647827819774 -0.034355464927611809 -0.026428867242422448 0.0038991743564605712 -0.026735770291504375 -0.019246850280761719 0.016782401169500041 0.048864448873008177 0.042932611320329744 -0.031370695238113401 0.026399392407515949 0.0053156316620962957 -0.021872528864787171 0.018827036650284477 -0.020885560827255248 -0.026784254071387376 0.0040382488883774856 0.044563887616862419 0.059841170174734927 0.00031894345716996624 -0.031495738233838763 -0.010553748471396309
leaf_weight=195 33 37 22 30 34 20 34 29 75 30 82 29 373 24 30 40 22 24 28 20 25 22 24 43 28 22 20 21 20 20
leaf_count=195 33 37 22 30 34 20 34 29 75 30 82 29 373 24 30 40 22 24 28 20 25 22 24 43 28 22 20 21 20 20
internal_value=0.000139456 0.0232494 0.015492 -0.00994414 0.015152 0.0101232 0.0281757 0.0111072 -0.0015117 -0.00539288 -0.00750298 0.00643819 -0.0149078 -0.00660989 -0.0141172 0.0192223 0.0127996 -0.0214662 -0.000295943 0.0347225 -0.0240733 -0.00276383 0 -0.0145004 -0.0159194 0.0687662 0.0436353 -0.0238807 -0.0155094 -0.023661
internal_weight=1456 442 405 1014 167 383 189 134 133 105 194 112 847 375 291 84 76 472 52 60 420 47 54 72 103 55 40 71 41 215
internal_count=1456 442 405 1014 167 383 189 134 133 105 194 112 847 375 291 84 76 472 52 60 420 47 54 72 103 55 40 71 41 215
is_linear=0
shrinkage=0.03


Tree=14
num_leaves=31
num_cat=0
split_feature=2 8 7 8 1 7 1 7 7 6 12 12 7 7 3 2 0 12 6 2 1 7 1 4 3 3 4 3 0 3
split_gain=356.274 282.599 251.37 136.197 188.933 135.101 153.44 87.5973 163.964 73.3786 71.6883 59.1116 53.9888 77.855 76.799 75.3415 33.4038 28.7497 27.2433 20.4267 42.3258 31.0872 18.2077 18.0572 12.8571 10.914 9.1801 6.20045 4.56138 4.14952
threshold=1056.5000000000002 225.00000000000003 16.450000000000006 1.0000000180025095e-35 185.47500000000002 4.9600000000000009 174.71000000000004 1.5896875000000004 3.4200000000000004 141.00000000000003 0.41989010989010994 0.31973637993825454 4.9600000000000009 3.7050000000000005 864.50000000000011 1006.6500000000001 279.90000000000003 0.39812811598889702 116.30000000000001 746.80500000000006 179.95000000000002 11.315913000000004 159.90500000000003 124.90000000000002 786.5150000000001 675.50000000000011 87.750000000000014 743.30000000000007 359.50000000000006 697.50000000000011
decision_type=2 2 2 2 2 2 2 2 2 2 2 2 2 2 2 2 2 2 2 2 2 2 2 2 2 2 2 2 2 2
left_child=3 2 5 12 17 6 7 22 -9 26 28 -10 13 15 24 27 25 -5 23 20 -14 -22 -2 -7 -15 -17 29 -1 -6 -8
right_child=1 -3 -4 4 10 18 9 8 11 -11 -12 -13 19 14 -16 16 -18 -19 -20 -21 21 -23 -24 -25 -26 -27 -28 -29 -30 -31
leaf_value=-0.011889110650335039 0.075960156673970436 0.097965660738944998 0.099833008733289 -0.027898603572220099 0.053046958290613615 -0.029892519061054501 -0.02882655670881271 -0.029820390024700678 0.017469967768742486 0.037386665172047077 0.0092541395118159626 0.08148927491697773 0.026340931063348595 0.013101043581962585 0.055365498013794416 0.043685948285189534 -0.012136650070067374 0.01100054207444191 0.011894423767924309 -0.026061209411254293 0.013531078049114773 -0.027418584179878237 0.040558046496831451 0.0010256355513225902 -0.01613518032720012 0.013044420808553695 -0.00078239154815673833 -0.025464410431725638 0.078900193001542787 -0.011771502581509677
leaf_weight=41 45 39 28 60 25 83 49 36 25 26 30 28 21 23 31 21 30 23 23 324 20 84 25 21 30 23 20 174 27 21
leaf_count=41 45 39 28 60 25 83 49 36 25 26 30 28 21 23 31 21 30 23 23 324 20 84 25 21 30 23 20 174 27 21
internal_value=0.000146329 0.0216495 0.0145096 -0.01008 0.0147199 0.0083263 0.0201284 0.0391796 0.019045 -0.00607086 0.0467627 0.0522298 -0.0150736 -0.00660097 0.018658 -0.013992 0.0119723 -0.017081 -0.0171636 -0.0220752 -0.0115947 -0.0194612 0.0641081 -0.0236705 -0.00338455 0.0283813 -0.0189311 -0.0229565 0.0677628 -0.0239902
internal_weight=1456 469 430 987 165 402 275 159 89 116 82 53 822 373 84 289 74 83 127 449 125 104 70 104 53 44 90 215 52 70
internal_count=1456 469 430 987 165 402 275 159 89 116 82 53 822 373 84 289 74 83 127 449 125 104 70 104 53 44 90 215 52 70
is_linear=0
shrinkage=0.03


Tree=15
num_leaves=31
num_cat=0
split_feature=2 8 7 8 7 3 7 8 4 7 7 2 3 3 2 3 1 5 1 0 3 4 3 0 0 4 7 4 1 3
split_gain=335.945 277.382 190.224 124.75 176.401 122.605 124.051 95.3661 84.95 45.2315 72.159 74.15 72.7052 39.6588 38.9324 47.0301 30.9961 30.7192 25.8049 46.5243 25.0694 23.9519 22.7636 22.0419 19.5234 16.9806 25.3441 10.66 22.6236 5.82517
threshold=1065.9000000000003 225.00000000000003 16.975000000000005 1.0000000180025095e-35 9.668000000000001 599.00000000000011 6.0307500000000021 492.50000000000006 69.875000000000014 4.9600000000000009 3.7050000000000005 1006.6500000000001 827.68000000000018 652.50000000000011 1097.5000000000002 709.35000000000014 157.75000000000003 1.0000000180025095e-35 201.55000000000004 334.40000000000003 521.00000000000011 238.50000000000003 786.5150000000001 199.90000000000003 279.90000000000003 99.40000000000002 1.9750000000000003 163.25000000000003 174.71000000000004 743.30000000000007
decision_type=2 2 2 2 2 2 2 2 2 2 2 2 2 2 2 2 2 2 2 2 2 2 2 2 2 2 2 2 2 2
left_child=3 2 5 9 7 20 8 -5 13 10 11 29 22 -7 -15 -16 -17 24 21 -20 -2 -11 -12 -10 -13 -25 -27 28 -9 -1
right_child=1 -3 -4 4 -6 6 -8 27 23 18 12 17 -14 14 15 16 -18 -19 19 -21 -22 -23 -24 25 -26 26 -28 -29 -30 -31
leaf_value=-0.01154092913866043 0.0024660548686981196 0.099498411561313435 0.098466353914012081 0.044702559482666757 0.074196150101934172 0.050942970037460324 -0.02170391761132006 -0.025767124126034397 0.020356705904006955 -0.025403018133607628 0.012724388048052787 0.015590278894670545 0.047570319342613215 0.04157737339626659 -0.026234876871109009 -0.0089341731486113178 0.038614560061030916 0.041074492910633913 -0.020558074203985078 0.026800399788788384 -0.028862082165220512 0.0041543688641654114 -0.029055465801902436 0.075369936883449562 -0.02004023597717285 0.067433673278145173 0.022586306624942352 -0.027211852469095368 0.0096763532512328197 -0.024704843375342234
leaf_weight=41 34 37 22 30 34 20 52 30 20 364 23 30 39 21 41 22 26 22 55 27 68 26 22 31 24 22 26 40 33 174
leaf_count=41 34 37 22 30 34 20 52 30 20 364 23 30 39 21 41 22 26 22 55 27 68 26 22 31 24 22 26 40 33 174
internal_value=0.000153279 0.0219527 0.0146333 -0.00935836 0.0142689 0.00956615 0.0197822 -0.00146785 0.029269 -0.0140317 -0.00621845 -0.0132913 0.0181167 0.0131278 0.00582833 -0.00294175 0.0170226 0.012039 -0.0202067 -0.00479326 -0.0184677 -0.0234193 -0.0078237 0.0500913 -0.000267405 0.057233 0.0441593 -0.0152449 -0.00729351 -0.0222735
internal_weight=1456 442 405 1014 167 383 281 133 229 847 375 291 84 130 110 89 48 76 472 82 102 390 45 99 54 79 48 103 63 215
internal_count=1456 442 405 1014 167 383 281 133 229 847 375 291 84 130 110 89 48 76 472 82 102 390 45 99 54 79 48 103 63 215
is_linear=0
shrinkage=0.03


Tree=16
num_leaves=31
num_cat=0
split_feature=2 8 3 8 1 12 5 9 12 3 5 3 1 3 3 12 3 0 2 1 3 12 1 2 12 1 0 12 0 3
split_gain=316.66 261.321 167.082 117.488 157.516 102.653 81.5298 62.3866 45.2721 42.3297 82.9771 41.1718 38.2311 72.3013 36.8588 35.8901 33.9636 31.6893 30.5211 29.7166 31.0765 24.1053 21.4906 21.1416 78.5933 37.382 15.788 13.7822 11.857 6.85239
threshold=1065.9000000000003 225.00000000000003 599.00000000000011 1.0000000180025095e-35 185.47500000000002 0.49071428571428582 12.437500000000002 1.0000000180025095e-35 0.31973637993825454 675.50000000000011 22.750000000000004 518.50000000000011 162.55000000000004 734.80000000000007 741.20000000000016 0.55366137123745829 763.40000000000009 299.90000000000003 1038.5000000000002 152.08000000000001 659.50000000000011 0.39812811598889702 194.50000000000003 738.00000000000011 0.42384575604383257 185.42500000000004 269.72500000000008 0.33995614035087723 474.65000000000003 785.15000000000009
decision_type=2 2 2 2 2 2 2 2 2 2 2 2 2 2 2 2 2 2 2 2 2 2 2 2 2 2 2 2 2 2
left_child=3 2 11 9 21 6 8 -6 26 10 18 -2 13 -10 -11 16 17 -16 -1 -8 27 -5 -7 24 25 -18 -4 -21 29 -25
right_child=1 -3 5 4 7 22 19 -9 12 14 -12 -13 -14 -15 15 -17 23 -19 -20 20 -22 -23 -24 28 -26 -27 -28 -29 -30 -31
leaf_value=-0.030064247225012095 0.019208485092435564 0.096592012317557083 0.015481945906366621 -0.024785334527492521 0.057864453576859973 -0.021152799785137174 0.028013089956775785 -0.0016294342062690037 0.069559858047045189 -0.028065135067768313 0.044607432246208188 -0.027903045850140709 0.0043639160357415675 -0.00042785954475402834 -0.0096468927318399608 0.020233532112220235 0.017881382812624393 0.037514914478574475 0.0085555806159973141 0.098625953525304788 0.037360375463962557 0.01073350864648819 0.01494186062398164 -0.012501212879534689 0.04165496137619018 -0.024688728784069872 -0.018664895135780856 0.05815632667748824 0.0016057139124189101 -0.024130462972717429
leaf_weight=41 20 37 20 61 62 41 30 21 38 177 31 83 31 20 32 28 22 20 32 23 27 23 22 61 24 98 28 22 20 261
leaf_count=41 20 37 20 61 62 41 30 21 38 177 31 83 31 20 32 28 22 20 32 23 27 23 22 61 24 98 28 22 20 261
internal_value=0.000159836 0.0213244 0.0142197 -0.00907471 0.0138543 0.0254577 0.0344102 0.0429359 0.0190386 -0.0136101 0.00425784 -0.0186296 0.0315944 0.0457771 -0.0161175 -0.012333 -0.0140679 0.00880124 -0.0132076 0.0546419 0.0651604 -0.0150128 -0.00846492 -0.016534 -0.00679682 -0.0167761 -0.00435023 0.0806004 -0.0205934 -0.0219822
internal_weight=1456 442 405 1014 167 302 239 83 137 847 104 103 89 58 743 566 538 52 73 102 72 84 63 486 144 120 48 45 342 322
internal_count=1456 442 405 1014 167 302 239 83 137 847 104 103 89 58 743 566 538 52 73 102 72 84 63 486 144 120 48 45 342 322
is_linear=0
shrinkage=0.03


Tree=17
num_leaves=31
num_cat=0
split_feature=2 8 7 0 8 7 8 3 1 7 7 6 7 7 7 2 3 5 7 1 1 1 1 3 1 0 3 0 0 4
split_gain=298.424 246.21 173.839 110.608 110.59 160.577 85.1315 50.0827 63.3225 79.5929 69.9308 67.1083 53.7552 41.0707 65.8366 67.998 66.1765 27.9296 24.3986 42.8475 23.8992 52.5658 23.1339 20.7336 20.0386 19.1781 19.173 18.229 14.9495 9.92522
threshold=1065.9000000000003 225.00000000000003 16.975000000000005 379.32000000000005 1.0000000180025095e-35 9.668000000000001 492.50000000000006 796.10000000000014 174.71000000000004 1.9750000000000003 3.4200000000000004 141.00000000000003 3.7450000000000006 4.9600000000000009 3.7050000000000005 1006.6500000000001 827.68000000000018 1.0000000180025095e-35 16.450000000000006 164.90000000000003 163.40000000000003 152.58000000000001 208.68000000000004 786.5150000000001 159.90500000000003 259.95000000000005 648.50000000000011 279.90000000000003 265.65000000000003 163.25000000000003
decision_type=2 2 2 2 2 2 2 2 2 2 2 2 2 2 2 2 2 2 2 2 2 2 2 2 2 2 2 2 2 2
left_child=4 2 3 7 13 6 -6 8 9 24 -11 28 -12 14 15 -1 23 27 22 -20 21 -5 -15 -16 -2 -24 -14 -17 -10 -8
right_child=1 -3 -4 20 5 -7 29 -9 11 10 12 -13 26 18 16 17 -18 -19 19 -21 -22 -23 25 -25 -26 -27 -28 -29 -30 -31
leaf_value=-0.021113741550180646 0.072863714559133666 0.093770504000939822 0.093955419146496313 -0.03200511450426919 0.042055979721007802 0.070622348448208402 -0.0069113995525985957 -0.024452875375747678 -0.029956776997138709 -0.027694759696722027 0.070568866382945655 0.043224135435544528 0.033609943338802878 -0.023972445787274262 0.012340124949812889 0.015323400828146165 0.045587802010774614 0.039427407129951145 -0.027438817991660189 0.026043038478919436 -0.023847687827216253 0.031804261097541218 -0.019217389184695021 -0.027529261039650955 0.035603368763923643 0.018382285657136337 -0.0053657183218002325 -0.019107158689498902 0 -0.026129555443438087
leaf_weight=215 42 37 22 20 30 34 63 20 28 23 21 25 20 373 23 30 39 22 25 27 80 25 25 22 24 22 24 24 31 40
leaf_count=215 42 37 22 20 30 34 63 20 28 23 21 25 20 373 23 30 39 22 25 27 80 25 25 22 24 22 24 24 31 40
internal_value=0.000164869 0.020711 0.0138145 0.00897066 -0.00879977 0.0134457 -0.00156646 0.0201722 0.0240213 0.0353918 0.0163652 0.00296907 0.0321846 -0.0132001 -0.00575502 -0.0125116 0.0174883 0.0117426 -0.0190841 0.00024143 -0.0141021 0.00330007 -0.0214788 -0.00726109 0.0600929 -0.00153874 0.012637 0 -0.0144743 -0.0145831
internal_weight=1456 442 405 383 1014 167 133 258 238 154 88 84 65 847 375 291 84 76 472 52 125 45 420 45 66 47 44 54 59 103
internal_count=1456 442 405 383 1014 167 133 258 238 154 88 84 65 847 375 291 84 76 472 52 125 45 420 45 66 47 44 54 59 103
is_linear=0
shrinkage=0.03


Tree=18
num_leaves=31
num_cat=0
split_feature=2 8 7 7 1 8 1 7 7 3 12 12 7 7 3 2 5 12 6 12 12 7 2 1 7 12 4 3 1 12
split_gain=281.553 221.958 208.27 111.684 123.165 107.472 151.021 75.6421 142.19 62.8054 60.1196 53.1164 43.477 63.0502 63.0171 61.4317 27.4846 38.7217 25.1397 24.7579 23.7433 31.0099 17.2657 37.8322 26.0727 16.3503 15.3215 10.619 3.28281 3.18238
threshold=1056.5000000000002 225.00000000000003 16.450000000000006 4.9600000000000009 174.71000000000004 1.0000000180025095e-35 185.47500000000002 1.5896875000000004 3.4200000000000004 709.35000000000014 0.41989010989010994 0.31973637993825454 4.9600000000000009 3.7050000000000005 864.50000000000011 989.00000000000011 1.0000000180025095e-35 0.39937258227413924 116.30000000000001 0.39812811598889702 0.44983378851830397 4.2200000000000015 746.80500000000006 179.95000000000002 11.315913000000004 0.39999570271373636 124.90000000000002 786.5150000000001 214.73000000000005 0.39623592896476995
decision_type=2 2 2 2 2 2 2 2 2 2 2 2 2 2 2 2 2 2 2 2 2 2 2 2 2 2 2 2 2 2
left_child=5 2 3 4 7 12 19 25 -9 20 29 -10 13 15 27 -1 17 -17 26 -7 21 -6 23 -14 -25 -2 -5 -15 -24 -8
right_child=1 -3 -4 18 9 6 10 8 11 -11 -12 -13 22 14 -16 16 -18 -19 -20 -21 -22 -23 28 24 -26 -27 -28 -29 -30 -31
leaf_value=-0.021087741391016886 0.072143545856842628 0.086921024206280714 0.0906204933791325 -0.027830900771277294 0.027287965961865016 -0.025364333569026384 0.071081078343921245 -0.029045666523881859 0.014500473398428698 0.040327365159988401 0.0074392517382098787 0.075064391292374716 0.025834831953048705 0.01198534670472145 0.050225705936551089 -0.034652659075600757 0.035764269332885734 0.015869850626358619 0.012048859551548958 0.010717409133911133 -0.02930805800320967 -0.022627537727355953 -0.024247244958909567 0.01273962049824851 -0.024746730385107153 0.040050970500165761 0.00064996755123138432 -0.014582319167352491 -0.012329529889992304 0.048517131765683487
leaf_weight=207 38 39 28 83 20 60 26 36 25 21 30 28 21 23 31 20 24 38 23 23 52 23 297 20 84 32 21 30 27 26
leaf_count=207 38 39 28 83 20 60 26 36 25 21 30 28 21 23 31 20 24 38 23 23 52 23 297 20 84 32 21 30 27 26
internal_value=0.000168853 0.0192848 0.0129559 0.00732756 0.0180592 -0.00892189 0.013107 0.0351279 0.0164354 -0.00541144 0.0417562 0.0473496 -0.0133579 -0.00575429 0.0169743 -0.0124066 0.00946175 -0.00179291 -0.0158463 -0.0153215 -0.0158681 0.000613327 -0.0196411 -0.0100125 -0.0174566 0.0582856 -0.0221 -0.00298896 -0.0233043 0.060984
internal_weight=1456 469 430 402 275 987 165 159 89 116 82 53 822 373 84 289 82 58 127 83 95 43 449 125 104 70 104 53 324 52
internal_count=1456 469 430 402 275 987 165 159 89 116 82 53 822 373 84 289 82 58 127 83 95 43 449 125 104 70 104 53 324 52
is_linear=0
shrinkage=0.03


Tree=19
num_leaves=31
num_cat=0
split_feature=2 8 7 3 7 8 7 12 8 12 3 5 7 7 3 12 3 7 3 2 7 3 3 12 0 3 3 12 12 7
split_gain=265.481 219.216 154.749 100.561 104.313 97.9831 143.411 97.6747 77.8678 63.6611 36.7891 74.8677 36.6052 106.029 33.6617 31.3561 31.4334 31.1646 30.5014 26.6712 21.7021 20.605 16.8142 14.9314 14.7906 35.1417 75.6837 16.6664 13.142 5.64977
threshold=1065.9000000000003 225.00000000000003 16.975000000000005 599.00000000000011 6.0307500000000021 1.0000000180025095e-35 9.668000000000001 0.49071428571428582 492.50000000000006 0.31973637993825454 675.50000000000011 22.750000000000004 3.4200000000000004 1.9750000000000003 741.20000000000016 0.55366137123745829 763.40000000000009 5.9700000000000015 637.50000000000011 1038.5000000000002 17.950000000000003 521.00000000000011 709.35000000000014 0.38978260869565223 347.87500000000006 909.00000000000011 937.75000000000011 0.35120691906005225 0.41989010989010994 10.790000000000001
decision_type=2 2 2 2 2 2 2 2 2 2 2 2 2 2 2 2 2 2 2 2 2 2 2 2 2 2 2 2 2 2
left_child=5 2 3 21 7 10 8 9 -7 18 11 19 13 23 -12 16 17 -16 -5 -1 24 -2 -9 -11 -18 27 -27 -26 -10 -6
right_child=1 -3 -4 4 29 6 -8 22 28 12 14 -13 -14 -15 15 -17 20 -19 -20 -21 -22 -23 -24 -25 25 26 -28 -29 -30 -31
leaf_value=-0.02811749387638909 0.0020630622625350953 0.088492412585961203 0.08865889381325763 0.033848587904657633 -0.007100974525724139 0.040191127008007414 0.066691873434611734 -0.019772941539684931 -0.020459699091158412 0.077795795483248581 -0.026175592672958804 0.042558075919747348 0.077306787170469765 -0.0087028573989868154 0.037692779081208362 0.019287259253962286 -0.021063077877549564 -0.009081488815220919 -0.014768526077270508 0.0079811379801143292 0.013429920548978059 -0.026335360755091127 0.012257868461608888 0.045206831941237813 0.00021257924389194799 0.050220204770565026 -0.023695603361496557 -0.023215853713859213 0.0033885946191590404 -0.028007108645005656
leaf_weight=41 34 37 22 20 20 30 34 35 75 27 177 31 31 29 20 28 271 32 25 32 22 68 24 38 36 23 25 109 28 32
leaf_count=41 34 37 22 20 20 30 34 35 75 27 177 31 31 29 20 28 271 32 25 32 22 68 24 38 36 23 25 109 28 32
internal_value=0.000174247 0.0195533 0.0130453 0.00847461 0.0177276 -0.00828102 0.0126576 0.0264284 -0.00152793 0.0379177 -0.012423 0.00423144 0.0488657 0.0387396 -0.0147608 -0.011146 -0.0127683 0.00922376 0.00703997 -0.0123589 -0.0151416 -0.016912 -0.00670632 0.0597629 -0.0165287 -0.0100705 0.0119632 -0.017417 -0.0139776 -0.0203086
internal_weight=1456 442 405 383 281 1014 167 229 133 170 847 104 125 94 743 566 538 52 45 73 486 102 59 65 464 193 48 145 103 52
internal_count=1456 442 405 383 281 1014 167 229 133 170 847 104 125 94 743 566 538 52 45 73 486 102 59 65 464 193 48 145 103 52
is_linear=0
shrinkage=0.03


Tree=20
num_leaves=31
num_cat=0
split_feature=2 8 7 0 8 7 12 8 5 7 3 7 7 2 3 12 4 7 0 2 0 7 12 3 12 12 2 3 3 2
split_gain=250.12 206.554 145.993 95.7208 92.3073 135.144 74.4204 73.3859 61.074 68.9353 34.8159 34.7076 56.8727 58.8207 57.6418 30.0983 28.5651 25.2052 26.0936 25.0649 22.3204 20.5746 40.1501 18.2032 12.3804 8.56504 7.67833 4.52562 2.64795 1.79259
threshold=1065.9000000000003 225.00000000000003 16.975000000000005 379.32000000000005 1.0000000180025095e-35 9.668000000000001 0.45026315789473687 492.50000000000006 12.437500000000002 1.5896875000000004 693.50500000000011 4.9600000000000009 3.7050000000000005 1006.6500000000001 827.68000000000018 0.31997091437920383 23.790000000000003 3.4200000000000004 241.50000000000003 1032.5000000000002 279.90000000000003 16.450000000000006 0.27350000000000008 786.5150000000001 0.41989010989010994 0.33311279826464218 652.50000000000011 743.30000000000007 862.9100000000002 832.30000000000007
decision_type=2 2 2 2 2 2 2 2 2 2 2 2 2 2 2 2 2 2 2 2 2 2 2 2 2 2 2 2 2 2
left_child=4 2 3 6 11 7 8 -6 9 10 -2 12 13 27 23 -5 -8 -11 -19 -15 -21 26 -23 -14 28 -10 -13 -1 -9 -28
right_child=1 -3 -4 15 5 -7 16 24 25 17 -12 21 14 19 -16 -17 -18 18 -20 20 -22 22 -24 -25 -26 -27 29 -29 -30 -31
leaf_value=-0.010017568869250161 0.019041247418293585 0.085907502491223198 0.086114767717278523 0.008425864818692206 0.039024287350716128 0.064748281686646605 0.014850336380907004 -0.0098710732080719687 0.037509534393038065 -0.020132830706509675 0.070385207920074452 -0.0021457388660182123 0.011659627363085748 0.039023662499019077 0.042622781145572657 -0.023070720771263386 -0.020385325578933067 0.038778006213051934 -0.0071311418265104292 0.02050800511572096 -0.016799113292847907 -0.027526881365776062 0.024350934998742461 -0.025693958976994388 0.0032904421091079707 0.067042540875348181 -0.017704222836345433 -0.021629866580281938 -0.023431622236425226 -0.022448021154105661
leaf_weight=41 25 37 22 39 30 34 36 21 20 32 24 22 23 20 39 86 46 20 23 26 30 24 28 22 28 32 159 174 54 239
leaf_count=41 25 37 22 39 30 34 36 21 20 32 24 22 23 20 39 86 46 20 23 26 30 24 28 22 28 32 159 174 54 239
internal_value=0.000178548 0.0189887 0.0126712 0.00823138 -0.0080284 0.0122944 0.0186524 -0.00147558 0.0296023 0.0178681 0.0451541 -0.0120487 -0.0052041 -0.0114847 0.0163974 -0.0132311 -0.00488732 -0.000278851 0.0145498 0.0110707 0.000525327 -0.0174578 0.000283115 -0.00669848 -0.0135623 0.0566623 -0.0196569 -0.0194859 -0.019854 -0.0206095
internal_weight=1456 442 405 383 1014 167 258 133 176 124 49 847 375 291 84 125 82 75 43 76 56 472 52 45 103 52 420 215 75 398
internal_count=1456 442 405 383 1014 167 258 133 176 124 49 847 375 291 84 125 82 75 43 76 56 472 52 45 103 52 420 215 75 398
is_linear=0
shrinkage=0.03


Tree=21
num_leaves=31
num_cat=0
split_feature=2 8 7 7 1 8 1 7 7 6 9 1 7 7 3 2 5 12 6 12 1 2 1 7 4 3 4 12 1 3
split_gain=236.275 185.113 177.454 96.52 105.522 90.1201 126.964 65.8298 124.49 56.1267 54.4675 48.9176 36.7633 54.5056 54.435 52.8733 24.7308 35.197 23.5993 22.4352 15.8239 15.4026 34.8387 23.4033 13.1803 9.24088 7.37118 6.57082 3.20377 3.05364
threshold=1056.5000000000002 225.00000000000003 16.450000000000006 4.9600000000000009 174.71000000000004 1.0000000180025095e-35 185.47500000000002 1.5896875000000004 3.4200000000000004 141.00000000000003 1.0000000180025095e-35 157.75000000000003 4.9600000000000009 3.7050000000000005 864.50000000000011 989.00000000000011 1.0000000180025095e-35 0.39937258227413924 116.30000000000001 0.39812811598889702 154.50000000000003 746.80500000000006 179.95000000000002 11.315913000000004 124.90000000000002 786.5150000000001 87.750000000000014 0.40029901531705708 214.73000000000005 697.50000000000011
decision_type=2 2 2 2 2 2 2 2 2 2 2 2 2 2 2 2 2 2 2 2 2 2 2 2 2 2 2 2 2 2
left_child=5 2 3 4 7 12 19 20 -9 26 -8 -10 13 15 25 -1 17 -17 24 -7 -2 22 -14 -24 -5 -15 29 -22 -23 -6
right_child=1 -3 -4 18 9 6 10 8 11 -11 -12 -13 21 14 -16 16 -18 -19 -20 -21 27 28 23 -25 -26 -27 -28 -29 -30 -31
leaf_value=-0.019455549875131019 0.072817253644977306 0.079463157910108564 0.083602717194063925 -0.026201251434428353 -0.024971624794006345 -0.023602393926167097 0.052443513353024759 -0.027491126418113705 0.017635470536447338 0.032971108052465649 -0.0031813159639185119 0.076066426068544385 0.025489266384731635 0.011324413225054741 0.046819790884852407 -0.033117182203701565 0.033834980993270869 0.015050505418043867 0.012187718406319617 0.010731262892484664 0.027043978525244667 -0.022369449155042635 0.012543625014168875 -0.02295673945511089 0.00021979259360920296 -0.013457861469637964 -4.0608337947300489e-05 0.053361218983476809 -0.010725725872176033 -0.01027814174782146
leaf_weight=207 27 39 28 83 49 60 61 36 30 26 21 23 21 23 31 20 24 38 23 23 22 297 20 84 21 30 20 21 27 21
leaf_count=207 27 39 28 83 49 60 61 36 30 26 21 23 21 23 31 20 24 38 23 23 22 297 20 84 21 30 20 21 27 21
internal_value=0.000182073 0.0176938 0.0119131 0.00671729 0.0166943 -0.00814554 0.012026 0.0324935 0.0150569 -0.00502849 0.0382953 0.0439869 -0.0122079 -0.00521536 0.0159156 -0.0114013 0.00888414 -0.00178798 -0.0148247 -0.014038 0.0540964 -0.0179857 -0.00889796 -0.0160467 -0.0208864 -0.00263718 -0.0162808 0.0408854 -0.0214444 -0.0208127
internal_weight=1456 469 430 402 275 987 165 159 89 116 82 53 822 373 84 289 82 58 127 83 70 449 125 104 104 53 90 43 324 70
internal_count=1456 469 430 402 275 987 165 159 89 116 82 53 822 373 84 289 82 58 127 83 70 449 125 104 104 53 90 43 324 70
is_linear=0
shrinkage=0.03


Tree=22
num_leaves=31
num_cat=0
split_feature=2 12 3 8 1 5 3 12 8 12 12 1 5 2 0 2 2 1 3 2 3 3 0 12 12 12 3 3 3 12
split_gain=222.707 176.93 118.257 84.8324 119.558 75.0805 53.5285 51.4249 47.8952 47.0901 64.8014 65.7162 44.6978 37.3961 33.685 28.9407 29.0703 22.2869 23.0383 51.091 23.9456 28.1394 27.1782 21.1438 17.8921 14.4754 55.616 14.0063 10.3211 8.53389
threshold=1056.5000000000002 0.2629899856938484 599.00000000000011 1.0000000180025095e-35 185.47500000000002 50.500000000000007 771.45000000000016 0.41989010989010994 225.00000000000003 0.54870852332740827 0.31973637993825454 162.55000000000004 22.750000000000004 1125.5000000000002 314.22000000000008 1144.2298245614036 1100.5000000000002 271.05000000000001 675.50000000000011 1006.6500000000001 741.20000000000016 763.40000000000009 299.90000000000003 0.39812811598889702 0.27989169675090259 0.4130025399129173 909.00000000000011 798.50000000000011 521.00000000000011 0.40029901531705708
decision_type=2 2 2 2 2 2 2 2 2 2 2 2 2 2 2 2 2 2 2 2 2 2 2 2 2 2 2 2 2 2
left_child=3 8 28 17 23 6 9 -6 -2 10 14 15 13 -13 -4 16 -12 18 19 -1 -20 22 -22 -5 -23 -26 27 -27 -3 -8
right_child=1 2 5 4 7 -7 29 -9 -10 -11 11 12 -14 -15 -16 -17 -18 -19 20 -21 21 24 -24 -25 25 26 -28 -29 -30 -31
leaf_value=-0.018129606410861015 0.039025336384773256 -0.0019782698200299189 0.018321337345668248 -0.022905930214240901 0.054941740589321782 0.063204557340592146 -0.030086227859769547 0.0054719118764323576 0.1027102752327919 -0.011679172792950191 0.057577288478612897 -0.025712628645556311 0.047679239541292183 0.024761996512413023 -0.025820772694689884 0.071089769916875017 0.0091497995464698122 0.01873164529459817 -0.024127369744240203 0.02877778411233747 -0.0075334615273909139 0.0087121147340343836 0.036154229760169979 0.010422738224267959 -0.018810097109797776 -0.0033798449039459232 0.030145376061571052 -0.023220996226583211 -0.024696192777675131 -0.0030252841814704559
leaf_weight=47 23 25 34 60 52 31 20 30 23 36 23 27 23 24 27 41 22 20 172 36 32 30 20 23 301 53 28 83 68 22
leaf_count=47 23 25 34 60 52 31 20 30 23 36 23 27 23 24 27 41 22 20 172 36 32 30 20 23 301 53 28 83 68 22
internal_value=0.000185624 0.0171871 0.0110148 -0.00789928 0.0116712 0.0194313 0.0146874 0.0371632 0.0724395 0.0198202 0.0249943 0.0349719 0.013912 -0.00188276 -0.00126992 0.0526905 0.0346804 -0.0118407 -0.0126292 0.00228044 -0.0143553 -0.0112387 0.00957801 -0.0136204 -0.0134464 -0.0148981 -0.00762945 -0.0155918 -0.0187072 -0.0163812
internal_weight=1456 469 423 987 165 330 299 82 46 257 221 160 74 51 61 86 45 822 802 83 719 547 52 83 495 465 164 136 93 42
internal_count=1456 469 423 987 165 330 299 82 46 257 221 160 74 51 61 86 45 822 802 83 719 547 52 83 495 465 164 136 93 42
is_linear=0
shrinkage=0.03


Tree=23
num_leaves=31
num_cat=0
split_feature=2 8 7 0 8 7 12 8 5 7 7 7 2 0 12 4 0 1 7 0 12 1 0 4 12 12 6 5 5 2
split_gain=209.954 175.212 125.943 82.6894 76.6396 116.357 64.9603 63.0847 53.4749 59.4377 29.6166 49.024 50.4061 37.9264 25.5047 24.8958 24.0648 23.0341 22.0864 23.7609 22.0259 18.0885 32.3918 19.2448 10.5469 7.84207 4.01822 3.5056 9.6799 17.8252
threshold=1065.9000000000003 225.00000000000003 16.975000000000005 379.32000000000005 1.0000000180025095e-35 9.668000000000001 0.45026315789473687 492.50000000000006 12.437500000000002 1.5896875000000004 4.9600000000000009 3.7050000000000005 1008.1500000000001 285.95000000000005 0.31997091437920383 23.790000000000003 279.90000000000003 159.90500000000003 3.4200000000000004 241.50000000000003 0.43321167883211686 201.55000000000004 334.40000000000003 238.50000000000003 0.41989010989010994 0.33311279826464218 45.100000000000009 22.750000000000004 46.070000000000007 786.00000000000011
decision_type=2 2 2 2 2 2 2 2 2 2 2 2 2 2 2 2 2 2 2 2 2 2 2 2 2 2 2 2 2 2
left_child=4 2 3 6 10 7 8 -6 9 17 11 12 27 -13 -5 -8 26 -2 -11 -20 -15 23 -23 -12 -9 -10 -14 -1 29 -29
right_child=1 -3 -4 14 5 -7 15 24 25 18 21 13 16 20 -16 -17 -18 -19 19 -21 -22 22 -24 -25 -26 -27 -28 28 -30 -31
leaf_value=-0.020630836404286899 0.061558392350490272 0.079055691756700214 0.079817269656969142 0.0074689093708992004 0.035961862517941375 0.05985842837946756 0.013604090200888142 -0.01860044067000088 0.034543697868074687 -0.019012636672366749 -0.020460144699762945 -0.015946027307510376 0.015251084493554156 0.040615328916689238 -0.021524455822747326 -0.019290031717178666 -0.0086467630971561772 0.019369127540588376 0.036578240002904619 -0.0072177770286798474 0.0019502965382167268 -0.016264518256698335 0.023248318970203397 0.0059660222397910226 0.0027610173348722785 0.062591362888162791 0.035268328394208633 -0.02014704317312974 -0.02542429127693176 0.016533881485462192
leaf_weight=142 25 37 22 39 30 34 36 75 20 32 364 24 22 40 86 46 32 24 20 23 20 55 27 26 28 32 20 25 29 21
leaf_count=142 25 37 22 39 30 34 36 75 20 32 364 24 22 40 86 46 32 24 20 23 20 55 27 26 28 32 20 25 29 21
internal_value=0.000188122 0.017422 0.011603 0.00747924 -0.00733088 0.0111863 0.0171656 -0.00158766 0.0273965 0.016418 -0.0109943 -0.00467132 -0.0105033 0.0153828 -0.0124672 -0.00482265 0.0107476 0.0417549 -0.00042764 0.0134526 0.0280194 -0.015991 -0.0030947 -0.01868 -0.0127939 0.0527157 0.0254514 -0.0177799 -0.0121422 -0.00334208
internal_weight=1456 442 405 383 1014 167 258 133 176 124 847 375 291 84 125 82 74 49 75 43 60 472 82 390 103 52 42 217 75 46
internal_count=1456 442 405 383 1014 167 258 133 176 124 847 375 291 84 125 82 74 49 75 43 60 472 82 390 103 52 42 217 75 46
is_linear=0
shrinkage=0.03


Tree=24
num_leaves=31
num_cat=0
split_feature=2 12 3 8 7 12 12 8 8 1 5 7 2 7 3 5 3 7 2 12 7 2 12 1 3 12 0 3 3 4
split_gain=197.875 168.09 110.352 72.2076 109.65 62.3936 84.0263 59.4534 55.8112 39.038 31.7814 59.7991 41.9563 36.1986 28.8275 65.387 28.9094 26.4332 27.488 76.4462 28.4222 20.8886 20.0984 15.6777 14.826 9.93581 9.1759 9.14005 8.77121 7.98624
threshold=1065.9000000000003 0.2629899856938484 599.00000000000011 1.0000000180025095e-35 9.668000000000001 0.49071428571428582 0.31973637993825454 492.50000000000006 225.00000000000003 149.50000000000003 22.750000000000004 1.5896875000000004 1111.9746610169493 2.4145000000000003 675.50000000000011 22.750000000000004 741.20000000000016 0.69410000000000005 738.00000000000011 0.42384575604383257 11.333142700000003 1038.5000000000002 0.39999570271373636 194.50000000000003 761.25000000000011 0.41989010989010994 437.60000000000008 521.00000000000011 797.24000000000012 96.500000000000014
decision_type=2 2 2 2 2 2 2 2 2 2 2 2 2 2 2 2 2 2 2 2 2 2 2 2 2 2 2 2 2 2
left_child=3 8 27 14 7 6 9 -5 -2 29 11 22 -13 -14 15 21 -16 28 19 20 26 -1 -8 -7 -20 -9 -19 -3 -18 -4
right_child=1 2 5 4 -6 23 10 25 -10 -11 -12 12 13 -15 16 -17 17 18 24 -21 -22 -23 -24 -25 -26 -27 -28 -29 -30 -31
leaf_value=-0.025373481997421808 0.036964185118675226 -0.0020272272871090812 -0.032861411520412991 0.0349178084481147 0.058113983191762655 -0.017459999866263811 0.072335115882066578 -0.018049769371747969 0.10663197433948517 0.023892382730137215 0.05652253478451779 -0.019522904515266417 -7.1188075201851972e-05 0.056170256342206681 -0.023308048439829539 0.039892386183142663 0.026618999817154623 -0.020982712055030078 0.0048411257965811369 0.040612303264439105 0.021340791617121015 0.0065735126300291583 0.030078582579439333 0.013231542426606884 -0.017659982266743018 0.0026810429877248301 -0.00034917859389231755 -0.023422695926997968 -0.00065733853408268524 -0.0061215536486018797
leaf_weight=41 23 25 20 30 34 42 25 75 21 32 56 26 20 20 177 31 21 91 28 31 20 32 21 22 330 28 25 68 20 21
leaf_count=41 23 25 20 30 34 42 25 75 21 32 56 26 20 20 177 31 21 91 28 31 20 32 21 22 330 28 25 68 20 21
internal_value=0.000191473 0.0169223 0.0106705 -0.00710799 0.0108655 0.019387 0.026359 -0.00153418 0.0719121 -0.000490746 0.0379774 0.0282602 0.0096263 0.0286605 -0.0106639 0.00407425 -0.0127336 -0.00938622 -0.0112049 -0.00112344 -0.0108856 -0.0114292 0.0541583 -0.00682238 -0.0158832 -0.0124138 -0.0166025 -0.0177859 0.0135432 -0.0197087
internal_weight=1456 442 398 1014 167 305 241 133 44 73 168 112 66 40 847 104 743 566 525 167 136 73 46 64 358 103 116 93 41 41
internal_count=1456 442 398 1014 167 305 241 133 44 73 168 112 66 40 847 104 743 566 525 167 136 73 46 64 358 103 116 93 41 41
is_linear=0
shrinkage=0.03


Tree=25
num_leaves=31
num_cat=0
split_feature=2 12 3 8 7 12 12 8 8 5 7 2 7 3 5 3 12 3 7 3 2 12 7 2 3 0 3 3 12 12
split_gain=186.475 143.907 108.159 74.7287 101.562 58.5123 81.2576 56.7145 52.1 28.6532 54.5923 38.2062 34.165 27.5783 61.6317 28.5319 25.1729 26.104 26.4665 24.8841 19.6869 18.9383 18.7615 14.5026 13.6872 11.533 24.9432 61.3673 14.3105 10.1413
threshold=1067.5000000000002 0.27989169675090259 599.00000000000011 1.0000000180025095e-35 8.8400000000000016 0.49071428571428582 0.31973637993825454 492.50000000000006 257.50000000000006 22.750000000000004 1.5896875000000004 1111.9746610169493 2.4145000000000003 675.50000000000011 22.750000000000004 741.20000000000016 0.55366137123745829 763.40000000000009 5.9700000000000015 674.50000000000011 1038.5000000000002 0.39999570271373636 17.950000000000003 1139.5500000000002 709.35000000000014 347.87500000000006 909.00000000000011 937.75000000000011 0.35120691906005225 0.41989010989010994
decision_type=2 2 2 2 2 2 2 2 2 2 2 2 2 2 2 2 2 2 2 2 2 2 2 2 2 2 2 2 2 2
left_child=3 8 -3 13 7 6 19 -5 -2 10 21 -12 -13 14 20 -15 17 18 -17 23 -1 -8 25 -4 -7 -19 28 -28 -27 -9
right_child=1 2 5 4 -6 24 9 29 -10 -11 11 12 -14 15 -16 16 -18 22 -20 -21 -22 -23 -24 -25 -26 26 27 -29 -30 -31
leaf_value=-0.024630401364394594 0.036383094894474943 -0.017865531509922396 0.029749170064926146 0.033904065359023308 0.053147821332514285 -0.018294355147593731 0.070248526041324311 -0.018501538842916488 0.10135551456042699 0.054856607487327173 -0.018674681741457717 -6.9154024124145494e-05 0.054565391830035614 -0.022949638470591113 0.038733014076948166 0.03565416007382529 0.018102707640878082 -0.018026790856444923 -0.0074567203846844761 -0.026335248678922649 0.006382281585173173 0.02921724170988256 0.013777747314909229 -0.0038460792303085323 0.0095087389264787957 0.0017647843296463423 0.044679045185446735 -0.021870880269087276 -0.019905962435765701 0.0026033853909064983
leaf_weight=41 28 92 20 30 39 36 25 71 20 56 25 20 20 178 31 20 28 273 32 23 32 21 22 25 27 36 23 25 109 28
leaf_count=41 28 92 20 30 39 36 25 71 20 56 25 20 20 178 31 20 28 273 32 23 32 21 22 25 27 36 23 25 109 28
internal_value=0.000194573 0.0165423 0.0104156 -0.00684551 0.0113806 0.0191873 0.0260493 -0.00153528 0.0650322 0.0372497 0.0279296 0.00989211 0.0278395 -0.0104605 0.00395805 -0.0124772 -0.00915556 -0.0106053 0.00942765 -0.00155524 -0.0110927 0.0526009 -0.0127611 0.0113421 -0.00636948 -0.0140472 -0.00833868 0.0102174 -0.0145299 -0.0125361
internal_weight=1456 438 390 1018 168 298 235 129 48 167 111 65 40 850 104 746 568 540 52 68 73 46 488 45 63 466 193 48 145 99
internal_count=1456 438 390 1018 168 298 235 129 48 167 111 65 40 850 104 746 568 540 52 68 73 46 488 45 63 466 193 48 145 99
is_linear=0
shrinkage=0.03


Tree=26
num_leaves=31
num_cat=0
split_feature=2 12 7 3 7 12 8 7 8 12 7 7 7 7 3 2 4 0 6 2 3 2 7 5 12 4 7 6 4 6
split_gain=175.743 144.898 139.928 88.592 79.3992 71.6826 66.8437 93.5564 51.6497 45.7362 34.6218 65.7404 27.9595 44.5964 45.2221 43.0324 26.5411 24.0018 22.0994 14.6007 14.5303 12.7584 25.0711 16.6545 10.071 9.09194 12.6334 6.27795 6.09555 13.7011
threshold=1056.5000000000002 0.24999567847882456 16.450000000000006 599.00000000000011 5.6750000000000007 0.49071428571428582 1.0000000180025095e-35 9.668000000000001 492.50000000000006 0.31973637993825454 3.4200000000000004 1.9750000000000003 4.9600000000000009 3.7050000000000005 827.68000000000018 1008.1500000000001 126.45000000000002 279.90000000000003 42.050000000000004 849.70000000000016 709.35000000000014 746.80500000000006 11.333448500000001 10.251000000000003 0.44007771250662681 163.25000000000003 1.8485000000000003 59.150000000000006 47.250000000000007 47.250000000000007
decision_type=2 2 2 2 2 2 2 2 2 2 2 2 2 2 2 2 2 2 2 2 2 2 2 2 2 2 2 2 2 2
left_child=6 -2 3 28 5 9 12 8 -8 16 11 24 13 15 19 -1 -5 -17 -6 -15 -7 22 23 -14 27 26 -10 -11 29 -3
right_child=1 2 -4 4 18 20 7 -9 25 10 -12 -13 21 14 -16 17 -18 -19 -20 -21 -22 -23 -24 -25 -26 -27 -28 -29 -30 -31
leaf_value=-0.016636465487677023 0.088790718866431209 0.0091146012204033986 0.075239923066106343 -0.017590661442798118 -0.02220465251749212 -0.017715095301469166 0.032919754582066689 0.054764982272596914 0.013933343270550604 0.07018028267570163 0.067369154817917776 -9.4326913356780999e-05 0.0073705471489164572 -0.021353686552047727 0.037955938088893887 0.024414604641670404 0.027980970849161558 -0.010246074280431193 0.013437519972974604 0.012154258359562266 0.011713037403730244 -0.018667958292961119 0.022725888780185152 -0.019963174389302729 0.029397243603416109 -0.02223253994743998 -0.013835548325282771 0.043056695818901057 -0.024401194076104596 -0.023500918177457954
leaf_weight=217 22 20 28 22 54 35 30 33 22 22 33 38 26 24 39 42 22 30 21 21 25 324 20 79 22 40 40 26 54 25
leaf_count=217 22 20 28 22 54 35 30 33 22 22 33 38 26 24 39 42 22 30 21 21 25 324 20 79 22 40 40 26 54 25
internal_value=0.000197553 0.0153006 0.0114868 0.00705035 0.0147222 0.0229734 -0.00698427 0.0103867 -0.00101363 0.0321756 0.0404626 0.031671 -0.0104832 -0.00438439 0.0147269 -0.00998121 0.00524394 0.00998904 -0.0121399 -0.00572714 -0.00541319 -0.015522 -0.00726036 -0.0131608 0.0487157 -0.0112459 -0.00386969 0.0567281 -0.0176168 -0.0090569
internal_weight=1456 469 447 419 320 245 987 165 132 185 141 108 822 373 84 289 44 72 75 45 60 449 125 105 70 102 62 48 99 45
internal_count=1456 469 447 419 320 245 987 165 132 185 141 108 822 373 84 289 44 72 75 45 60 449 125 105 70 102 62 48 99 45
is_linear=0
shrinkage=0.03


Tree=27
num_leaves=31
num_cat=0
split_feature=2 8 7 0 8 7 12 7 5 8 1 12 3 5 3 7 2 12 7 3 7 1 1 2 0 3 9 3 3 7
split_gain=165.947 130.024 104.806 71.8889 66.4872 90.7664 53.759 57.0708 52.3608 50.7017 48.5609 26.4217 25.1889 56.992 26.3864 23.9408 24.3397 65.1414 25.5997 22.5353 22.1416 21.3934 59.4949 17.7117 17.4741 12.8775 9.13819 8.36678 7.738 5.73059
threshold=1067.5000000000002 257.50000000000006 16.975000000000005 379.32000000000005 1.0000000180025095e-35 8.8400000000000016 0.44030042665790842 1.8485000000000003 33.420000000000009 510.50000000000006 171.80000000000004 0.38978260869565223 675.50000000000011 22.750000000000004 741.20000000000016 0.69410000000000005 738.00000000000011 0.42384575604383257 11.333142700000003 709.35000000000014 3.4200000000000004 154.50000000000003 186.18000000000004 1038.5000000000002 241.50000000000003 761.25000000000011 850.00000000000011 768.88000000000011 797.24000000000012 4.9600000000000009
decision_type=2 2 2 2 2 2 2 2 2 2 2 2 2 2 2 2 2 2 2 2 2 2 2 2 2 2 2 2 2 2
left_child=4 2 3 6 12 9 7 11 20 -6 -8 -2 13 23 29 28 17 18 27 -12 -9 -5 -23 -1 -22 -18 -11 -17 -16 -14
right_child=1 -3 -4 21 5 -7 10 8 -10 26 19 -13 14 -15 15 16 25 -19 -20 -21 24 22 -24 -25 -26 -27 -28 -29 -30 -31
leaf_value=-0.023387045834745677 0.066163744399944949 0.069479092153342997 0.072845894958661936 -0.032497503508221011 0.030051614978734185 0.050235679078102113 0.035749714276064992 -0.019180104483257639 0.046849279366690533 -0.019752196890115738 -0.026595778074670343 0.023784784297943111 -0.033026721795399984 0.037367437038570643 0.025514840028502721 0.0021728589194161549 0.0046200736062280067 0.03770868884772062 0.0207435097353799 0.0083127632783009456 0.033141237446240014 0.035465695481300352 -0.018444858144010815 0.0060261749896136198 -0.0044442536234855648 -0.016337564552152479 -0.00069010858786733526 -0.018905951308220929 -0.00011465442180633543 -0.018881452212731045
leaf_weight=41 35 36 22 32 33 39 22 32 28 59 46 24 35 31 21 20 28 31 20 25 20 24 69 32 23 332 37 96 20 143
leaf_count=41 35 36 22 32 33 39 22 32 28 59 46 24 35 31 21 20 28 31 20 25 20 24 69 32 23 332 37 96 20 143
internal_value=0.000200399 0.0156222 0.0106313 0.0068398 -0.00644079 0.0107505 0.0159605 0.0263467 0.0126153 -0.00145847 -0.00218751 0.0496586 -0.00985075 0.00392729 -0.0117783 -0.00858429 -0.0103094 -0.000815211 -0.00982944 -0.0143176 -0.000574205 -0.0117215 -0.00427125 -0.0105458 0.0133251 -0.0146909 -0.0125191 -0.0152585 0.0132362 -0.0218486
internal_weight=1456 438 402 380 1018 168 255 162 103 129 93 59 850 104 746 568 527 167 136 71 75 125 93 73 43 360 96 116 41 178
internal_count=1456 438 402 380 1018 168 255 162 103 129 93 59 850 104 746 568 527 167 136 71 75 125 93 73 43 360 96 116 41 178
is_linear=0
shrinkage=0.03


Tree=28
num_leaves=31
num_cat=0
split_feature=12 1 3 1 8 7 7 7 4 7 12 1 3 7 7 7 7 1 1 3 3 4 1 6 4 1 3 4 12 0
split_gain=147.584 57.6978 104.804 97.162 79.2117 64.7001 63.4957 45.0477 45.0435 49.133 37.2422 68.1749 47.0358 84.5434 35.9454 29.0595 28.9243 23.586 46.7692 33.871 38.842 40.4387 31.0564 22.8381 19.704 13.377 18.2508 10.277 9.97951 8.32537
threshold=0.21020270270270272 165.27000000000004 770.05000000000007 159.80500000000004 1.0000000180025095e-35 5.7287500000000007 9.668000000000001 4.4600000000000009 163.25000000000003 2.9800000000000004 0.35055419532464371 159.90500000000003 698.25000000000011 1.9750000000000003 16.450000000000006 4.9600000000000009 17.675000000000004 209.60000000000002 199.25000000000003 798.50000000000011 709.35000000000014 75.800000000000011 269.70000000000005 25.000000000000004 117.53000000000002 208.68000000000004 747.92500000000007 49.70000000000001 0.40054452096572074 248.68750000000003
decision_type=2 2 2 2 2 2 2 2 2 2 2 2 2 2 2 2 2 2 2 2 2 2 2 2 2 2 2 2 2 2
left_child=-1 2 5 -4 14 7 8 10 9 29 12 28 13 -2 15 17 23 18 19 20 21 -3 -19 -7 -22 -17 -27 -20 -12 -6
right_child=1 4 3 -5 6 16 -8 -9 -10 -11 11 -13 -14 -15 -16 25 -18 22 27 -21 24 -23 -24 -25 -26 26 -28 -29 -30 -31
leaf_value=0.077317099441181536 0.067236635716065113 -0.019006756741492475 -0.020824072842938558 0.048403569153376985 0.02360641959735325 -0.019973952566755229 0.051707609053920293 0.064225491709179336 -0.021203655297939595 -0.014756285056471825 0.065669406720109888 0.0032090454697608949 -0.025408921533160735 -0.0065731625954310105 0.022686386782675979 -0.017852608195070684 0.028592492320320823 -0.02237805965091243 0.042574232666388802 -0.015887396168324259 0.050066679239273069 0.025673595235897941 0.017891675353050231 0.016577859725270955 0.0091792106926441193 -0.019194830501079559 0.013366995345801115 0.013114862695336342 0.035298244902065824 0.053276196581976749
leaf_weight=21 22 60 139 20 20 57 33 26 38 23 36 37 26 35 31 337 21 98 22 123 20 25 20 20 23 29 31 23 20 20
leaf_count=21 22 60 139 20 20 57 33 26 38 23 36 37 26 35 31 337 21 98 22 123 20 25 20 20 23 29 31 23 20 20
internal_value=0.000202335 -0.000977141 0.00778177 -0.0118493 -0.00510316 0.018201 0.0162333 0.0278662 0.00422002 0.0196935 0.0221454 0.0350955 0.00735438 0.0225312 -0.00851755 -0.00974046 -0.0017709 -0.00415415 0.00036946 -0.00469934 0.00606824 -0.00568487 -0.0154345 -0.0103507 0.0289705 -0.0155334 -0.00237871 0.0281949 0.0556848 0.0394521
internal_weight=1456 1435 459 159 976 300 134 202 101 63 176 93 83 57 842 811 98 414 296 251 128 85 118 77 43 397 60 45 56 40
internal_count=1456 1435 459 159 976 300 134 202 101 63 176 93 83 57 842 811 98 414 296 251 128 85 118 77 43 397 60 45 56 40
is_linear=0
shrinkage=0.03


Tree=29
num_leaves=31
num_cat=0
split_feature=12 1 3 1 8 7 7 4 7 7 0 5 3 7 7 7 7 1 1 3 3 4 1 6 4 12 1 3 4 0
split_gain=139.212 54.3829 98.7334 91.6228 74.6343 60.9706 59.8291 42.4793 46.3681 42.4783 35.4821 43.5199 38.6459 33.8616 29.7439 27.39 27.2716 22.2267 44.0925 31.9296 36.6325 38.1183 29.2726 21.5317 18.5905 12.5879 12.5837 17.2072 9.69093 7.84913
threshold=0.21020270270270272 165.27000000000004 770.05000000000007 159.80500000000004 1.0000000180025095e-35 5.7287500000000007 9.668000000000001 163.25000000000003 2.9800000000000004 4.4600000000000009 308.95000000000005 18.560000000000006 693.50500000000011 16.450000000000006 1.1070000000000002 4.9600000000000009 17.675000000000004 209.60000000000002 199.25000000000003 798.50000000000011 709.35000000000014 75.800000000000011 269.70000000000005 25.000000000000004 117.53000000000002 0.44930007946696016 208.68000000000004 747.92500000000007 49.70000000000001 248.68750000000003
decision_type=2 2 2 2 2 2 2 2 2 2 2 2 2 2 2 2 2 2 2 2 2 2 2 2 2 2 2 2 2 2
left_child=-1 2 5 -4 13 9 7 8 29 10 11 12 25 15 -12 17 23 18 19 20 21 -3 -19 -7 -22 -2 -17 -28 -20 -6
right_child=1 4 3 -5 6 16 -8 -9 -10 -11 14 -13 -14 -15 -16 26 -18 22 28 -21 24 -23 -24 -25 -26 -27 27 -29 -30 -31
leaf_value=0.075103021486238999 -0.010034896039962769 -0.018445901970394321 -0.020203813106673105 0.047020608731678556 0.022931950466973439 -0.019385065315098596 0.050202006271656816 -0.020583856536791872 -0.014332042291760445 0.062370087597105238 0.020859819014867144 0.062272958204664025 0.041154508579861034 0.022027064882218835 -0.025563769449358398 -0.017318614534725097 0.027773708110505883 -0.021713498801896068 0.04135253769418467 -0.015414618514237864 0.048636202079909187 0.024933010848668904 0.017380484717232841 0.016104207072939192 0.0089153074026107788 0.017672682573055397 -0.018638180756568909 0.012978516597300769 0.012737811088562012 0.051754019124167307
leaf_weight=21 29 60 139 20 20 57 33 38 23 26 26 28 43 31 22 337 21 98 22 123 20 25 20 20 23 28 29 31 23 20
leaf_count=21 29 60 139 20 20 57 33 38 23 26 26 28 43 31 22 337 21 98 22 123 20 25 20 20 23 28 29 31 23 20
internal_value=0.000207602 -0.000937876 0.00756563 -0.0114881 -0.00494369 0.0176787 0.0157669 0.00410457 0.0191318 0.0270612 0.0215052 0.029699 0.0200224 -0.00825803 -0.00044391 -0.00944505 -0.00170832 -0.00402134 0.00036966 -0.00455169 0.00590222 -0.00551095 -0.0149718 -0.0100403 0.0281438 0.00359415 -0.0150692 -0.00230874 0.0273873 0.038327
internal_weight=1456 1435 459 159 976 300 134 101 63 202 176 128 100 842 48 811 98 414 296 251 128 85 118 77 43 57 397 60 45 40
internal_count=1456 1435 459 159 976 300 134 101 63 202 176 128 100 842 48 811 98 414 296 251 128 85 118 77 43 57 397 60 45 40
is_linear=0
shrinkage=0.03


Tree=30
num_leaves=31
num_cat=0
split_feature=2 8 7 7 3 8 1 4 9 3 3 1 1 7 7 3 2 0 6 3 4 7 7 2 1 7 7 1 3 3
split_gain=144.73 117.902 126.138 68.3324 64.8851 52.6285 77.7977 48.9146 37.4628 30.5197 39.016 27.8201 22.9936 22.7216 39.1955 38.7004 35.8734 21.2823 19.5084 13.2181 12.4767 11.6802 11.0547 10.721 28.3778 17.174 8.50203 5.7032 4.39907 3.85289
threshold=1056.5000000000002 225.00000000000003 16.450000000000006 4.9600000000000009 599.00000000000011 1.0000000180025095e-35 185.47500000000002 69.875000000000014 1.0000000180025095e-35 659.50000000000011 709.35000000000014 157.75000000000003 142.25000000000003 4.9600000000000009 3.7050000000000005 827.68000000000018 1008.1500000000001 279.90000000000003 116.30000000000001 786.5150000000001 47.250000000000007 1.0100000000000002 5.6100000000000003 746.80500000000006 179.95000000000002 11.315913000000004 1.2930000000000004 175.75000000000003 675.50000000000011 743.30000000000007
decision_type=2 2 2 2 2 2 2 2 2 2 2 2 2 2 2 2 2 2 2 2 2 2 2 2 2 2 2 2 2 2
left_child=5 2 3 4 20 13 26 9 -8 -6 27 -12 -9 14 16 19 29 28 22 -16 -2 -14 -5 24 -15 -26 -7 -11 -18 -1
right_child=1 -3 -4 18 7 6 8 12 -10 10 11 -13 21 23 15 -17 17 -19 -20 -21 -22 -23 -24 -25 25 -27 -28 -29 -30 -31
leaf_value=-0.0067369179975154785 0.0017835563651977045 0.063215776804089546 0.069743001567906346 -0.0030943014967826105 0.039733438298106188 0.0049278844811699611 0.041412975631413926 0.010829904003576798 -0.0046209534515034064 -0.0042090557976202526 -0.0014478720161649914 0.042277486420594729 0.028398907363414761 0.024628412864424961 0.010691549733281135 0.035491526681184764 0.032770480462482994 -0.0099713720660055839 0.011348685353994369 -0.021127410743547521 -0.024108286567636437 0.057620118107114524 -0.024876801500320435 -0.016836332363715539 0.011610189880643572 -0.018771392003227683 -0.016817875544230143 -0.025026668632030482 0.012313948693482773 -0.017208937403830615
leaf_weight=42 30 39 28 30 23 21 61 21 21 21 26 25 23 21 23 39 20 30 23 22 36 41 74 324 20 84 62 29 22 175
leaf_count=42 30 39 28 30 23 21 61 21 21 21 26 25 23 21 23 39 20 30 23 22 36 41 74 324 20 84 62 29 22 175
internal_value=0.000211804 0.0139178 0.00930329 0.0049235 0.0133206 -0.00630542 0.00910741 0.0214914 0.029674 0.0093146 0.0020365 0.0203293 0.0389055 -0.00941018 -0.00391135 0.0140039 -0.00915921 0.00907244 -0.0131978 -0.00492029 -0.0124435 0.0477634 -0.0187113 -0.0139527 -0.00638039 -0.0128453 -0.0112871 -0.0165961 0.0226605 -0.0152361
internal_weight=1456 469 430 402 275 987 165 209 82 124 101 51 85 822 373 84 289 72 127 45 66 64 104 449 125 104 83 50 42 217
internal_count=1456 469 430 402 275 987 165 209 82 124 101 51 85 822 373 84 289 72 127 45 66 64 104 449 125 104 83 50 42 217
is_linear=0
shrinkage=0.03


Tree=31
num_leaves=31
num_cat=0
split_feature=2 12 7 7 3 8 7 12 12 8 8 7 7 7 7 3 2 0 2 6 2 7 5 7 5 6 3 7 4 3
split_gain=136.369 120.734 99.7264 71.6873 70.8469 49.5332 71.7285 43.8074 43.051 39.4593 34.683 26.5783 57.8635 21.3898 36.905 36.4744 33.8071 20.0809 12.8964 12.3351 10.0993 19.7325 14.0297 9.14829 13.585 8.69153 7.37735 13.4945 6.92515 4.14788
threshold=1056.5000000000002 0.27989169675090259 16.450000000000006 4.9600000000000009 599.00000000000011 1.0000000180025095e-35 9.668000000000001 0.49999211381344444 0.31973637993825454 510.50000000000006 225.00000000000003 3.4200000000000004 1.9750000000000003 4.9600000000000009 3.7050000000000005 827.68000000000018 1008.1500000000001 279.90000000000003 849.70000000000016 70.500000000000014 746.80500000000006 11.333448500000001 10.251000000000003 6.5850000000000009 35.76250000000001 63.420000000000009 857.90000000000009 1.6712500000000003 47.250000000000007 675.50000000000011
decision_type=2 2 2 2 2 2 2 2 2 2 2 2 2 2 2 2 2 2 2 2 2 2 2 2 2 2 2 2 2 2
left_child=5 10 3 4 28 13 9 8 -6 -7 -2 12 25 14 16 18 -1 29 -16 -9 21 22 -15 24 -5 -10 -11 -28 -3 -18
right_child=1 2 -4 23 7 6 -8 19 11 26 -12 -13 -14 20 15 -17 17 -19 -20 -21 -22 -23 -24 -25 -26 -27 27 -29 -30 -31
leaf_value=-0.014782683622946434 0.032246856857990391 -0.0031464302582400183 0.068870098984759778 0.011868512143259463 -0.0053012066504050954 0.026763649674022897 0.047696865312974242 -0.016522903302620198 0.052854101978919731 0.005313666496958051 0.083648398697376253 0.06126819222548912 -0.0012668786153197287 0.007401055057843527 -0.019477690415382384 0.034453398871421813 0.031834180559430804 -0.0096818806702090848 0.012007997664538297 0.012884731634803441 -0.016332796503397133 0.020410175698144097 -0.017669369132816793 -0.023151691616558636 -0.017649089738726614 0.028944932637543511 0.0018884465858854096 -0.023786087875182813 -0.023404585303487005 0.011960591834524402
leaf_weight=217 28 27 22 22 28 33 33 28 43 20 23 28 39 26 24 39 20 30 21 22 324 20 79 60 35 28 28 51 36 22
leaf_count=217 28 27 22 22 28 33 33 28 43 20 23 28 39 26 24 39 20 30 21 22 324 20 79 60 35 28 28 51 36 22
internal_value=0.000211831 0.0135161 0.00812371 0.00457638 0.0128374 -0.00611429 0.00883815 0.0209886 0.0283674 -0.00113955 0.0566485 0.0352093 0.0280568 -0.00912643 -0.00379086 0.0135926 -0.00888328 0.0088147 -0.00477753 -0.00352579 -0.0135339 -0.00618339 -0.0114219 -0.0150394 -0.0061964 0.0439998 -0.0106452 -0.0147389 -0.0149542 0.0220142
internal_weight=1456 469 418 396 279 987 165 216 166 132 51 138 110 822 373 84 289 72 45 50 449 125 105 117 57 71 99 79 63 42
internal_count=1456 469 418 396 279 987 165 216 166 132 51 138 110 822 373 84 289 72 45 50 449 125 105 117 57 71 99 79 63 42
is_linear=0
shrinkage=0.03


Tree=32
num_leaves=31
num_cat=0
split_feature=2 12 3 8 1 1 12 12 9 1 12 5 3 3 3 5 3 3 0 12 2 12 2 12 2 1 1 2 4 3
split_gain=128.51 108.311 74.5188 49.2717 58.5319 43.1625 41.3767 60.3061 31.1718 27.5926 22.7391 20.9968 23.4448 30.6052 19.655 49.4388 23.7624 19.0572 22.3863 22.0426 18.3624 14.6741 13.927 12.6875 12.4127 11.2587 45.9146 7.02348 6.64564 5.69046
threshold=1067.5000000000002 0.27989169675090259 599.00000000000011 1.0000000180025095e-35 185.47500000000002 150.50000000000003 0.49071428571428582 0.31973637993825454 1.0000000180025095e-35 149.50000000000003 0.33995614035087723 22.750000000000004 693.50500000000011 736.50000000000011 675.50000000000011 22.750000000000004 741.20000000000016 763.40000000000009 299.90000000000003 0.55366137123745829 1168.5000000000002 0.27989169675090259 1038.5000000000002 0.39812811598889702 1147.5000000000002 199.70000000000002 204.50000000000003 831.90000000000009 96.500000000000014 521.00000000000011
decision_type=2 2 2 2 2 2 2 2 2 2 2 2 2 2 2 2 2 2 2 2 2 2 2 2 2 2 2 2 2 2
left_child=3 5 29 14 23 -2 7 9 -6 28 -9 12 20 -14 15 22 -16 18 -18 21 -12 -19 -1 -5 -8 -23 -27 -28 -4 -3
right_child=1 2 6 4 8 -7 24 10 -10 -11 11 -13 13 -15 16 -17 17 19 -20 -21 -22 25 -24 -25 -26 26 27 -29 -30 -31
leaf_value=-0.021260802720274245 0.020521264450890676 -0.002179389839172363 -0.029937609638486587 -0.015287346652575898 0.037507670630434795 0.079404799079072885 -0.017090788905685012 0.058114426546096797 -0.0043817824992266564 0.020140378129893333 -0.018509168061343104 0.042904169562015135 0.056292324915528297 0.011178880394381635 -0.019822123715664421 0.034748507145792244 -0.0056475424441424279 0.0095406884378002529 0.034012127723012646 0.016450691515001756 0.020706200633730208 -0.014321944201125779 0.0048217509226365519 0.010365999370813369 0.0093819744714668807 0.036667436991419104 -0.019895687783465663 -0.0016212827749550341 -0.0052370122415678838 -0.019385765568069788
leaf_weight=41 20 24 20 62 62 28 36 24 21 28 21 46 23 33 178 31 32 30 20 28 20 357 32 23 27 20 50 31 20 68
leaf_count=41 20 24 20 62 62 28 36 24 21 28 21 46 23 33 178 31 32 30 20 28 20 357 32 23 27 20 50 31 20 68
internal_value=0.000213139 0.0137845 0.00846987 -0.00563088 0.00916725 0.0558507 0.0157519 0.0215232 0.0269474 -0.00224052 0.0311731 0.0262585 0.0179768 0.0304228 -0.00856654 0.00360111 -0.0102694 -0.00724092 0.00990351 -0.00899027 0.000586393 -0.0104868 -0.00987616 -0.00827115 -0.00572912 -0.0118231 -0.0029073 -0.0130434 -0.0180894 -0.0150011
internal_weight=1456 438 390 1018 168 48 298 235 83 68 167 143 97 56 850 104 746 568 52 516 41 488 73 85 63 458 101 81 40 92
internal_count=1456 438 390 1018 168 48 298 235 83 68 167 143 97 56 850 104 746 568 52 516 41 488 73 85 63 458 101 81 40 92
is_linear=0
shrinkage=0.03


Tree=33
num_leaves=31
num_cat=0
split_feature=2 12 7 1 7 1 0 3 12 3 7 12 7 3 1 12 2 3 0 7 7 1 3 1 12 7 9 1 1 5
split_gain=121.203 108.785 106.311 69.2289 57.8449 60.9114 46.6803 31.6619 77.6546 34.2386 29.5905 49.6774 21.3436 17.9376 17.1347 79.2025 24.5084 42.5694 27.3593 20.694 28.6959 27.7903 19.0041 13.353 12.2921 9.323 6.11573 5.416 5.4004 4.25514
threshold=1056.5000000000002 0.24999567847882456 16.450000000000006 162.05000000000004 1.5896875000000004 157.75000000000003 254.37500000000003 895.50000000000011 0.41336424938697675 931.00000000000011 2.8120000000000007 0.44030042665790842 2.8120000000000007 678.6600000000002 154.50000000000003 0.28324842455996335 1008.1500000000001 749.7600000000001 435.75000000000006 11.332453000000003 4.580000000000001 182.95000000000002 675.50000000000011 154.50000000000003 0.57161854103343479 4.3675000000000006 1.0000000180025095e-35 204.50000000000003 144.81000000000003 25.250000000000004
decision_type=2 2 2 2 2 2 2 2 2 2 2 2 2 2 2 2 2 2 2 2 2 2 2 2 2 2 2 2 2 2
left_child=7 -2 3 4 23 6 12 14 9 29 11 -5 -6 -13 -1 -16 18 22 26 20 -20 -22 -18 -3 -15 -8 -17 -10 -27 -9
right_child=1 2 -4 10 5 -7 25 8 27 -11 -12 13 -14 24 15 16 17 -19 19 -21 21 -23 -24 -25 -26 28 -28 -29 -30 -31
leaf_value=-0.019832403850332598 0.076431238112242311 0.057938518869025367 0.065019870733392646 0.045665569169180728 -0.005745130577257701 0.045340506399831462 -0.031499025517039828 0.0063615931868553164 0.03825157954882491 -0.015161865903437138 -0.018244069122351131 -0.023602386921644208 0.032354881476711582 0.018357665585620062 0.049136945827440777 -0.012815960545893068 0.011221235418319703 0.042240793696858667 -0.015889450941767011 -0.015600983766948474 0.00014294951302664619 0.047746243386268615 -0.021539293443455412 0.027732312761685425 -0.012000677704811096 -0.018410474245548248 -0.024022970946935503 0.017571909802300591 0.0017832521562990934 0.025646635253514561
leaf_weight=106 22 27 28 20 20 30 26 23 43 119 103 31 36 27 21 404 29 21 20 33 20 24 33 33 20 24 51 20 22 20
leaf_count=106 22 27 28 20 20 30 26 23 43 119 103 31 36 27 21 404 29 21 20 33 20 24 33 33 20 24 51 20 22 20
internal_value=0.000213214 0.012756 0.00945176 0.00558527 0.0172625 0.00760577 -0.00149797 -0.00575066 0.00411466 -0.00688446 -0.00708754 0.00467375 0.018833 -0.006244 -0.00866916 -0.00683333 -0.00876339 0.00635236 -0.011049 0.00336272 0.0132766 0.0266591 -0.00623332 0.0421013 0.00539584 -0.0173934 -0.0141286 0.0321106 -0.00885632 0.0157786
internal_weight=1456 469 447 419 218 158 128 987 225 162 201 98 56 78 762 656 635 83 552 97 64 44 62 60 47 72 455 63 46 43
internal_count=1456 469 447 419 218 158 128 987 225 162 201 98 56 78 762 656 635 83 552 97 64 44 62 60 47 72 455 63 46 43
is_linear=0
shrinkage=0.03


Tree=34
num_leaves=31
num_cat=0
split_feature=2 12 3 1 3 12 12 2 5 7 3 12 3 1 7 3 5 5 1 3 3 0 1 1 12 4 3 2 7 5
split_gain=114.372 97.1344 67.0584 39.3861 39.0493 36.0083 47.8935 29.3645 34.6495 36.5613 28.049 88.3022 28.7377 21.4913 19.1249 16.5022 42.3965 29.0796 15.4727 13.0936 21.4832 21.8604 15.6565 26.2802 69.0372 23.2399 7.67601 6.61104 6.12742 5.26833
threshold=1067.5000000000002 0.27989169675090259 599.00000000000011 150.50000000000003 771.45000000000016 0.54870852332740827 0.29990512333965852 1287.0000000000002 1.0000000180025095e-35 7.4650000000000007 906.25000000000011 0.41336424938697675 931.00000000000011 162.55000000000004 4.9200000000000008 688.07500000000016 22.750000000000004 46.070000000000007 149.50000000000003 741.20000000000016 763.40000000000009 299.90000000000003 197.84000000000003 164.90000000000003 0.35120691906005225 11.691500000000001 669.50000000000011 1043.8000000000002 4.9600000000000009 25.250000000000004
decision_type=2 2 2 2 2 2 2 2 2 2 2 2 2 2 2 2 2 2 2 2 2 2 2 2 2 2 2 2 2 2
left_child=10 3 -3 -2 5 6 -4 8 9 13 15 12 29 18 -10 16 26 -18 -8 28 21 -21 23 27 -25 -26 -1 -22 -17 -12
right_child=1 2 4 -5 -6 -7 7 -9 14 -11 11 -13 -14 -15 -16 19 17 -19 -20 20 22 -23 -24 24 25 -27 -28 -29 -30 -31
